293.8441495   7.3413202 0.0017184   3.4692210
293.7921568   5.5494906 0.0066530   3.4090261
293.7597153   3.7572080 0.0219148   3.3516759
293.7466165   1.9646815 0.0506268   3.2970093
293.7527459   0.1721178 0.1054647   3.2448775
293.7780810  -1.6202774 0.1981153   3.1951429
293.8226914  -3.4122976 0.2970296   3.1476780
293.8867391  -5.2037338 0.4655936   3.1023647
293.9704802  -6.9943732 0.6094475   3.0590934
294.0742677  -8.7839973 0.7060783   3.0177622
294.1985548 -10.5723800 0.8388286   2.9782765
294.3439000 -12.3592862 0.9109975   2.9405481
294.5109736 -14.1444691 0.9641222   2.9044951
294.7005644 -15.9276685 0.9943012   2.8700410
294.9135894 -17.7086081 1.0000000   2.8371146
295.1511038 -19.4869929 0.9992514   2.8056493
295.4143142 -21.2625062 0.9920700   2.7755829
295.7045927 -23.0348058 0.9920700   2.7468576
296.0234942 -24.8035208 0.9785940   2.7194189
296.3727764 -26.5682466 0.9785940   2.6932161
296.7544226 -28.3285400 0.9920700   2.6682019
297.1706687 -30.0839131 0.9920700   2.6443317
297.6240343 -31.8338271 0.9992514   2.6215639
298.1173582 -33.5776836 0.9943012   2.5998596
298.6538407 -35.3148159 0.9822650   2.5791824
299.2370916 -37.0444779 0.9402174   2.5594982
299.8711861 -38.7658312 0.8769985   2.5407749
300.5607298 -40.4779305 0.7971506   2.5229826
301.3109334 -42.1797050 0.6581096   2.5060934
302.1276989 -43.8699376 0.5126143   2.4900811
303.0177188 -45.5472397 0.3767193   2.4749212
303.9885892 -47.2100206 0.2612039   2.4605909
305.0489373 -48.8564517 0.1464290   2.4470688
306.2085652 -50.4844233 0.0740216   2.4343351
307.4786059 -52.0914929 0.0337422   2.4223713
308.8716911 -53.6748243 0.0138699   2.4111601
310.4021210 -55.2311139 0.0039471   2.4006857
312.0860238 -56.7565054 0.0009557   2.3909333
