294.7797755   8.1469692
294.3043338   5.4567491
292.9944157   5.7566905
293.4465790   3.0949761
293.8741714   3.3769880
293.1261173   4.4931363
293.3121370   3.6739504
293.0622310   1.2612730
293.4873505   2.3643980
292.9776708   1.4464863
293.1535736   2.8332098
293.5006423   1.4595761
293.9452995   1.3929622
292.9469563   2.2917632
293.4897659   2.5832598
293.2945533   0.0845818
294.3116723   0.2560974
293.0058049   0.0120044
293.0695553  -0.2495618
293.6501935  -0.0438128
294.4144915   0.3823458
293.9414373   0.8761612
292.9422787   0.1408367
294.2143235  -0.5624574
293.2529699   0.7175659
293.3582121   0.6031113
293.6962929  -0.4131285
293.6757685   0.4224821
293.2489478   1.0430230
294.4207888  -0.2365301
294.3445992   0.2499451
294.1603348   0.0700212
293.1042023  -2.3629797
294.2957326  -1.0655953
294.5469214  -1.6947062
294.5602965  -0.8479382
293.8024383  -1.1440756
294.0802905  -0.8332988
293.1966579  -2.4028357
293.6651383  -1.9546419
293.0327690  -1.7702128
293.7701295  -2.0732347
293.9950708  -0.8367789
293.6743347  -1.7943958
294.2885854  -1.2916437
294.4149193  -2.3320715
293.0396940  -2.0250023
292.9820284  -1.5021447
293.2665146  -0.7902595
293.7568455  -2.1148422
293.1613942  -2.5029585
294.4530260  -1.5285167
294.2623997  -1.8633206
294.6697969  -1.8793292
293.4534416  -1.2711691
293.2748883  -1.3037456
293.5757763  -1.1564029
294.3032135  -1.1574338
293.5558765  -2.4376266
294.4427938  -2.4536125
294.4541849  -1.9107260
293.2761181  -1.7049121
293.7819467  -1.9234676
293.6085758  -3.0211572
294.6230384  -3.0343295
293.0009604  -3.9578472
294.1645521  -3.4906905
293.3453965  -4.1789933
293.9350540  -3.8178744
293.9751633  -3.7184582
293.1567392  -2.9442611
293.3146193  -3.9275228
293.7296642  -4.3077294
293.4050635  -3.4454156
293.7433601  -2.8790987
293.0924029  -3.9617325
294.6170619  -4.0088698
294.3775233  -3.8642308
293.9895447  -4.1767032
293.4300844  -2.8401499
294.5276662  -3.5061403
293.3948209  -2.7800485
294.0606223  -2.9306871
293.6693950  -4.0756856
294.4598979  -2.7339892
294.5732417  -3.1924505
293.1494840  -3.7827711
293.8984233  -3.1345915
294.4123012  -3.0486211
293.5289667  -3.9667489
293.2102596  -3.6244429
294.1875592  -4.1295234
293.4105741  -3.6192278
293.8537797  -3.3999867
293.2552487  -3.1932190
293.1549445  -3.4027894
294.1273605  -3.3166432
294.1234842  -4.1671274
293.2650020  -3.5273219
294.7029197  -4.0120619
293.6935030  -3.9086217
294.0669298  -2.9350735
294.5090526  -3.1446215
293.9188859  -2.5877052
293.4035767  -3.5255676
294.3738665  -2.7394485
293.1260004  -3.7236974
293.0397271  -4.1648493
293.4527212  -4.1246880
293.2243522  -3.5136418
293.8782173  -4.9111419
294.2433202  -5.2465640
294.5661951  -5.4727953
294.7842863  -5.9069731
293.1750702  -4.6184936
293.4839726  -5.3606049
294.7192274  -5.9348955
294.2252680  -4.3863719
293.5491262  -5.3383124
293.8502081  -5.2675702
294.6818036  -4.8152577
294.5396017  -6.0651861
293.5597669  -5.9094350
293.8830178  -5.4351930
293.9407499  -4.3720801
294.0068864  -5.4882844
294.1190905  -5.0373202
293.7781512  -4.4728087
294.1454680  -4.7173177
294.0313633  -5.4831055
294.3076244  -5.5086160
294.4622082  -5.6453117
293.2406062  -5.1769971
292.9811320  -4.4414154
294.7217652  -4.3031690
294.1341853  -4.5972646
293.9820899  -5.5424492
294.2845928  -5.5516838
293.7423004  -4.7458255
294.1186041  -5.7984818
293.0591571  -5.1190240
293.9247148  -5.5033800
294.3983952  -4.9611681
293.4096416  -4.8732562
294.5407346  -5.8578565
293.9348150  -5.7453607
294.2038218  -5.4226892
294.1036949  -5.8817380
294.5542601  -5.8611212
293.7969905  -5.9157952
294.2880779  -5.1257171
293.2805867  -4.3419697
294.4943226  -4.9539119
293.6656358  -4.3888677
293.3185587  -6.0451512
293.0532741  -5.4928336
293.3273271  -5.6254508
294.1828328  -5.4080775
294.2023432  -4.4128264
293.9021419  -5.9297504
294.6555058  -4.7171780
294.6810939  -5.1438911
293.7763861  -5.8674226
294.0024333  -5.1271327
293.4620708  -5.2120710
293.5612464  -5.9205079
293.1507963  -4.9119547
294.7739241  -5.5714153
294.2538008  -4.6849819
293.5337575  -4.9982030
294.4145923  -4.6751331
294.7188591  -4.8696397
293.1521561  -5.2684401
293.9835051  -5.8406664
294.4999677  -4.3907058
294.0190385  -5.5979280
294.5083572  -5.7952356
293.8587412  -4.9992382
294.4361175  -6.0100224
293.4290886  -5.8138518
293.4468395  -4.5289970
293.1029261  -4.6542400
294.7843064  -5.9605294
294.5284993  -6.8246398
293.4163135  -7.3969451
293.7002769  -6.9123417
294.8397076  -7.7984644
294.0901315  -6.1795355
293.7467697  -6.8299405
293.4844007  -6.3031446
294.1844456  -6.1205683
294.7277240  -6.3686863
294.0347625  -7.3658338
294.2561123  -6.8396749
293.3388331  -6.7568160
294.1798010  -6.1767426
294.1202170  -7.7070685
293.6748441  -6.5270117
293.4524339  -6.8243649
294.5123005  -6.5596418
294.6246013  -6.3217977
294.2691390  -6.3947006
294.6478715  -6.3236827
293.6853976  -7.8769645
293.5417391  -6.8231697
294.8001941  -6.0812056
294.7129423  -7.0745436
293.7767746  -6.7946226
293.7898066  -7.3686110
293.6740618  -6.9204372
293.8445913  -7.2302946
293.4234055  -6.6668140
293.9154880  -7.5865133
293.7849767  -6.4114606
293.9867021  -6.8066364
293.9377670  -6.8556451
293.9889008  -7.6982537
293.0887189  -7.1649958
294.2984627  -7.2935783
293.0473618  -6.3289918
293.0529480  -6.6238194
294.3312256  -7.7587397
293.6534244  -6.5112579
294.3470040  -6.1305509
294.0013769  -7.6564582
294.4057037  -6.9454156
293.9536374  -7.7341824
294.6859179  -6.8616044
294.6066909  -7.2200860
294.8945476  -7.6277218
293.9086869  -7.4299600
294.3479567  -6.3394858
294.0468119  -6.4836970
293.8213001  -7.0455530
293.9349106  -6.7899007
294.6439456  -7.2478942
293.5107295  -6.5711294
294.1314971  -7.6096789
293.3421938  -7.4704743
293.9608779  -7.4593733
293.3165844  -6.9846393
293.1517404  -7.1224146
293.7365698  -6.5972328
293.5444388  -7.5134676
293.7539857  -6.8269964
294.2396872  -7.3393717
293.6578210  -6.7232022
293.2888547  -7.2639047
293.4099978  -6.4072951
294.8181619  -6.2530236
294.1738587  -6.1378711
293.3570048  -7.2466040
293.1881236  -7.6017104
293.8238391  -7.6184070
294.5087351  -7.0932990
294.1786321  -6.3923963
294.7207815  -6.2920390
294.6791560  -6.1351993
294.3208343  -6.6703724
294.2068883  -6.4404063
293.8632904  -7.0345044
294.2383894  -7.8015390
293.3803788  -6.2762094
293.2986269  -7.4668362
294.4632619  -7.7378283
293.6912430  -6.8130882
293.3955515  -7.7986926
294.1162188  -6.8056345
294.0089588  -7.1424230
293.3162315  -6.7251740
294.2070466  -7.5348096
294.2053262  -7.5590491
293.9751648  -6.7475820
294.2880121  -7.2094404
293.9006050  -6.5784435
294.5353907  -6.9866070
294.5874529  -7.4989361
293.4819367  -6.5755475
293.6707022  -7.1086984
293.6441489  -8.9823191
293.7104807  -9.3166187
293.5543871  -8.1842195
294.3354444  -9.1107918
294.3293575  -8.2047670
294.5302835  -8.4284890
294.5926182  -8.2541499
294.3592843  -9.6257187
294.9214985  -9.0931679
294.8692156  -9.2650846
293.6930217  -8.8179375
293.2769197  -8.6726872
293.7927260  -8.4958483
293.6578865  -9.0658873
294.2590798  -8.8195233
294.2306458  -9.1576195
293.5665781  -8.8748232
293.1505603  -8.1321749
293.8816945  -8.1374583
294.7235356  -8.6863593
294.6891263  -8.0893933
293.6948353  -9.6660638
294.9086298  -8.3686249
294.6247867  -8.3312072
293.8548885  -9.4418881
293.6334287  -9.4644602
293.8884832  -9.6432178
294.7438874  -9.1573977
294.0757794  -8.2002270
294.3962900  -9.2110666
294.8381194  -8.9976022
293.3944463  -7.9915799
293.2182649  -8.8216513
294.0600743  -8.6565051
294.7502001  -8.4598298
294.2247126  -9.3170275
293.9485657  -8.5008118
294.4887716  -8.6245565
294.5788212  -9.1960647
294.7964229  -9.4380565
294.4866252  -8.2211205
293.6318726  -8.6810206
293.8465061  -8.1909029
293.3796521  -8.5141239
294.3684870  -7.8956299
294.7499061  -9.6047504
294.7592602  -8.6835016
293.8629405  -8.4188203
294.8637878  -9.5977906
293.5106494  -9.5846116
294.9813909  -9.3571003
293.9289138  -9.3547414
294.1750073  -8.0680710
293.9490042  -9.6063621
293.2862753  -8.8492146
294.4760643  -8.1168346
293.8904201  -8.1844998
294.0686696  -8.6192304
294.4365241  -8.8088216
294.9224324  -9.0520872
293.9735742  -8.5634079
294.5617749  -7.9295211
294.7169909  -8.3442403
294.0176845  -8.3400454
293.8263865  -8.6596077
294.3836036  -8.5281643
294.2967454  -8.4621344
294.4259345  -7.9863273
294.4968869  -9.5239599
293.3223998  -8.6180361
293.6635429  -9.5243073
293.8387511  -9.5340082
293.7369268  -8.7278220
293.2164369  -8.5710722
294.0048834  -9.2936665
293.1769051  -8.4297073
294.5232457  -8.0254935
293.8312513  -8.6991694
294.5895060  -8.0747507
294.7904139  -9.2916462
294.1078375  -8.5145211
294.4612021  -7.8647890
294.3068632  -9.4385107
294.3890656  -9.2509243
294.0766979  -8.0671768
294.6754480  -8.3610601
294.8929027  -9.5260399
293.9171754  -8.0630891
293.3384233  -9.4343010
294.9241573  -8.9297182
294.6540946  -8.6696259
294.0343589  -8.2543597
294.9588036  -9.5473816
293.3681034  -9.2556198
294.2998879  -9.5750983
294.8505234  -8.0677403
293.6314736  -7.9932044
293.5166755  -9.1890046
293.5802807  -9.3202806
294.3780897  -9.0168251
293.5124428  -8.9771383
293.3101076  -8.4680851
293.1301122  -7.9872758
294.4363443  -8.8565479
293.6963942  -8.8363296
294.1699600  -8.4223263
293.6197596  -9.6904524
294.2898284  -7.9142470
294.7299197  -9.5279944
294.6091737  -9.2137128
293.2894296  -9.5530726
294.2025475 -10.2946279
294.6405174  -9.8132696
293.7412675 -10.5037759
293.6679791  -9.7745720
293.2924628  -9.9785019
294.1665433 -10.3438548
293.4270318 -11.1763281
294.2605969 -10.6222860
294.6051726 -10.7711475
295.1428242 -10.9235382
293.4427939 -10.9074795
293.4009155 -10.1686798
293.7296893 -10.2124300
293.4182476 -10.3124233
293.4032772 -10.3916563
293.7183869  -9.7265461
294.6003688 -10.2621223
294.6141716 -10.2927600
294.1179027 -11.2464466
294.8633191 -10.6586374
293.9613320 -10.8700929
295.1194103 -11.1353254
293.7264635 -10.2319595
294.1815610 -10.8412627
293.5992756 -10.5858582
294.9634138 -11.3338801
293.7976284 -10.1875773
293.5192289 -11.1701776
294.8391178 -10.4421698
293.7375081 -10.2307427
294.6747570 -10.8720335
293.5316553  -9.7569208
293.4846180 -10.0378949
293.6865348  -9.7432187
294.7469493 -10.1131231
293.6208743 -11.3519076
294.6717163  -9.7575876
294.8240258  -9.9372300
294.5898493  -9.7769079
294.8499485 -10.4540905
293.7089236 -10.6850265
295.0092345 -10.3044950
293.8591109 -10.3727945
293.9535747 -11.4715052
293.5418066 -10.5088842
294.9057531 -10.6453151
293.7142572 -10.9753181
295.0322009  -9.9977107
294.4655058 -10.1789181
294.2804144 -11.1893319
293.8092970 -10.0951536
293.8777041 -10.1257760
293.7275937 -10.6504876
293.8534928 -10.4736389
294.3191460 -10.3376140
294.0050204 -10.6216077
294.2288286 -10.2957328
294.8596843 -10.8472691
294.5512690 -10.7253861
293.4840988 -10.9976773
294.3500280 -10.3197209
294.2568412 -11.3260212
293.3935348  -9.9274434
293.6000052 -11.0894369
295.0666339 -10.8201872
294.0277008 -11.2476235
293.9041085 -10.8211504
294.3150157 -10.2808823
293.8328665  -9.9791001
294.1756821 -11.2125704
293.8369228 -11.0716336
294.8853723 -10.5415498
293.7707517 -10.9439933
293.5250048 -11.2979986
294.3873765 -10.8541803
293.5437128 -10.9154644
293.8464039  -9.9516109
294.7573226 -10.9686247
293.7479314 -10.4889091
293.4496090 -10.1023859
293.9331462  -9.9583121
293.8632823 -10.0024283
294.5047640 -10.8208808
293.4809296 -11.1019431
294.3879153 -10.0633405
294.1266867 -10.1729766
293.4055543 -10.2431077
293.4365954 -11.0346843
293.4908171 -11.1851232
293.9228957 -10.5444050
294.9631679 -11.1625725
294.5218096 -10.1842796
294.2986564 -10.5970932
293.9297638 -10.5711891
294.0608985 -10.7632844
294.1683419 -11.1119738
293.6203854 -10.2568241
294.5218437  -9.7596637
294.7029839 -11.1051769
294.6674472 -10.9934776
294.5173242  -9.7042826
294.0903989  -9.7416491
294.1151928 -10.9427100
293.2457614  -9.7591086
294.7736569 -10.3496119
293.7332213 -10.4769099
294.0703001 -10.5091699
294.2056317 -10.1695046
293.6508140 -11.2437826
293.8614657 -10.5079161
293.7349680  -9.9194722
293.6956990 -10.3715040
293.7806716  -9.9445194
294.0340831  -9.7763534
294.0349795 -10.1311879
293.8919699 -11.1579389
294.6273495  -9.9663147
294.0070207  -9.8545543
294.2005372 -10.3550436
295.0385100 -11.0955304
293.9532068 -11.1458916
293.5240585 -11.4030629
294.7126970 -10.0264349
294.5916397 -10.1043208
294.6488389 -10.4881316
294.1510884 -10.8473620
294.3096731 -10.2191337
293.8864371 -11.0075983
295.0722094 -10.0339203
293.5272265  -9.9881934
294.9457839 -10.5414178
293.8970205 -11.9965922
294.7835255 -11.9658743
295.1020611 -11.6304251
295.1643329 -12.9914299
295.2903356 -13.1484062
294.1660974 -12.1794294
294.4136617 -11.5572736
294.1198087 -13.1162481
294.6481558 -12.7809889
294.0590497 -11.5946326
294.4817059 -12.4218813
294.0609848 -12.5397601
294.9836728 -12.3184924
293.9319098 -12.6153970
295.2127422 -12.8783708
294.7230001 -11.4575846
294.9814206 -12.7047594
295.2624217 -12.6758363
294.7546660 -11.4780066
294.4729661 -12.2760384
295.1442357 -11.4337188
294.3742740 -12.7195007
294.6752354 -11.7854593
294.0711515 -12.2844054
294.5134502 -12.2682070
293.8660125 -12.3308932
295.0457463 -11.7614896
295.2198362 -12.8564484
293.7091755 -12.6987822
293.3974419 -12.0486941
294.6471920 -11.9171390
294.2688513 -11.5600537
295.2198320 -13.0678458
294.2683601 -12.4564535
293.9173957 -13.1198619
294.9866154 -12.6403962
294.9649517 -12.2768949
294.5271143 -12.9181899
294.1006717 -11.8356929
294.5825174 -12.4924163
294.0291908 -13.0284220
293.4256004 -11.8780666
294.5979554 -11.9624001
293.4605918 -12.3589448
294.3257655 -12.0686975
294.5591634 -11.9333026
293.5153789 -12.3790989
295.2379729 -13.1081744
294.5252435 -12.1157772
295.1366987 -11.5052225
293.8583686 -11.6415966
294.4323188 -12.4479971
293.3861120 -11.5636110
294.0023582 -13.2821756
293.9659493 -12.7321012
293.5603697 -12.6143450
294.6835147 -11.6066502
295.0577714 -12.7572140
294.4608657 -12.7570098
295.1379083 -11.6131827
295.0422501 -13.1836595
294.7105141 -11.7724621
295.0070101 -11.5342262
295.2178278 -12.4267557
294.3414655 -12.0644511
294.9211821 -12.2454946
294.7634443 -11.6320599
294.7692053 -12.7105804
294.6881389 -11.9357510
294.4378334 -12.2782978
294.9435428 -11.8049742
293.6129854 -11.5500907
294.4094276 -11.5044589
294.4964878 -12.2238976
293.6172907 -12.4350937
294.9693337 -11.7313141
295.0798877 -11.8152990
293.9552303 -13.1761029
294.8560787 -12.7759892
294.1316559 -11.8677263
293.7066500 -12.6136934
293.5546165 -13.2010928
293.9636214 -12.5486955
293.8060590 -12.7459463
295.1868700 -11.6349318
293.6593339 -12.4581487
294.1990648 -11.7272048
295.0395798 -12.4313253
293.9344453 -12.6051082
294.4112967 -12.3238246
293.4978888 -11.9472954
294.9098875 -13.1485457
293.4796283 -12.2612509
293.8189627 -13.2186959
294.6957375 -11.5697193
293.9713437 -12.4573826
295.1688914 -13.1030014
294.1542560 -13.1157089
293.9568457 -11.9517463
294.3409518 -11.6892376
295.0109193 -13.1674402
294.2970039 -13.1563577
294.4719919 -11.7355614
295.1053087 -12.4939358
294.1599976 -11.8949254
293.7917890 -11.8373644
294.1020499 -12.9458445
295.2242630 -11.9105187
294.6234434 -12.2220197
294.5864032 -12.5173542
293.4743279 -12.9838473
294.9936794 -12.0001552
294.0268828 -12.7397433
293.9207915 -11.9230456
294.3716820 -11.9537047
293.9569921 -11.6501737
294.2958589 -11.9870891
293.5036846 -12.6882276
294.8060525 -13.2065381
294.2997898 -12.0909313
294.5021091 -12.3107637
294.4530423 -12.5060962
294.6314181 -11.5097610
295.2350697 -12.5517258
294.3162233 -13.2297801
294.7248685 -13.0822330
294.3684591 -12.6997145
294.9975224 -12.2776264
294.2371929 -12.3269522
294.1786476 -11.7216018
294.3930137 -11.8506350
293.5970752 -12.1010729
293.5263571 -13.1492315
293.6797363 -13.1418137
294.8242055 -13.0638349
295.0066181 -12.9212728
294.5766463 -11.7983395
293.9698633 -12.7438607
293.9740485 -12.8482283
295.2533140 -12.2561635
294.0477352 -13.2246609
294.2645554 -12.6129585
293.4929651 -11.8040935
294.7342575 -13.7855759
293.8691138 -13.3955175
293.6945481 -14.7728777
293.6054839 -13.4041692
294.0398202 -15.0826974
293.6948475 -13.3210572
293.8642728 -13.3987551
294.4668138 -13.7448551
294.2218317 -14.3877662
294.5733103 -13.3292229
294.3773189 -14.5418789
295.2430069 -13.4120573
293.6598171 -13.4824986
293.8887373 -14.7738597
294.4868165 -14.5185511
295.1027951 -13.8677223
293.6389527 -13.4598437
295.2343927 -13.7456844
295.2809617 -13.4669154
293.8495346 -14.0816276
293.7214008 -13.4073214
293.6687802 -13.9254396
294.8980669 -14.8089951
295.4327422 -14.8079614
294.9858805 -13.2652238
294.7514387 -14.5506447
293.9037842 -14.2672464
294.3105516 -14.3773594
293.6697716 -14.3208310
293.9283154 -14.7721190
295.3087645 -14.3362163
294.4974334 -14.3438845
294.7173681 -13.2508575
294.2535927 -13.4324495
294.9666458 -14.2492581
295.0996025 -14.9903341
294.6995458 -14.6734514
295.2478021 -14.0299100
294.9060276 -14.1214348
295.4335247 -14.8836142
293.7741901 -15.0459559
294.8180419 -13.2713203
293.9999754 -13.8994151
295.1842538 -13.9875436
294.8569438 -14.5070750
293.5801013 -13.7282120
294.1778627 -13.5586592
295.1866500 -14.7535517
295.3413040 -13.4011754
294.0432887 -13.4447181
294.8012058 -14.7750319
295.3027901 -14.4484980
295.1136754 -13.3836039
294.1452346 -14.5430691
295.1323739 -14.5343932
294.1747786 -14.1037424
295.0891031 -14.0439454
294.4523084 -13.8541132
294.8648961 -14.3015978
294.5376010 -14.4794899
295.3583485 -14.1458934
293.7172352 -14.1093486
293.8103464 -14.2497692
294.4229853 -14.5046489
294.3370299 -14.0379610
293.9814519 -14.0736403
294.0689730 -15.0651944
294.5528723 -13.5517357
295.3464781 -13.7917240
294.6768619 -14.9421144
294.8058951 -14.1519205
294.6942499 -14.5575633
294.7000588 -14.0445353
293.5279564 -13.4653772
294.9566052 -14.0763784
295.5097347 -14.8176925
294.6330089 -14.8082797
294.8519053 -13.6385082
293.8900412 -14.5955961
295.0832210 -13.3427502
294.3364689 -13.3255743
293.9864708 -14.9695164
295.1194431 -14.5061745
294.0775410 -14.1959286
295.1138729 -14.0584537
295.0425292 -14.3325622
295.0186960 -13.6672755
293.7277884 -13.9228959
293.9681092 -14.9857723
293.9088612 -13.8706407
295.2586882 -14.9019659
295.3024386 -14.4221364
294.6462915 -13.5761418
293.8467029 -14.5339906
294.0400795 -14.9700358
293.8099131 -13.4705328
294.0897866 -13.9764678
294.5989686 -14.5316608
295.1786727 -14.9605420
293.8058608 -14.8393765
294.8070004 -14.7726969
293.8467863 -14.0633375
293.9140244 -14.5490354
295.2509350 -13.8542551
294.8254791 -14.7540395
295.0652385 -13.5200956
294.9898230 -13.9365894
294.2223046 -14.7024070
295.0909611 -14.1671124
294.2144268 -14.7719165
293.6969769 -14.3717880
293.6956148 -13.4140793
295.1334737 -13.7933587
293.7708880 -13.8614440
294.9633074 -13.5863987
293.6452224 -14.5408662
294.7460411 -13.8507266
294.6541765 -14.3536199
294.5554311 -13.4570211
294.4219676 -14.1202173
294.2493981 -14.0291898
294.4314612 -14.9331092
293.7056038 -13.9973005
294.1308785 -14.5717296
293.6562357 -14.0018396
294.0492229 -13.4151987
294.1172457 -14.4333818
294.8269019 -14.0147605
294.4695329 -14.8394033
294.4446178 -14.0761582
294.7370707 -13.3041950
293.9575135 -14.4390976
293.9238653 -14.5212324
295.0399851 -14.5193998
295.3432305 -13.3541675
295.0265719 -14.8315923
294.3679321 -14.1415136
295.0733193 -14.4220977
295.3846538 -14.7769362
295.4420906 -14.9172770
294.4770254 -14.9487854
293.9493874 -14.0371804
294.1888217 -13.9466370
294.5179727 -14.8310948
295.3158604 -14.2363248
294.7870941 -13.6668623
294.3569455 -14.5453502
295.1530889 -13.8225095
293.8300059 -13.7209782
293.7371428 -14.5287660
293.8003189 -14.3940073
294.8209381 -15.4900106
293.8777150 -16.8752884
295.0381815 -16.6149395
295.3440495 -15.6484998
294.1291298 -16.6649509
295.1521068 -15.2349562
294.5893021 -15.8438684
294.5917018 -15.3726103
293.9857322 -16.1746337
294.1902736 -15.5277674
294.8597134 -16.0203526
293.9927199 -15.9929000
294.8465542 -16.7094975
295.6433861 -15.9705158
294.8721867 -15.4402888
295.5716758 -16.5539492
294.6706772 -16.5712150
294.1155612 -16.1295966
293.7807764 -15.5970198
294.6641634 -16.6561710
295.2138658 -15.4760777
294.3859343 -15.3723390
294.0834939 -16.2335221
295.0979286 -15.5082724
294.5692560 -15.7101964
294.1226686 -16.4675115
294.0276106 -15.6690327
295.5523043 -16.6977055
295.1553379 -16.1070834
295.2155966 -16.6371317
295.1800915 -15.9648910
294.3745860 -15.0918319
295.0369005 -15.6787017
295.1763326 -15.6440437
295.3545272 -16.4757140
294.9966570 -15.3104325
294.7935590 -15.6679775
293.7468004 -15.4860718
294.6201254 -16.6871616
294.2956894 -16.4211260
293.8069273 -16.2253317
294.4334553 -16.3471919
294.8733712 -15.1143594
294.3019841 -16.8676047
295.5336035 -16.4512888
294.8172310 -16.6475483
295.1696254 -16.4119179
295.3875450 -15.9397520
294.7917047 -16.3358299
294.6294062 -16.2266242
294.5222101 -15.6678483
294.7575247 -15.9311465
294.7325284 -15.4573602
294.9590198 -16.0491476
294.6028158 -15.3541399
295.5566366 -15.5202108
293.7690294 -15.8399105
295.0784843 -15.9609558
294.3754431 -16.7061989
294.5536947 -15.8247268
294.2271604 -15.1814314
295.1390385 -15.8940012
294.5642777 -16.6647437
293.9187278 -16.7708358
294.9709501 -15.8828609
295.4502999 -16.0420075
293.9940904 -16.8679159
293.9068778 -15.4378663
294.2150522 -16.7627336
294.6884951 -15.7042153
294.2195930 -16.3340638
294.3052385 -15.9635096
295.2818572 -15.0399334
294.8464878 -15.3570300
294.0126927 -15.4019745
294.5851643 -15.6733875
295.3336309 -15.4652836
294.1052635 -15.1940976
294.2425232 -16.0608142
294.7894891 -15.5506670
294.3236167 -16.4703602
294.8263588 -16.2965324
294.5030614 -16.5956241
294.6513040 -15.4041476
293.7534466 -15.7456250
295.4429788 -15.3323642
293.9765352 -15.4430049
295.0396708 -15.8534298
294.9888026 -15.7708822
294.6195242 -16.6757938
293.9699028 -16.2529003
295.5780027 -15.5430107
294.2248903 -16.7683869
294.1799023 -15.8892837
294.1483260 -16.7057912
295.5704796 -15.7592176
294.3083465 -15.9348095
294.0349254 -15.6204846
295.1712910 -16.5825916
294.1913134 -16.2887534
294.6520049 -16.3192393
294.4205508 -15.0871853
294.9117404 -16.2410762
294.0101760 -16.2572068
294.4354628 -16.0743047
294.5499969 -16.4895140
294.3329340 -16.3815019
294.8282994 -15.2691269
295.0710798 -16.5110437
295.0183283 -15.7566675
295.4108443 -16.1715055
295.4098258 -15.8201675
295.4208390 -15.9673548
294.3669547 -15.8670576
293.9283527 -16.1896896
294.7830767 -15.0356136
294.1151925 -15.1844870
295.4260659 -16.3633614
294.6623503 -15.4961136
294.6752236 -16.2752969
294.3426613 -16.8244259
295.0934138 -16.5361178
295.5781610 -15.9400711
294.7234415 -16.5058035
294.9050659 -15.6663954
295.0973529 -16.2699097
295.5228121 -16.0398678
293.9709739 -16.4592931
295.1082958 -15.2200342
294.5376511 -15.1251065
294.6987166 -15.1016545
294.1873609 -15.3666826
293.6909871 -15.2362980
295.3772410 -16.5649990
294.2861002 -16.7944245
295.0845189 -16.3146193
294.4466656 -15.2580175
294.0563520 -16.0319205
294.8469964 -16.7923273
294.7803970 -16.7322380
293.6942694 -15.2866502
295.0690154 -16.3342912
294.5799901 -15.4147173
294.2170332 -15.7888870
294.8201026 -15.2170588
294.8628727 -15.4229382
294.0558713 -16.4825987
295.0450339 -16.2060363
293.9439861 -16.8873714
294.3467529 -16.5317074
295.2213514 -15.2703702
294.2307444 -16.6818268
295.2358128 -15.4276289
294.8809305 -15.1854036
294.2209341 -16.6527586
295.3262010 -16.6600532
295.6782350 -17.5269450
294.9326695 -17.5665904
295.4648485 -17.9055434
294.9928785 -17.0226847
294.5812767 -17.2348996
295.5170260 -17.1449956
295.5204349 -17.2121876
294.3686850 -17.2397535
294.5971224 -16.9257445
294.2468067 -16.9808227
295.3518101 -18.0693337
295.7471745 -18.2969590
293.9916299 -17.1673808
295.5541455 -16.9433877
294.8445562 -18.0463256
295.8425921 -18.0875208
294.3550870 -17.7638352
294.6140510 -17.8137073
295.1537099 -16.8094570
294.4386639 -18.3299706
295.4984207 -18.5302429
294.9079503 -18.0856061
294.0399425 -18.1280562
294.0950553 -18.0633754
294.5158877 -18.4129427
294.8644764 -17.2033517
295.6237508 -18.1778417
294.0095175 -17.3074678
294.5517417 -18.3386915
294.7634736 -18.4903247
294.9469215 -16.9243036
295.0442172 -17.7365763
295.6603872 -18.4859263
294.8132459 -17.7234369
295.0719485 -18.3274882
294.3022323 -17.5120782
294.9329598 -17.3627536
294.2368918 -16.9704884
295.4563332 -17.2294700
294.5690605 -18.5167960
294.5858750 -17.7072737
294.9429354 -18.1868167
294.3326787 -17.6617259
294.4224580 -18.4143497
295.6595725 -17.7728891
294.9545356 -18.2082622
295.6162245 -17.2462762
294.3675286 -17.1207223
294.8170926 -17.8887090
295.1297893 -17.3030643
294.1168689 -17.0987127
294.0510149 -17.3746161
294.3085517 -18.1567560
295.4010462 -17.4621481
295.3822041 -17.6868414
294.7132164 -18.0388610
295.0683895 -17.1171085
295.7506876 -17.5627051
294.1999346 -16.9250596
294.5814156 -17.4724198
294.2940757 -18.1512074
294.6401937 -17.1470289
294.6281427 -18.5594919
294.3123167 -18.4410868
294.7127652 -17.4718378
295.2805870 -17.8334609
295.7153282 -17.8971346
295.6798553 -17.6271713
294.7776496 -17.7420487
295.7721070 -17.3835060
294.1943541 -17.1705491
295.8103301 -18.3266166
295.8214792 -17.8744218
294.8865652 -17.8757788
295.6640084 -17.4636783
294.6151375 -18.5562839
294.6773676 -17.4545772
294.0370433 -16.9414639
294.5294975 -18.5262755
295.6288809 -18.4628691
295.1067923 -17.3667094
295.9238580 -18.3215166
294.2894194 -17.7082881
295.0241146 -17.5043743
294.2147568 -17.9330780
295.1324095 -17.8276681
295.2643496 -17.7606014
295.7249836 -17.5405273
295.2586495 -18.3812694
294.8146196 -18.3410927
295.4044013 -16.8471245
295.1952442 -16.8508519
294.5263047 -17.3524121
295.3643533 -16.8229018
295.8538659 -18.1799830
295.3702228 -16.8163726
294.3526049 -17.8990861
294.0055015 -17.5677589
295.4743293 -16.7505350
295.1078918 -17.9057485
294.7439745 -18.5927642
294.5585313 -17.7591782
295.3450635 -16.7657209
295.6415735 -17.5973876
295.7082090 -18.0329561
295.2453041 -18.1594633
295.6633172 -17.1835537
294.5753702 -18.1978145
294.7854435 -18.4623210
295.8669894 -18.2135878
294.9982725 -17.8089120
294.0994454 -17.9535671
295.8192838 -18.5075232
295.3769340 -17.0783932
295.6693077 -17.8598219
295.0513074 -18.0486894
295.1103515 -18.5068916
295.0639425 -17.7829867
295.0637335 -18.0417827
295.0220936 -16.8641921
294.0853353 -17.1884841
294.1408584 -18.6253794
294.1216636 -18.6514480
294.6583456 -17.4140413
294.5318674 -17.7639917
294.2109159 -18.3802041
294.2296954 -16.9975876
295.3508576 -17.8212354
294.3908806 -17.4522354
295.1650787 -18.3370281
295.7681783 -17.5006064
294.1740571 -17.6775591
295.7892213 -17.7874915
294.8632279 -17.2528730
294.9655071 -17.9757515
295.3464608 -17.4190240
295.4048628 -17.8930102
294.3107949 -18.5932187
295.4024995 -17.3662769
295.0030049 -17.4063862
295.5050832 -17.1461611
294.3664215 -18.6620112
295.5964871 -17.1648881
294.7610685 -18.6314681
294.3851336 -17.4952353
294.7507684 -17.6547956
295.0948675 -18.0325403
295.2401244 -17.7785377
295.0937982 -18.1129501
295.1047729 -17.6116025
294.9600167 -17.7115166
295.3507118 -17.0113450
295.6720859 -17.3965085
295.8092165 -17.5231726
295.4380418 -16.9850915
295.2623614 -17.0829084
295.9705939 -20.0709949
295.1182175 -19.1782495
294.6252814 -19.5357770
294.7015729 -18.8297025
295.3204107 -19.6953873
295.0149729 -20.1098693
295.4319766 -19.8468375
295.7623875 -18.7880134
295.6018184 -19.0060483
295.5371832 -20.3238099
294.2924030 -19.9057020
295.6775727 -20.1685574
295.6100569 -18.9424547
295.0373793 -18.7771074
295.6200761 -19.5095278
295.9600442 -18.7563554
295.1473197 -18.7161096
295.1915385 -18.8610997
295.3347801 -19.4543868
295.8856973 -19.6975627
295.1598273 -20.1013903
294.1273620 -18.7084834
295.6768711 -19.4219615
295.2125756 -19.0276312
295.0678306 -20.2416556
294.3813575 -20.0316169
294.6081968 -19.8593630
295.1775753 -20.3749997
295.5443712 -20.1983000
295.7891458 -19.8416867
294.5279047 -19.7669725
295.3145118 -18.7320726
295.5625762 -20.0022454
296.0234708 -19.8830308
294.9044529 -20.1878082
295.7846512 -19.8764766
295.9913254 -18.7937305
295.8776552 -19.1541583
295.3138724 -20.3117234
294.8862248 -19.3672516
294.5994089 -19.7718248
295.1079885 -18.8456807
295.3796232 -18.5938908
295.5835206 -20.2523383
295.0525138 -20.2649890
295.3919221 -18.6099242
295.4508684 -19.8602682
294.9599742 -19.8060772
294.4113356 -20.3279006
295.0752983 -20.3088424
295.0837722 -19.1767152
296.0835016 -19.7160205
295.4574486 -18.9485955
295.8874565 -19.9077123
294.4657072 -19.4468812
295.4681500 -19.3955271
294.7126173 -19.0484775
295.2374292 -19.6076199
294.2600053 -19.8031086
295.7211754 -19.2982515
294.9926794 -20.1709502
294.9271081 -20.1622155
294.6284074 -19.1997633
295.4136966 -19.3888692
295.6631654 -20.1905986
295.3098107 -19.7284787
294.3364449 -20.4859922
295.3483625 -20.1306589
295.5823519 -19.7018220
295.9064971 -19.8465021
295.7356381 -19.0922911
294.3799987 -18.7184675
294.2042114 -19.2985348
296.1047820 -20.0726422
294.9994198 -18.6134534
295.0202470 -18.6447409
294.5231487 -20.1366932
295.5372064 -19.5178987
295.8181034 -19.5855024
295.7568053 -18.7193740
296.0629737 -19.4330241
294.7694794 -19.5628920
294.8915696 -20.0971373
294.4327710 -19.6344017
295.0529778 -19.3542555
295.7025593 -18.7696814
294.5038103 -20.2147666
294.7288724 -18.8169681
294.5336079 -19.3833269
295.2682883 -19.6362107
294.3681753 -18.7810739
294.6308532 -19.8149602
294.5488088 -19.5137276
294.3751641 -18.8511946
296.0076727 -19.5189812
294.3207903 -18.7707898
294.6934562 -19.7214019
294.7139249 -18.9062651
294.6327387 -19.5340777
295.1020710 -19.2642085
295.3656835 -19.5197355
295.0853184 -19.4166297
294.8712068 -18.7397313
295.6191036 -19.2281889
295.5671922 -20.0288836
294.8512127 -19.8078729
294.8368303 -19.0236040
294.2903199 -19.3039381
294.7872194 -19.4373133
295.7205458 -19.1967737
294.4175900 -19.6029821
294.7285984 -18.8161971
294.7891120 -19.9373827
295.6772256 -19.4284880
295.6911229 -19.7205551
294.5214244 -20.0925462
294.7210536 -20.4149890
295.8256956 -20.0411644
294.4056869 -19.7139099
295.1634160 -20.1922236
294.4724635 -19.7281899
294.7340718 -20.0141296
294.5999792 -19.4379809
294.6004854 -20.1431398
295.6919775 -19.0155400
294.9648876 -18.9119919
295.3722654 -19.7863335
295.0617415 -19.5460971
295.9994261 -19.4274244
295.7778292 -19.8346885
294.1768500 -19.3357650
294.3897148 -18.9501761
295.3314666 -18.8414152
295.0004752 -20.1292919
295.7809909 -18.6885178
295.3329550 -18.9395164
295.6436734 -19.3868105
295.6640275 -19.5185081
294.3915833 -20.1142746
295.0542528 -18.8779511
295.5034728 -19.1666028
294.7866630 -19.0278689
294.9653906 -18.9348105
295.3428614 -19.0717826
294.8710365 -19.9979581
295.2855809 -19.9433913
295.7128691 -19.8629535
295.3054448 -18.7345010
294.6048008 -19.6637506
295.7520267 -18.6960497
295.5283383 -19.7812998
295.5670110 -20.3332768
294.5137260 -18.7413264
296.1020108 -20.1629373
295.8564077 -20.0325499
294.3536690 -19.3287797
296.1855963 -20.5810433
296.1282550 -21.0143574
295.2000797 -21.9178915
295.9767472 -21.5231533
294.9018815 -22.0598183
295.3960409 -22.1603195
295.3443362 -20.4113571
294.9676710 -22.1256683
295.8860288 -20.7909573
295.6972951 -20.4654385
295.7817468 -21.2934124
296.1853392 -21.2217320
295.6569676 -20.4330508
295.3004195 -21.3895458
294.8779256 -20.8667829
296.2672869 -20.7881505
294.8718634 -21.0560923
295.6695067 -20.6888819
294.9913414 -20.8431946
294.7505223 -21.4412263
294.9217881 -20.7853224
296.1688978 -20.5301729
295.1503325 -20.4763907
295.9800852 -21.8998701
295.4215092 -20.4502229
296.3069046 -20.9104573
294.7874244 -21.9347436
296.0502699 -20.5098708
295.4785767 -20.3874650
295.1180320 -22.1647644
295.2575290 -21.4001909
295.0914538 -21.0884192
294.6107272 -22.2453257
295.5353464 -21.0671458
295.9875466 -21.4790948
294.7277773 -21.0742860
294.6020699 -20.7448514
295.8064602 -20.5293260
294.8165233 -22.0349917
295.9275366 -20.9268017
294.8830923 -21.5972623
294.7485595 -20.5039188
294.9392864 -21.2555103
295.5868494 -20.7641393
295.9362221 -20.3895662
294.9435746 -21.6697672
295.1337401 -21.1056041
295.6804955 -21.8047847
294.8265864 -21.2542918
295.3119684 -20.8374435
295.4437937 -21.6754943
294.8103926 -22.1534962
294.9820542 -21.2912064
295.0993360 -20.9910065
295.3763867 -22.0172788
294.8737215 -21.1990882
294.7797399 -21.8727054
295.6605138 -21.4162242
295.0844990 -21.4306105
295.5777188 -22.0334033
294.7073695 -21.9739492
295.1475959 -22.1618025
296.0323062 -21.8800751
296.1103967 -22.0339735
294.8900029 -21.8213639
294.3648500 -20.6267396
295.7048388 -21.5465207
295.3194491 -21.3430192
296.2335764 -21.8472789
295.1734181 -20.5805706
296.2577699 -21.3912027
294.5851516 -21.3539293
294.6943987 -21.2596927
295.4860899 -21.8763939
294.7285316 -20.4776460
296.0983156 -21.5410597
295.4967676 -20.9471326
295.7877211 -21.4292811
295.2341417 -21.3020777
295.1179044 -21.7333677
295.0607995 -21.2479800
295.1878236 -22.0777194
295.7189002 -21.9127358
296.0457985 -21.8512609
295.5801129 -21.2896634
295.7899198 -21.8445470
294.9415781 -21.7411324
294.9541992 -20.7858256
295.7902593 -21.6329854
296.0880092 -21.0818603
295.2644050 -21.1113334
294.7143201 -20.6972473
294.8348814 -22.1205104
295.2753998 -21.1521808
294.7904501 -21.5778533
295.6475073 -20.3705019
295.8219821 -20.6035151
295.3743981 -21.6439099
295.5276009 -21.7563315
295.1506701 -21.7773065
295.8743795 -20.6474913
296.0660379 -21.8550501
294.6046981 -21.4267386
294.8280000 -21.8373164
296.2380602 -20.6860317
295.2753002 -21.6163583
295.4658836 -21.0605168
295.1639881 -21.3172351
295.3642749 -21.0623586
295.2860565 -21.7497674
295.1638601 -21.1741219
294.9498755 -21.8534654
294.4753601 -21.0524756
295.2854693 -21.9805652
295.2570168 -20.7606533
295.0982636 -21.7238723
295.1464604 -21.7079171
296.4469800 -21.6184219
295.6878756 -21.4410651
296.2417133 -20.8580885
295.5443342 -20.8797729
295.2392663 -20.4913355
295.6941188 -20.6088111
295.6428720 -21.6639909
295.9553873 -21.4467331
295.4573603 -21.5580843
295.2459563 -21.0142731
295.4423659 -20.8672039
295.8725047 -20.9437496
295.9182878 -21.3657406
295.6056737 -21.5311536
295.1959290 -20.8487847
295.4783489 -20.8703109
294.8738328 -20.7051837
294.8316681 -20.8869232
295.7007693 -21.1969355
295.9699218 -21.0191362
295.6679828 -20.4481317
295.2633543 -22.1743647
295.8472252 -20.6468871
295.9302730 -20.5607744
294.5725542 -20.9656251
294.6528693 -21.7942069
295.6022710 -21.4040137
296.2730184 -21.6450451
295.0796127 -22.2013260
295.2027108 -20.7066862
295.0255990 -22.0993043
295.5065385 -21.5740695
296.1868422 -21.0455991
295.0404770 -21.3268197
294.9141615 -20.5794265
294.4702869 -20.5731719
295.6702707 -21.0108517
296.2797533 -21.9188062
295.4176420 -23.1790736
294.9279763 -22.6412762
296.2592235 -22.0578319
294.7393198 -22.6767589
295.4173631 -23.8896554
294.6839914 -22.6610160
296.2504257 -22.5980342
296.4874801 -22.2670399
294.9954150 -23.1014409
296.3184110 -22.7395570
294.8566419 -23.2700028
295.1656338 -23.8773234
294.7980459 -22.5678927
296.2652237 -22.9103634
296.0925950 -23.0277851
296.4694342 -22.1264585
295.3895887 -23.5836708
294.9096871 -22.4494036
295.8649708 -22.9883796
295.0024616 -22.3682095
296.5605050 -22.9058618
295.1106957 -22.4481415
296.2991156 -23.6824966
296.0213694 -23.4810137
295.5853570 -23.2542554
296.2890392 -22.4323479
295.2577786 -23.0387186
295.0246850 -23.1480286
295.5273736 -23.2058430
296.3317169 -22.9921709
295.0015657 -23.7802896
296.6689368 -23.3405539
295.5632387 -22.6854904
296.2427627 -23.5516876
296.0016263 -23.1032376
296.6875798 -23.4148820
296.3101323 -23.4578380
294.9070998 -22.6546182
296.5537461 -22.5787198
296.0771446 -23.2133674
296.4871906 -22.1840789
296.3689051 -23.5075416
295.5478063 -22.6765187
294.9334895 -22.7332671
296.1681735 -22.8251976
295.7890748 -22.9626813
295.4617220 -23.5560256
295.7820309 -22.7928357
296.5017823 -22.5879075
294.8112639 -22.6563225
295.4166815 -23.2452247
296.2690555 -22.9374725
295.7530714 -22.8987252
296.0061778 -22.9795599
294.9565717 -22.3821726
296.4470308 -22.8289638
295.6945671 -22.4940807
294.8041824 -22.7943602
296.7156953 -23.7424499
295.1633873 -23.2662440
296.1959423 -23.4233586
294.7359765 -22.7424309
296.4618952 -22.2461899
295.1482397 -23.8584381
296.2335928 -23.5645506
295.9861467 -23.8710916
296.4517095 -22.8048770
296.2711440 -22.6145921
295.0451887 -22.4378426
296.2512736 -22.8019375
296.3243718 -23.0118242
296.3147862 -23.4468502
296.5163548 -23.4791361
295.6039181 -22.3215276
296.5151941 -23.7478813
295.2626579 -22.8261209
294.8041742 -22.5722520
295.8681233 -22.5386858
295.0765742 -22.3790597
295.4560973 -23.3786015
295.4175852 -22.9729821
296.3360272 -22.5305295
295.3372494 -22.2516092
296.4523147 -22.0322829
295.5902528 -23.2869530
296.3555751 -23.5545272
296.2684121 -22.3390035
296.1499575 -22.5793016
295.6871242 -22.5992919
294.6441868 -22.3612350
295.2469148 -22.6525234
296.5576553 -22.4282100
296.5736942 -22.7966589
296.4323223 -23.4132200
295.4702829 -22.2792533
296.2539283 -22.2844160
295.8393423 -22.8302655
295.0937521 -23.0927485
296.4451246 -22.4165493
296.0353720 -22.7008922
295.4202580 -23.1759408
295.3349524 -23.6021644
296.4387907 -22.9650173
294.8340457 -23.3924432
294.9957395 -22.4695859
296.2409158 -22.5755643
296.1169564 -23.8690031
296.1031713 -23.4090096
294.9822781 -23.2517506
295.7657688 -23.5091978
296.2412751 -22.4494213
294.9791809 -22.6192305
296.2031038 -22.5144755
296.4989694 -22.3929047
296.6747772 -23.0825241
295.1688502 -23.0836431
296.0953513 -22.6324477
295.4940983 -23.6034730
295.5687004 -23.0004598
295.2025105 -23.8608799
296.2884598 -22.4717418
295.2288965 -22.6785862
295.5034653 -23.2236153
296.3557534 -22.6497030
295.2021134 -23.5040741
295.2451422 -23.8120079
294.9327636 -22.4073954
295.2287288 -22.7824555
296.3712855 -23.8162271
294.8286029 -22.2609317
295.9950052 -23.4742694
295.2109870 -23.5629606
295.8695820 -22.9424235
295.2910029 -22.5730485
296.4986107 -22.9499804
295.8492884 -22.4375041
295.2651904 -23.2846742
295.5212905 -22.3367200
295.1664731 -23.8403697
296.2305406 -22.8611149
294.6959424 -22.3644606
296.6898825 -23.3330258
296.3374512 -23.2301576
295.1410302 -23.5044863
296.6522479 -23.4186264
295.7971517 -22.1707281
295.1650839 -22.4183273
295.3206580 -23.9599280
295.9031346 -22.6960724
296.0650521 -23.8316571
295.7702850 -22.5885028
295.7257923 -22.5513625
294.8130648 -23.4620122
296.0133842 -23.3676097
296.0378754 -22.8101455
296.5295670 -25.4276375
295.7862214 -25.6493578
295.2815455 -24.1950640
295.8090422 -24.7956615
296.4026869 -24.3032557
296.4311431 -25.6104324
295.4832201 -24.2675144
296.6719294 -25.1928508
296.0597150 -25.1750606
296.1823456 -23.9182703
296.8146118 -25.3866641
296.0582208 -24.2441843
295.5200975 -25.5608129
294.9609580 -24.2032839
296.1932929 -24.0147763
296.4082861 -24.5859415
297.1200473 -25.3498747
295.4957044 -25.4264814
296.0514953 -24.5590487
296.2810297 -24.4323227
296.6951176 -25.2738906
295.5318952 -24.4807421
296.2629219 -24.9107033
295.6658630 -25.0721159
295.2295604 -24.2170530
296.8554189 -24.9365366
295.9859455 -23.9899408
295.4802987 -24.4104386
296.4236853 -23.8877805
295.6676719 -25.3345000
295.3606661 -24.1171683
296.6318843 -24.2590803
295.6619663 -25.0140574
296.5797748 -25.4206838
295.9271829 -24.0534559
296.5296750 -24.6543107
296.2828423 -24.1422741
296.4516872 -25.4341158
295.5959249 -25.6196408
295.8209705 -25.6272141
296.0665053 -24.5844142
296.7640508 -24.5311194
296.7700014 -25.5792875
295.4006518 -25.2031594
295.1216155 -25.3111359
296.7666896 -25.1580090
296.2397226 -25.4276845
296.8098266 -24.9336194
296.7458459 -24.6696895
296.7980890 -24.8922373
295.5068068 -24.3555169
296.4251542 -25.3433467
295.0321514 -24.6659378
296.2002490 -24.9534170
295.2068085 -24.4639592
295.3926807 -24.6934308
297.1212083 -25.3557237
296.3489866 -24.1827661
296.5160463 -24.2183217
295.7977317 -24.3323806
295.1751191 -24.3576939
295.1634957 -24.6610161
295.9222546 -25.5655804
295.8266241 -25.4244093
297.0794354 -25.2442591
295.1132629 -24.8554358
295.2895293 -24.9452002
296.7620944 -24.6540107
296.2712902 -25.5559869
296.4480307 -25.4471578
296.2827597 -24.7499286
295.2901403 -24.4412532
296.3186203 -24.9661212
295.1408855 -24.9151352
296.2708859 -25.0840531
296.5026278 -23.8585725
295.6979118 -24.9089128
295.4259629 -24.3739296
295.5009515 -24.3471329
296.2670761 -25.5692261
295.3414779 -25.2678532
295.9353937 -25.2101453
296.6977829 -23.8755918
296.7568420 -25.5937639
296.4343533 -25.4757167
296.6672185 -24.6719586
295.9534847 -25.6561273
296.4543199 -24.6912337
296.7035369 -25.3572732
296.9210730 -25.2624525
295.8023136 -25.6452958
297.0529351 -25.1048164
296.3288480 -24.7904805
295.4012070 -25.4900211
296.2171998 -23.9054571
295.4161346 -24.9263580
295.9377675 -25.0916108
296.5465306 -24.5110573
295.6759299 -24.4971681
295.9215901 -24.1642991
296.2767561 -25.6460170
296.6723297 -25.4103634
295.8276750 -25.4401539
296.5090052 -25.0095962
295.4129576 -24.4560212
296.1057363 -25.3659928
295.5938074 -23.9666670
296.3529039 -24.5720331
295.7534705 -25.2226553
296.4984091 -25.0164210
296.2063814 -23.9902507
296.5755766 -23.9214247
296.6383230 -25.5491379
296.7256820 -25.3651252
296.7856789 -25.3529848
294.9602155 -24.2740639
295.6758386 -25.6789673
296.3078592 -24.2853681
296.7090654 -24.1002817
296.1301763 -24.0396774
296.5295534 -24.2673825
296.3064226 -24.1032468
295.8689554 -24.4677700
295.2468010 -25.1338595
296.8096171 -23.7743040
296.1572043 -24.9579603
296.0600192 -23.9978221
295.7542425 -23.9794370
296.9496207 -24.8267711
296.2397971 -23.8989209
296.7028913 -25.3142172
296.7363706 -25.2557286
296.4577148 -25.5885857
296.1538813 -25.3826751
295.1402558 -24.1612906
296.6123011 -24.0259572
295.6714659 -24.0016138
296.5864972 -25.2426485
296.0896875 -24.4231475
295.0652555 -24.5997400
295.9116541 -25.4796255
296.4348857 -24.1889029
296.4295201 -24.9231547
296.1836634 -24.7500891
295.7495384 -24.3585838
296.7958540 -25.5359746
296.7519921 -24.0814804
296.3888256 -24.4012443
296.5118526 -24.3155924
296.8684151 -24.5685294
295.7467833 -25.3724588
295.3373172 -25.3033573
295.3481813 -24.6006469
297.2852270 -26.5326467
295.4992994 -26.0333244
295.4716671 -26.0635227
297.0420330 -27.2703497
296.6903421 -26.6930661
296.6740932 -26.1443491
297.2807702 -26.9776449
296.6081277 -26.9885558
295.2959407 -25.9039579
296.3013160 -27.1701319
295.6066493 -25.8033513
295.8511386 -27.4929081
296.5214897 -27.1540756
296.0434685 -26.8631296
295.6406702 -26.5762954
295.6768624 -27.0195023
295.5250958 -27.2961689
296.1577735 -26.4270059
295.8492566 -26.2047213
296.2555180 -26.7940958
296.6951894 -25.7871296
296.0870372 -25.9632741
295.7980294 -25.7500338
296.5797236 -27.2098950
295.6300116 -27.0826964
295.6028275 -26.1115418
296.5229419 -26.0496887
297.3036209 -26.3214072
297.1377106 -26.0481184
295.8865316 -25.8277075
296.2400248 -26.6911226
296.3378121 -27.1006111
297.3054755 -26.5571889
296.4973101 -25.7921582
295.7725310 -27.4168987
296.6388129 -27.2106827
295.7694442 -26.8881913
296.2658529 -27.4864790
297.0952632 -27.0871479
296.9709174 -26.8273797
295.5004380 -26.8263346
295.7040473 -26.6374038
296.6253484 -25.9382352
296.0067844 -25.7346951
296.7856702 -25.7626339
295.5002390 -27.2889169
296.8758638 -25.8013839
295.4538301 -26.3158639
295.6828146 -27.1488587
296.5891102 -25.9126761
296.7760300 -26.2865544
295.6645904 -26.5707130
295.7490581 -25.9776425
296.5789787 -27.3763877
296.6611081 -26.6133607
296.3228884 -26.9361761
296.6686631 -26.4770476
296.2549367 -26.0095353
296.3416142 -26.1771488
295.5642369 -26.5128610
297.2945437 -26.4210137
296.8912156 -26.8777415
296.4530608 -25.9465395
295.9769908 -26.9617046
297.0099467 -26.9530773
296.9326398 -27.0888380
296.2662960 -27.3468387
295.9513492 -26.9235422
295.9604529 -26.6090568
296.0946003 -26.5627005
295.6126479 -26.6990797
297.1604648 -26.2695901
296.5660169 -25.6671489
297.1056365 -27.0390366
296.3455900 -26.9018922
297.3262904 -26.7191562
295.7628086 -26.6038832
296.4412080 -26.0835027
295.5867404 -27.5357653
296.3994543 -26.6296289
296.0489934 -26.0554699
296.6105375 -26.4760435
296.4614164 -26.4892930
295.8833151 -26.6031300
296.3369419 -27.2688497
295.9351656 -25.9161566
295.2433954 -25.8555026
296.1208974 -27.5019670
296.3710968 -26.3888677
297.2722090 -27.1113544
296.5980894 -26.4064683
296.0518540 -26.3640842
297.2421314 -27.2909111
296.8914915 -26.7582816
297.0380453 -26.8094772
295.9161294 -26.3949751
295.8902638 -26.3552997
296.8745220 -26.8221892
295.9858939 -27.2396602
296.9472871 -26.9422986
296.9159124 -26.6114233
297.1939565 -26.6358277
296.6719997 -25.9349719
296.2067760 -25.8027183
297.2177240 -27.3310742
297.4450791 -27.0652598
295.6525537 -26.9711847
296.6590479 -27.0767400
296.0138491 -26.1797520
296.5283610 -25.9641660
295.8314999 -26.3856248
296.6109630 -25.8896957
295.7386840 -25.9980200
295.4686001 -26.8623219
296.0909007 -26.2323803
296.7099481 -26.6883720
295.6659727 -27.1882348
296.8642120 -26.9510634
297.0737490 -25.7955911
295.3011476 -25.9033264
297.1997225 -26.7971823
295.2960338 -26.2446531
296.4808056 -25.9349113
296.8986780 -26.5084440
295.7289419 -27.3918062
295.2811820 -26.1304926
296.0500683 -26.5461721
297.4135641 -26.9488338
295.7618594 -26.8882132
296.3740454 -25.9143191
296.9738528 -26.3910722
296.0044013 -25.8279248
295.9009467 -26.6629570
295.4168875 -26.6668010
295.5049501 -25.9726525
296.4924713 -27.1357041
297.1164906 -25.6990982
296.0312544 -26.1293767
297.0340858 -26.6876782
295.8611377 -26.8165261
295.9545232 -25.7898672
295.8585859 -27.0789222
296.5711936 -27.1871556
296.1099477 -25.7227773
295.6608250 -27.5695975
296.0220822 -27.3030240
297.0872667 -25.6298524
296.7183634 -26.9912481
296.8544389 -25.8710840
295.7732633 -27.1453346
296.3206634 -27.3105176
295.8115702 -27.3515970
296.4039562 -26.0231573
295.8521141 -28.0335647
297.4647922 -27.7742639
297.8052302 -28.7363778
297.1535520 -27.6414148
295.9588478 -29.0276973
297.2107184 -28.0829373
297.7349168 -28.0674088
297.5719453 -27.6885587
297.3473935 -28.4043290
295.8629902 -28.1353454
296.3947863 -28.9751225
297.3010204 -28.5478622
297.1764572 -29.1307612
296.1497292 -28.3651770
296.2671567 -28.3470009
296.5585771 -28.1870412
296.7379896 -29.0327487
297.2599836 -28.1550146
296.3946174 -28.6363275
296.8636765 -27.9701711
296.4638788 -28.1384979
296.9619307 -27.5076719
297.0451307 -28.9350931
296.4584939 -28.4282519
296.5105505 -27.7865831
296.5993726 -29.1077756
296.3593048 -28.8012418
297.5731234 -27.7212878
295.9190819 -27.9287235
296.0406498 -29.1355371
297.6699121 -28.2101706
296.7191294 -27.9590187
297.5291124 -27.4255505
296.8915434 -29.1995656
296.3272031 -28.4407785
296.4374826 -28.1024474
296.5731387 -27.4473992
296.6452022 -28.9691281
295.9668798 -28.6661468
295.5814084 -27.6471883
297.9273932 -28.9081442
296.8606736 -28.4423114
297.3589983 -27.9249822
295.8970269 -29.0156276
295.9568305 -27.8919537
296.8968946 -27.4057713
296.5690179 -27.6565790
296.2824515 -28.5812377
297.1303877 -28.6619391
296.9701154 -27.7323872
296.0690491 -28.9458168
296.2299499 -27.8413736
296.7713237 -27.9064916
296.2174017 -29.1925450
296.4476706 -28.2753709
296.1462267 -27.5535197
296.5579885 -29.2613319
296.7952635 -27.8258829
297.1645757 -27.3900746
295.7393117 -27.7104974
296.0013742 -28.6359428
296.8445886 -28.9858202
296.5296374 -28.1427588
297.2821180 -27.9928799
296.6128791 -27.7882862
297.1041700 -28.7163123
297.4162543 -27.5723755
296.5420769 -27.6686853
297.0834232 -28.3119943
297.4821705 -28.2370890
296.6108204 -29.2278199
297.1801041 -28.1671413
297.6455749 -28.3969380
296.3132726 -28.6727839
295.9511702 -28.5805042
297.2900309 -28.8155624
297.2080274 -28.7489240
296.1505426 -28.5219484
295.9753929 -27.7167304
297.4391155 -27.8538031
297.2985697 -29.0483934
296.8796625 -28.4123628
296.4875895 -28.5122758
296.8375497 -28.4498441
297.8606496 -28.9953425
296.4538014 -28.0240731
296.1220233 -27.8743915
296.0674424 -27.6447230
297.5489356 -27.6900438
296.8201490 -28.0567305
297.1841545 -28.6560386
296.3753748 -28.3388547
296.4209492 -27.6665312
297.1853613 -28.3935403
297.5966095 -28.3502101
296.5453278 -28.7247363
296.6632565 -28.1863404
296.4223215 -28.0076644
296.0170017 -29.0394146
297.6369265 -28.1772504
296.5263451 -28.7986185
296.4087157 -28.4626566
295.9912945 -27.6108399
296.9784701 -27.5334820
297.3260411 -28.2527018
296.3024351 -27.7263200
296.2514163 -28.4520949
297.5754325 -28.0869866
296.4289954 -27.8230515
296.3973556 -27.9563671
295.8952539 -28.5047012
297.3421042 -27.9276202
297.1658296 -27.8813005
297.5182943 -29.0237392
295.9550639 -28.2612817
297.5039745 -28.2028335
295.7901694 -28.0478255
297.4720184 -27.5900845
296.4585918 -28.9641626
295.8764728 -28.9091215
297.1266165 -28.0653348
296.0902156 -29.0201740
296.8962227 -28.8113791
296.5429152 -28.5735586
296.0691305 -28.4761655
296.3183412 -29.1697785
296.3562504 -27.6935764
297.5689173 -28.5125042
297.6122709 -28.1088002
297.9416564 -28.9670904
297.3948253 -29.0845928
296.8999027 -28.9092680
297.4570476 -27.5960952
297.1002021 -27.8158032
295.9385985 -28.4793585
297.3258785 -27.8091525
296.4631396 -28.7925712
295.6447933 -27.8809458
297.1389256 -27.9803798
296.7172037 -28.7775365
296.0858907 -28.6216216
297.3528742 -27.9260500
297.4430247 -28.7361841
297.6575218 -28.7039102
295.9090078 -28.8657187
296.0439294 -28.2724647
295.7934404 -27.8651416
296.5961230 -28.4332421
297.1588127 -28.4694211
296.5614161 -28.3334439
296.4437242 -27.4707572
296.5180479 -27.5554466
297.4484250 -27.8096813
297.0963144 -28.9089960
296.6850230 -28.4333727
297.5711065 -29.2810404
298.2353111 -30.2970571
296.5398023 -29.9212713
297.8811608 -29.6912430
296.5420737 -30.0900910
296.7936353 -30.4966349
296.8852553 -30.1674091
297.4720410 -29.7758213
297.1209331 -29.9608321
298.1638398 -30.5089587
296.2501200 -29.6566287
297.3290279 -29.8236822
296.3778416 -30.9522166
296.5543849 -29.5624369
297.3047594 -30.0536560
297.9155870 -30.6709523
297.4914233 -29.2959080
298.0227497 -30.1969787
297.4424694 -30.4842550
298.1666423 -30.1372414
296.4769697 -29.5103973
296.8224933 -29.9141194
298.2749109 -30.6434907
297.7923263 -30.8521191
297.9243004 -30.6835949
296.7254158 -30.2755072
298.0728665 -29.5340687
296.9426250 -30.5410870
296.5667676 -31.0910678
296.4228730 -29.9562275
298.0119531 -29.5783256
296.6181199 -30.7406365
298.0072599 -29.4498783
298.0005708 -29.4613796
296.4140611 -30.4806920
297.1136153 -29.7528469
298.1989625 -30.3262447
297.9900223 -29.4985075
296.3230739 -30.5016156
297.8545799 -29.1685229
297.4667179 -29.8499865
297.2438786 -30.1708254
297.3489867 -30.0094040
296.4309366 -29.9350650
298.1550090 -30.3639834
297.0293582 -29.4151817
298.0157807 -29.3807587
297.3119287 -29.4112888
297.1151414 -29.1975919
297.4311377 -29.9440464
298.2642690 -30.7467355
296.7362716 -30.8388154
297.5305538 -29.5445529
297.8585055 -30.5999195
298.2620070 -30.3421364
296.9011951 -29.4848016
296.6088203 -29.3456685
296.7142350 -30.6783955
296.8248163 -30.5627598
297.8572291 -30.2439581
296.5879734 -29.6596673
297.4706903 -30.2382825
296.8393800 -31.0123863
297.7786934 -29.8872013
296.6414817 -31.0374690
296.6096010 -30.3452076
296.7531008 -29.2439182
297.4305873 -30.6153684
297.6873968 -29.3402836
297.1499539 -30.4438673
296.9035091 -29.4045612
298.2635036 -30.5367962
298.1961102 -30.0121789
296.1842906 -29.4000591
297.2520805 -30.6972050
297.8414006 -30.3338697
297.9511339 -30.3450051
297.0857686 -30.8450578
297.5426490 -29.6657645
297.8941053 -29.6350591
296.9475098 -29.9347515
297.4346925 -30.3975949
296.3368799 -31.0134986
296.4369362 -30.3156036
297.7256124 -29.7866116
297.3265012 -29.6039532
298.1503332 -30.4648535
297.7048308 -30.8889509
297.9096670 -30.2976505
296.7296586 -30.1876519
297.4597936 -30.6372486
297.4300614 -30.4267419
296.5467078 -30.2562849
296.3962281 -30.6373959
297.0538239 -30.6856295
297.8650314 -30.3515635
297.5072926 -30.5589476
297.5979360 -30.4605332
297.2559213 -29.8799561
297.2857587 -30.9692566
297.9226468 -29.3512003
297.6963845 -30.7859687
297.4024827 -30.8178109
297.0396689 -30.0743410
296.8147132 -29.2400995
296.7913062 -29.3079179
297.1346444 -29.5447978
297.5674904 -30.1364702
296.6868863 -30.8079399
296.5824202 -29.7129182
298.0243728 -30.1398039
297.1977649 -30.9983809
298.2643900 -30.5636657
296.9149819 -30.7663065
296.2164731 -30.1758214
297.7804719 -30.1703134
297.6025512 -30.1466431
297.8490811 -30.7363409
298.2640348 -30.6634453
296.5701935 -30.0842320
297.4037856 -30.9225485
297.6211472 -30.1541870
296.1443039 -29.4900174
297.8090968 -30.4589937
297.4363435 -29.3036615
298.0169851 -29.6135508
296.4431873 -29.7310190
297.4243625 -29.2684194
297.3396179 -30.4495904
297.4975286 -29.5968308
296.6820124 -30.6572356
297.6106472 -29.8757496
296.7532774 -30.5831096
298.1508812 -30.4042117
297.0393537 -30.8727642
296.8411649 -30.6739718
297.4588405 -29.7084110
297.2593933 -30.6911119
296.7881880 -30.0527937
296.5808388 -30.8323214
296.7656546 -29.4001876
296.3385524 -29.6312684
296.6020285 -30.9052939
297.7204136 -29.5868390
297.8610056 -29.3028959
297.5229986 -30.5615969
297.9160408 -29.0362628
296.9172535 -30.3541608
296.6081004 -30.1049558
296.3413913 -30.8656929
296.8506284 -30.4244673
296.0464383 -29.5101093
296.6409952 -29.7568768
297.5722975 -29.1029008
296.2034161 -30.3778750
297.9500669 -31.4544973
297.2269648 -31.8947601
297.5677214 -30.9664360
298.0707927 -32.5431830
298.1077203 -32.1966412
297.0567057 -32.3099418
296.6119847 -31.9284504
297.9002531 -32.6482964
297.6036274 -31.5716238
296.9090806 -31.3602989
298.1717496 -31.4754312
297.6132582 -31.8678746
297.2724672 -31.8659059
296.9534847 -32.3953428
298.3525735 -31.8036359
298.2502583 -32.5851948
298.2636977 -31.7572782
296.5559420 -31.8869985
297.2732863 -31.6654257
297.7116328 -32.1956274
296.8406934 -31.8538007
297.4521402 -31.4393568
296.9464333 -31.3005316
296.4812142 -31.3742684
297.8824212 -32.6974952
297.1774041 -31.0200294
297.4552541 -32.3320397
298.0647717 -31.1752747
298.6101778 -32.3598030
297.2244622 -31.1266880
297.8106522 -30.9635203
297.4399994 -31.2627069
298.3113896 -31.0920463
297.5588559 -31.3674333
296.9116029 -31.0775162
298.0510995 -31.5614274
298.2652854 -31.4664549
297.8954784 -32.5004390
298.3513519 -31.5632575
298.1187463 -31.9220749
297.1305935 -32.2184351
298.3510130 -31.2038008
297.3438355 -31.9287791
298.3685926 -32.0069911
298.3520090 -32.0720911
298.6171411 -32.1321205
297.4804521 -31.7624806
296.8597271 -32.5505697
296.8384350 -31.8176867
297.4308370 -31.7840464
296.9441751 -31.5677586
298.3327171 -31.5044075
297.8170576 -31.2059990
298.3502687 -32.4527242
296.6654526 -31.8729249
297.4441472 -32.1956274
297.4490483 -31.8440831
297.0558694 -31.3052431
297.2826363 -30.9849123
296.7245973 -31.0935083
298.5150321 -32.5191586
298.1357230 -31.1696050
296.9086923 -31.5160514
297.6797498 -31.6588778
298.4220521 -32.0625896
297.9741658 -32.1684635
298.4468948 -31.2465435
297.6799149 -32.4624564
298.3964071 -32.5660702
296.5657649 -31.7020045
297.3279030 -31.1275338
298.1274523 -30.8705794
298.6397000 -31.9874418
297.1820194 -31.7316016
297.0093691 -32.2638947
298.3183547 -32.6153956
297.9210070 -32.6550515
297.2585824 -32.2160533
297.7604604 -31.7704772
297.3762443 -31.8727954
297.9617477 -30.8447799
297.0595845 -32.6312304
296.7793723 -31.2236549
297.9715002 -30.9721763
298.2072078 -31.3318621
297.3163361 -31.5445199
297.4908779 -31.4774508
297.7754353 -31.1214124
298.3649558 -32.1450737
298.0051037 -31.7901289
297.4046569 -32.4836994
296.7284376 -31.2280085
298.6027162 -31.8110601
298.7096206 -32.0521079
298.3092523 -32.1191987
297.1634836 -32.6779768
297.8010822 -31.7029536
296.9368356 -32.6537876
297.0598624 -32.1228303
297.0959004 -31.6780340
296.8035093 -31.6449557
297.8642682 -32.6274315
297.1470681 -31.2022312
297.8929843 -31.4953476
298.5147259 -31.9160011
296.9595244 -31.7658392
298.2680881 -31.5999480
297.9768177 -31.3653975
296.8487034 -32.2529203
298.2385134 -32.3190135
296.7396188 -32.4396006
296.7997930 -32.3646419
298.0547387 -32.4422950
298.6461921 -31.8035906
297.4915587 -31.3301427
297.1504438 -31.2814061
296.9270693 -32.4186338
297.8447716 -32.1950019
296.5130526 -31.4400211
297.0364001 -32.4597221
296.7174529 -32.0267718
298.1009906 -31.6161899
298.4732161 -31.4417256
298.2348813 -32.3072304
296.9253903 -31.9525174
297.3203259 -31.2473318
298.1661142 -31.8020490
297.5098874 -32.3195701
296.8740034 -32.4755311
298.1741469 -31.3941846
297.3383708 -31.2209614
297.8207413 -32.3875205
298.4277051 -30.8369064
298.8437280 -32.5019307
298.2244400 -31.3328101
297.5939808 -31.7778634
297.0286624 -32.2848085
298.1866416 -32.0994088
297.4253307 -31.1619023
297.7198915 -32.3669305
298.0301270 -32.4734468
298.5119335 -31.3281205
298.6334470 -31.7496410
298.2256854 -30.9608632
298.0435971 -31.8560062
298.1328134 -32.5106801
297.8910667 -32.0970767
298.4982797 -31.5738666
297.0466530 -32.7261584
296.9535544 -31.6467088
296.5356678 -31.6675803
297.6245677 -31.2793598
298.0090471 -32.0688419
298.0272922 -32.5060197
298.7750282 -32.3475549
298.0476187 -31.6693050
298.8969029 -32.9413909
298.9281633 -34.1228401
297.8412555 -33.7020841
297.4399648 -33.5246940
298.3682207 -34.0214101
299.2389809 -34.1926983
298.1554040 -33.4089766
297.0175140 -33.3074480
298.1627033 -33.4505308
298.0305261 -32.7832527
297.6068685 -33.1934578
298.7508002 -34.2775715
297.7166785 -32.9444611
298.6143048 -32.7146884
298.7228350 -32.7462112
297.3194563 -33.2973680
299.3080794 -33.8247611
296.9582510 -33.3845008
298.3232638 -32.6966976
298.2289735 -34.3184152
297.4582182 -33.6824187
298.1885897 -32.8637211
297.9592254 -33.0775248
297.6557716 -33.8989809
298.7778625 -33.8491607
297.6372510 -34.5053286
297.3261349 -33.2342324
298.4111011 -32.6295477
297.8166823 -33.9344268
298.4153301 -33.9261901
297.3427815 -34.1667053
298.7673627 -33.9205914
298.6352361 -33.7914734
297.0034023 -33.3386670
298.7417077 -33.2355831
298.2452823 -32.7099241
298.2229745 -32.7237077
297.8609390 -33.3080118
297.8876733 -34.2613761
297.8362051 -34.1720540
298.8122726 -32.9068991
298.4802708 -33.0901941
297.5988087 -34.2515921
298.0213510 -33.8965755
296.9771340 -33.4700816
298.9287344 -33.2903584
298.3573689 -34.1729555
297.4061884 -33.1062812
298.5079397 -33.1322297
298.0241027 -34.1898388
298.0989270 -33.9298746
297.3698487 -33.9627599
298.0065303 -33.8752513
298.9269364 -32.6841146
298.6620084 -32.7651143
298.4742408 -33.6705631
298.7598233 -33.6366402
298.0516558 -34.3301127
298.6379428 -34.0250783
297.9674245 -34.4364430
297.8804918 -33.0789151
298.3755069 -34.2400433
297.4218843 -34.4594326
298.6257644 -32.6146973
297.1979012 -33.1028166
297.5316985 -32.8610997
296.9628597 -33.1232636
298.9110187 -33.7032057
297.0868042 -33.2146713
298.5617937 -34.2825911
297.5165428 -33.6735348
299.0587399 -33.8873679
298.0814028 -34.2382663
297.4597628 -32.8406970
297.9223012 -34.0999082
297.7646826 -32.9399440
298.2564432 -32.8233259
298.9033493 -32.7807011
297.5014019 -34.3109616
297.7645152 -33.2322367
298.5332060 -34.1816129
298.8935436 -33.1273924
299.3223056 -33.9292059
298.7176804 -32.9158894
298.4583230 -33.5987815
297.2851899 -34.2870157
297.3865447 -33.1082465
299.0893713 -33.4096703
298.8149448 -32.8662630
299.0487475 -33.7165055
298.8542497 -33.6833006
297.2077138 -32.8980370
299.2015183 -34.1188047
298.2798524 -34.2114552
298.3882895 -32.7972090
298.0644136 -34.3189867
298.2664746 -33.1017172
298.5496772 -33.6454958
297.7632906 -34.0645525
297.2082429 -34.1461052
298.6293514 -32.5779584
297.8231987 -34.5386435
298.1420649 -33.5585470
297.3887730 -33.4798033
298.9613628 -32.9638895
297.6373982 -34.4871840
298.0911420 -33.1504637
298.5205700 -33.2536917
298.7105402 -33.6860445
297.3686051 -32.8942180
297.7186557 -34.4563463
298.5083213 -32.8461810
297.5606060 -33.5543975
297.9486358 -33.5770815
298.9514850 -34.2670195
297.8816256 -33.9605826
298.5320842 -33.3771324
297.4533934 -32.9488181
298.8443274 -33.8204391
297.2658049 -34.2788798
297.2669641 -33.5306844
298.4151835 -34.3239858
298.0166797 -34.4810010
297.3228219 -33.3702472
298.8705032 -33.3276296
297.4205159 -33.3203991
298.4511526 -34.2671851
298.9505520 -33.0937719
298.8112198 -33.5355764
297.9993133 -34.1969639
297.6624542 -33.7728984
297.6294393 -33.1642175
298.0824294 -34.1298886
299.0321831 -34.2548553
297.4002058 -33.4610584
297.9021538 -32.8082889
298.7022280 -32.6084028
298.3279845 -34.1517372
298.3589698 -32.8778323
297.5359058 -33.5202152
297.4442315 -33.2751323
297.3406501 -33.8029010
298.1925093 -33.0417862
297.9000151 -32.8151309
297.8739991 -33.7039424
297.5035624 -34.5133336
298.9542378 -32.7951323
298.4743318 -32.6875907
297.7797488 -33.9943637
298.6130777 -33.8474639
297.0351129 -33.5015811
297.9025961 -33.1315941
297.8773339 -33.1810629
297.0312883 -32.9500790
297.9963277 -32.8821601
298.5867179 -34.0043473
298.8414362 -34.3988807
297.7846740 -35.1009203
299.6344293 -35.8127380
298.9892002 -34.4216491
299.3651695 -35.2592143
299.1642539 -35.6372260
298.3420941 -35.9072868
297.9217816 -35.9246169
298.3870306 -35.8767589
299.4495837 -34.5543676
297.5838525 -34.8056470
299.4284937 -35.9515575
298.7052955 -35.2714135
297.5768882 -35.3132456
298.4264790 -34.6132716
298.1195402 -34.5742448
298.9237723 -35.3585103
299.2328982 -34.7833814
298.5145052 -34.5009679
299.6846343 -35.3183368
299.5344486 -35.0168910
298.0461986 -34.9712155
297.7166722 -35.9130685
298.3324802 -35.7523881
298.8378741 -35.5874568
299.1266120 -35.0212885
298.2848287 -35.3367661
298.7894189 -35.1524479
298.8754814 -34.9494260
298.1797931 -34.8949599
298.5247085 -35.6885019
299.5416672 -35.2610487
298.2966981 -35.0510678
297.9634711 -35.0074574
299.4370698 -34.9272640
298.6860531 -35.7382535
298.7067455 -35.9301627
298.6566854 -35.6966302
298.8274832 -35.9088497
299.5775499 -35.5574825
298.1687378 -34.6314067
299.0298552 -34.8045911
299.2624212 -35.6855543
298.5428688 -34.4611365
299.0973799 -35.6592235
299.4833158 -35.2648696
298.7551006 -35.2663141
299.2435310 -34.4929427
298.2992623 -36.2459750
297.6373437 -35.3710880
297.6353064 -34.8956283
298.0420823 -36.2915364
298.6446681 -34.9055152
298.4453071 -35.9696332
298.3135081 -36.1820861
299.2007414 -35.2662011
299.4514181 -35.2235860
297.8644294 -35.9766151
298.1735687 -34.7149599
297.9239587 -34.7985659
298.8639780 -34.9221648
299.3783764 -35.5898191
298.6250519 -35.0666396
299.0545262 -36.1045881
299.0532944 -35.0951317
298.0442905 -36.0263404
299.6586621 -35.3304065
298.0668652 -34.6836536
297.9674122 -35.6422192
299.0482883 -35.9062366
297.8457640 -35.5502494
299.8259880 -35.8100919
297.5103698 -34.9060472
299.1694939 -35.4731054
298.8844797 -35.3373207
298.6851827 -35.1418633
298.8145998 -34.8799965
299.4845362 -35.7171847
298.4602917 -35.3337438
298.5027174 -35.5562000
298.2168170 -34.7325007
299.0109006 -35.4009292
299.4219812 -35.9614986
298.2009085 -36.1326473
298.3956759 -35.1936015
298.5077169 -35.4684037
298.9935868 -35.4238570
298.1544736 -34.7866359
298.8581841 -35.5642510
299.1365381 -35.3728516
298.6939083 -34.6855239
299.2082140 -34.6280367
298.1172660 -34.5248463
297.9616020 -36.2205112
298.9065809 -35.0105867
297.5750907 -35.2776278
299.1549471 -35.4689492
298.9910287 -34.8292653
297.9613190 -35.3237107
299.0341860 -34.6343886
298.7647476 -36.1336648
297.9394932 -36.2601317
298.3101367 -35.3080670
297.3448829 -34.6820811
298.5357692 -34.4841374
298.2084200 -34.9122811
298.2127798 -35.4299934
297.9431643 -35.5046772
297.8221300 -35.7251334
299.6628795 -35.8520603
297.9249912 -35.9114402
297.7485796 -35.8302319
299.5982338 -35.6305951
297.8548952 -34.9012607
297.4391428 -34.7422721
299.1403046 -35.9742323
298.4734925 -34.6988914
298.4303689 -34.9603109
299.6303733 -35.7791032
298.5702322 -36.1484165
299.2773348 -34.4523333
298.4260721 -34.7928599
298.6695740 -35.7900621
297.8199200 -35.8282259
298.6675419 -34.5222386
298.1940594 -35.1993335
298.6833459 -34.9623307
298.4743997 -35.1635783
298.5492627 -35.7342093
299.0474406 -34.7252939
298.8642203 -35.4481857
298.8142056 -34.7613412
297.9752052 -35.4983968
298.0897169 -35.1910355
297.7333840 -35.7954321
297.6233075 -35.5130658
299.1849573 -35.6779019
298.5722117 -35.7746413
297.7840422 -35.5363116
297.9447902 -36.0713572
298.9312422 -34.8916972
298.8525392 -36.0574876
297.9022958 -35.4326937
297.9713273 -35.1635525
299.1750513 -35.0497119
299.2011588 -35.4286940
298.7832060 -36.2054564
299.5333859 -35.7352317
298.6046176 -35.3767313
298.7639868 -34.5263097
298.7523882 -35.6393542
297.7711973 -34.8135230
298.2365115 -34.5611410
298.6645993 -34.9820677
299.3566417 -36.2675031
299.1709206 -37.0055559
300.1246691 -37.6119526
300.0342158 -37.5188362
299.4132412 -37.4482018
299.6543626 -37.5468662
299.1480858 -37.1720700
300.4171252 -37.1255075
299.2186155 -37.0190383
300.2311273 -36.7902766
298.9514539 -36.5973632
299.6424648 -36.1835466
298.2585129 -36.9489445
298.6539681 -37.1252177
299.8374153 -37.1452553
298.1783443 -36.7031708
299.4888557 -37.8976013
300.2601711 -37.5403912
298.0677920 -36.4824839
298.3886277 -37.7747595
299.0634550 -37.9057538
300.2287370 -36.9086617
298.4460104 -37.5676819
298.9585312 -37.2586823
299.0532853 -37.9066526
298.7660056 -37.6745637
300.2597099 -37.3947623
298.3130941 -36.6894477
298.6570686 -36.7277628
298.2551220 -36.4298743
298.6552640 -37.4844907
299.0423518 -37.7648616
300.1099051 -36.6211600
300.1462180 -37.6480699
299.3316912 -36.5076564
298.4634196 -37.9308256
298.6727803 -37.2025020
298.3734879 -36.5145007
299.9373290 -37.1454453
299.9390705 -37.3193752
299.4996080 -37.4987080
298.9257460 -37.7026604
298.3291951 -36.6869651
298.9498418 -36.9370875
298.4968590 -37.2184319
299.2695643 -36.7125823
299.8053044 -36.8804933
299.8141553 -36.1544004
299.1256727 -36.5254961
299.2585004 -37.0095494
299.1651758 -37.6648809
299.8144229 -36.5111501
298.1769492 -36.7944978
299.2969322 -37.8789663
299.0903185 -36.9035422
298.9554000 -37.5171310
298.9270772 -37.2589645
298.6315148 -37.4720087
299.0285583 -37.1553564
300.0943592 -36.6333461
299.2368367 -36.9000530
298.8163471 -36.9907084
299.9123269 -37.3938010
299.4588318 -37.2797007
299.0681635 -37.1677500
298.7360314 -37.5130054
299.7514863 -37.0876561
300.1281663 -37.0604553
299.4170655 -37.8574997
298.2866298 -36.5810830
298.8055282 -37.8830600
299.8293173 -36.0832737
299.6604347 -37.0475403
298.6903736 -36.6052988
297.9317331 -36.5632315
300.1959217 -37.5487552
299.2442173 -36.8702049
299.5263848 -36.2018512
298.7850678 -37.9696971
298.8057625 -37.4789944
298.2459108 -37.4636812
299.1787011 -37.8316229
299.7020417 -37.5494775
300.0648018 -36.1752524
298.5384288 -37.6411149
299.3266927 -37.5407327
298.1550926 -37.2491338
299.2831720 -36.6812808
299.9968785 -37.5374046
300.0154597 -37.1334672
299.9792020 -36.9391525
298.5107077 -36.2927895
300.2018690 -36.6425041
299.7712715 -37.0508546
299.6018558 -36.4293502
299.5380278 -36.8467865
299.4082306 -37.1883561
298.0537013 -36.9709032
299.9981472 -37.0523967
298.8284540 -37.2150706
300.0836806 -37.6004569
300.3117453 -37.0557868
299.0368732 -36.6687187
298.9855316 -36.4412435
298.8200765 -37.7091486
298.3471703 -37.5351546
298.3629057 -37.4867539
299.4491723 -36.9174877
299.3643376 -37.6904876
299.5673309 -37.7289771
300.2189353 -36.7204498
299.6740816 -36.9142974
300.2715912 -37.0850054
299.0908529 -36.8059172
298.4274607 -37.3296563
299.3116774 -36.2833887
298.3879205 -37.5185629
299.9917600 -37.2178614
300.2931826 -37.2485148
299.4766405 -36.5553337
299.7935421 -36.7871724
300.2646614 -36.8256996
298.6315249 -36.7965224
299.7010729 -37.2214850
298.3960722 -37.9198665
298.9822444 -36.7690146
299.5268044 -36.9932581
299.2396838 -37.4501692
298.7258730 -37.9260620
299.4795163 -36.4418943
298.6718394 -37.0954713
300.0654324 -36.5329395
299.4149915 -36.6317008
299.7324009 -37.8421563
299.4054999 -37.0900064
298.3486016 -37.1513324
299.3001215 -37.3979985
299.7651776 -37.7619262
298.2736005 -37.2225911
298.2258954 -37.1459746
298.5323647 -36.3933785
298.6484948 -37.7014510
298.2642808 -37.2957054
300.0446013 -37.4882851
298.4941379 -37.0718011
298.3410149 -37.5907493
299.6175906 -37.3953493
300.5943355 -38.4110915
299.7224636 -39.3007845
299.1625723 -38.2495730
298.7642052 -38.1631972
299.8001301 -39.2423570
299.5942592 -39.4248392
299.6990908 -39.3253049
298.8393130 -38.0998317
298.8946906 -38.8809051
301.1700138 -39.1526147
300.4714219 -38.2006845
299.2543573 -38.7096077
300.6929338 -38.5156488
299.6387765 -38.9639211
300.5619995 -39.4772756
300.4774857 -38.1211502
299.0812135 -39.3624886
298.9971646 -38.7900560
299.8312133 -38.3188380
301.1594893 -39.2723380
299.6986041 -39.7352616
300.6238823 -38.3557954
300.5586322 -39.2033067
299.6868039 -38.5565861
299.8531152 -38.9648215
299.7567089 -39.6067792
300.9147971 -39.3078101
300.4995411 -38.6674030
299.5080032 -38.6307528
300.0696616 -38.5103999
299.8772986 -38.1321117
300.1265678 -38.7287294
299.0508341 -39.3846548
300.0041853 -38.4267697
298.7598247 -38.9294781
300.6783208 -38.7952390
299.2639560 -38.8610269
298.8245563 -39.1101991
299.0700501 -38.3754964
299.6008800 -38.0400235
300.6617708 -37.9043259
299.6281778 -37.9947663
300.2852234 -37.7517322
299.0406265 -38.6398269
299.2708065 -39.8419090
299.4050195 -38.8692689
300.9117131 -39.3671127
300.6007825 -37.8682636
299.7525466 -39.0041196
299.3263983 -39.7118976
300.8690821 -39.1284291
300.4172271 -38.2379764
300.7922425 -38.3176041
299.1479123 -38.0842773
299.4924334 -39.0437250
298.9913115 -39.3098234
300.5157904 -38.1078308
299.9858563 -39.2971819
300.7957169 -38.9995233
299.7280313 -39.3702957
298.6604137 -38.6615953
299.8057579 -39.1615137
300.0691871 -38.6767324
300.6720869 -38.3459723
300.4502766 -39.3899933
300.8284495 -39.1291371
300.2329485 -39.2596677
299.5559531 -38.2192122
299.7654611 -38.8602549
299.1394880 -38.4382441
300.5135743 -38.7416056
299.7820748 -39.2607491
299.4515675 -39.6126460
299.4611026 -38.5690476
300.2663022 -38.9545174
299.7573815 -39.6274576
299.1575783 -39.6930827
300.3709843 -38.1794199
301.0794737 -38.9329418
298.5226308 -38.3105867
299.4081370 -38.2793687
299.5346242 -38.8796282
300.3199244 -38.0987434
298.9021032 -38.2752680
299.6796286 -38.0169550
300.6986183 -39.5010141
299.5465578 -38.4798250
300.6265070 -39.3404157
299.9655296 -38.7426938
300.3878721 -38.4193224
299.8074031 -39.3892140
301.0532281 -39.1640348
300.1961664 -39.2399822
300.7415585 -39.0385487
300.8935863 -38.8555610
299.6514919 -37.9170512
300.2201655 -39.2103233
300.8021329 -38.2590155
300.0957756 -38.2388929
299.7060726 -39.2698061
299.0042918 -38.7817563
299.3375139 -39.2568549
300.9611294 -38.9225966
298.9119851 -39.0413616
299.6354218 -37.9903180
300.5996119 -38.2290850
300.4154148 -38.5420658
300.9864238 -39.0528499
300.2460933 -38.5510760
298.6108054 -38.5788212
299.9561648 -37.8528823
298.9158822 -38.2350144
299.0792871 -39.4217384
300.1934014 -39.3148860
299.4399813 -39.4788039
300.6266097 -38.0743239
299.3522955 -38.6633773
300.6845906 -38.8009087
298.9702351 -39.2616785
300.9776681 -38.9798858
300.5941583 -39.2906029
299.4725898 -39.2663979
300.3339274 -38.8818690
299.5737137 -38.7138655
299.5821871 -39.1437735
299.1454777 -39.3106869
298.6465071 -38.2357286
299.2686169 -39.3220973
299.7231105 -38.5365995
299.3780236 -38.8659655
299.0462713 -39.5107312
300.1628087 -39.3754981
300.4488714 -37.7067410
299.5522050 -38.4433238
300.5151149 -39.3686976
300.6616206 -37.8148884
300.5115255 -38.6377839
300.1262333 -41.4276449
300.5261451 -39.6288158
301.3600542 -40.5950493
301.0353392 -39.9854740
301.4086168 -39.9861210
300.1611894 -40.6141731
299.8861328 -40.0233465
300.2560683 -40.9411329
301.2238414 -41.2016282
301.2508706 -40.2386899
300.5293063 -41.2113016
300.0081057 -41.2992677
300.5636815 -39.5562777
299.8134306 -41.4829703
300.0123455 -40.3565677
300.9969763 -39.8674979
300.1133565 -40.6813064
301.1246847 -40.9547546
301.2576885 -40.1651909
299.8865605 -40.3644268
300.8090901 -40.8330186
300.9667825 -40.5218288
300.8137229 -41.0074753
301.3161712 -39.7766529
301.4386188 -40.6904369
301.7699770 -40.8477186
301.0341943 -41.0322441
300.2694777 -40.2172494
299.9033241 -40.4114254
300.1113862 -40.5629864
300.6354264 -39.7637979
301.2430039 -40.7303330
301.9717451 -40.9046410
300.9246358 -41.0978320
301.2001929 -39.4467193
300.3758780 -40.5758704
299.5577079 -39.9053604
301.0988752 -39.9089202
300.9054325 -40.4468131
300.4534863 -40.5388439
301.0308500 -39.9811248
300.1315255 -39.7965815
300.9244214 -39.9337319
299.5469212 -39.7792158
300.9006376 -41.0876106
300.4265354 -41.1260274
300.9737021 -39.8228917
299.4822071 -39.7977452
300.4071598 -40.0866947
299.7200280 -40.0833835
301.0341666 -39.9513185
300.8871135 -39.9242364
301.0677980 -40.8958599
301.5989580 -40.2273001
300.6182246 -40.7100521
299.7288714 -41.2669468
300.3338766 -40.3624342
301.0855416 -41.1391475
300.5738508 -41.1241974
300.9057504 -40.9221476
299.9734648 -39.7063065
300.2292183 -40.2130229
300.0127156 -40.8890203
300.9998774 -40.5575231
300.3518265 -39.8877976
300.9620958 -39.8417569
301.4788223 -40.6725335
299.8722538 -40.4774477
300.1843526 -41.1608518
299.8848126 -41.5307563
301.7516223 -40.4273624
300.9240904 -40.2892584
301.1116679 -40.9634177
301.1163370 -41.2390345
300.7195390 -41.2826180
301.0591655 -39.8018966
300.9394066 -39.9735117
299.9168535 -40.6555967
300.6772750 -40.3258760
301.3995700 -40.2073905
299.6199556 -40.8171407
300.1909862 -40.0946492
300.3008739 -41.4192464
300.0402693 -40.9178428
300.4981665 -40.7704466
300.2919035 -41.1884081
301.2598251 -40.8830382
301.2554385 -39.9053072
299.6155732 -40.8368528
300.3282665 -40.4611179
301.2554378 -40.2591638
300.5983361 -40.6476275
301.7127422 -40.9538157
299.7201621 -40.3341594
300.3093337 -41.3325153
301.2552213 -41.1302293
301.3596140 -41.2098196
300.1836532 -39.8391255
301.4592605 -40.4128908
300.4743849 -41.2647657
301.5014724 -40.2783650
301.1339274 -39.4530782
300.4645540 -41.0502205
300.0592814 -41.4195335
300.4678709 -41.2374409
300.7596317 -41.1858337
299.2690502 -40.2510803
300.0823175 -40.2657060
299.9285272 -41.0400169
300.6368943 -40.9286115
300.9902109 -39.5209328
300.1012815 -41.2938782
300.5127874 -41.0201783
299.3252756 -40.3056532
301.5933113 -40.8880166
299.7206880 -41.4180395
301.4233812 -40.9750381
299.7248817 -41.4204271
300.4257320 -41.1138198
301.9089839 -40.7429863
302.0424297 -41.0106563
300.7927835 -40.8235157
299.8437914 -41.0968819
301.1141533 -40.6558158
299.9818735 -40.6194022
301.0101761 -41.3617995
301.5476459 -42.4932753
302.1901767 -41.9990585
301.8627050 -41.2707435
300.8575097 -42.9534362
301.5601044 -41.1678311
301.5498848 -42.0487706
301.1074165 -42.8689198
302.0454051 -42.6438315
301.7414264 -42.1974658
300.5157454 -41.4388952
301.9594334 -42.6625835
301.0445412 -42.5935113
300.7709697 -42.3882825
301.4335168 -41.6696576
302.1493150 -42.5981511
301.8868303 -42.5363316
302.3810149 -42.8468704
302.2833302 -41.6691421
300.7490957 -41.6838802
302.3066003 -41.6040733
300.3094257 -41.9548282
300.8009582 -42.7648505
301.3424763 -41.3524182
302.1084419 -41.2743621
302.0847833 -42.0958364
301.8736663 -42.3292082
300.7457986 -41.3971727
300.5923802 -41.7547768
301.3126728 -43.1171100
302.2330799 -42.0499523
302.0435749 -42.2306593
300.6400634 -42.9626650
300.8673755 -41.3445220
302.1807859 -42.5165063
301.5650252 -41.4109985
301.4738357 -41.7725746
302.6429041 -42.6537447
300.3444675 -42.0441937
302.2012876 -41.9920532
300.9134398 -42.6003745
302.0953083 -42.5116532
301.8296349 -42.6902878
301.6574883 -41.7441549
300.9138177 -41.6280511
301.1928243 -42.6300527
302.0759830 -41.1497542
301.3447244 -41.9066686
300.4603457 -41.7936155
301.6058311 -41.1625110
301.1327595 -41.3070273
300.5444117 -42.7677724
300.6196833 -43.1723777
300.5680669 -42.7267313
301.0948897 -42.9035575
300.7103712 -42.7265601
300.5133925 -42.9001349
301.3323907 -41.5749989
301.2753690 -41.7472383
302.1955301 -41.9612726
300.8092048 -41.8205028
301.8622032 -41.5578788
300.6926097 -42.7957567
301.5871601 -42.3968186
301.4073718 -42.1237869
301.9282889 -41.4271393
300.5203684 -42.0080758
301.2293782 -41.8769530
300.8638680 -43.0752122
301.5197345 -42.9531810
300.7980845 -41.3834427
301.1297057 -43.1328378
301.4993486 -41.4187726
301.0612902 -42.6082497
300.4564263 -42.9553334
300.8464482 -41.8496412
302.2417896 -42.3837033
301.8297322 -41.4336108
300.1436225 -41.6876519
301.5845919 -42.4683886
301.3153947 -41.8562207
301.4606444 -42.0600368
302.2137751 -42.5496076
301.9077931 -41.9116239
300.5291516 -41.7461241
300.8948716 -42.1744983
302.4047495 -42.6116430
300.6456179 -42.4799723
301.1536200 -41.5141251
300.1279453 -42.2527584
301.8166734 -42.1629268
300.8075198 -42.6696483
302.2365506 -41.8660634
300.3250201 -41.8114103
300.8738960 -42.8407801
301.3744162 -41.5910014
301.8868092 -42.6322416
302.4745623 -42.5551133
301.1199190 -42.6484692
300.8807455 -43.1534580
301.9351318 -41.4154720
300.6093458 -42.4405754
301.4881310 -42.4503390
301.9009145 -44.5770480
302.8771038 -42.7933867
301.4726252 -44.8606599
301.6540143 -43.4304744
301.3638466 -44.4612478
302.2888983 -43.9792538
300.7794647 -43.2923884
303.3393672 -44.3983306
303.1120289 -43.7625483
303.1629375 -43.9013944
302.2624201 -44.2865876
302.4021450 -44.3930778
301.1565429 -44.2522637
302.4090925 -43.1819057
301.1033171 -44.4401300
303.5775439 -44.2437978
301.6334244 -43.1464841
302.8156619 -42.9829875
302.9428154 -43.4987727
300.8446315 -43.9522675
301.5282178 -44.3480189
303.0875536 -43.7802604
301.4824895 -44.5735429
302.5392886 -43.4787669
302.0094524 -42.9457812
303.3653713 -43.9936689
301.5743195 -43.5834373
302.0113561 -44.1088628
303.2992957 -43.6025942
301.3247421 -44.5944858
302.5198842 -43.8413658
301.3608308 -44.7460486
302.0808830 -44.7387523
302.2217905 -43.4225574
302.8024977 -44.2675953
302.9966613 -44.2408579
302.3793354 -43.5326029
302.0232339 -43.3168897
301.3891177 -44.1357074
301.9432122 -44.7366408
303.5599088 -44.2116567
303.2290560 -44.1878484
302.8937335 -44.4371859
301.3805812 -44.6498863
301.5924807 -44.5614666
302.6853052 -44.0928593
302.3550145 -43.6186900
301.5726007 -43.5478296
301.5261892 -43.6407783
301.7947848 -44.5772883
302.0592900 -43.2335807
302.5776226 -43.4442723
300.9130055 -43.7634792
302.7941077 -43.3464438
301.0128378 -43.7797130
302.9839415 -43.1497306
301.2472846 -43.8032823
302.3422764 -44.0229806
302.2567704 -43.0524026
302.3798479 -43.8686006
302.6384518 -43.8044023
301.6828452 -44.3701505
303.0761459 -43.9761988
301.5395977 -43.8753938
303.0606209 -44.2828334
301.1944983 -44.5745419
301.9276166 -43.5536193
302.9553697 -43.7034419
302.0761979 -44.7954518
302.1123502 -44.5923715
302.3257040 -44.7239712
302.3975540 -44.3893340
301.2408576 -43.2012569
302.1902837 -43.6503919
302.8448502 -43.9412446
301.7043461 -44.2440839
303.5196711 -44.4421473
301.8352067 -43.7136975
301.2449906 -43.3596573
302.8090261 -43.9461429
302.9713050 -45.9419204
304.5290460 -45.9044370
302.2623271 -45.5815116
303.8994122 -45.9781015
303.9766568 -45.7968189
302.3557540 -45.9207989
302.3962122 -45.2841795
302.7784257 -45.2332742
302.4606818 -46.4673046
302.2190182 -46.2278573
303.3096677 -45.5039196
303.4634401 -45.5917984
302.6531457 -44.9085511
302.9209079 -45.7794280
302.0497007 -45.9410338
301.7356743 -45.0957909
302.3716973 -46.5068535
302.1455964 -45.8660746
304.0685033 -45.2057468
303.9911300 -45.7593437
303.4713990 -45.5721659
302.5552001 -45.2349676
303.7474294 -46.0141084
302.3400567 -45.4891682
303.3105649 -44.6245014
304.0629780 -45.8743786
302.5810400 -44.7375807
302.3206313 -45.8278135
302.5822353 -45.8883387
302.6660025 -45.9665135
302.7586761 -46.1387132
302.0798146 -46.1816249
302.9500744 -45.7017709
302.8933787 -44.9290502
302.2818136 -45.6757526
303.1263541 -44.9559706
302.9787310 -46.3058678
304.1017108 -45.5529297
303.2560480 -46.3280195
303.6121947 -45.4803568
301.6716195 -45.4408468
302.3147978 -45.4800121
303.0097328 -45.9851374
302.2535318 -45.9712704
303.0277268 -44.8203783
302.6737622 -45.9357373
302.1461301 -45.1982655
302.6407475 -45.9856149
302.3835618 -45.4654209
302.9852384 -44.8438223
302.2683822 -44.9946551
302.9853789 -46.1541747
304.1523539 -46.0442250
303.1851002 -46.2910461
304.1018619 -45.9366072
301.9019522 -45.2761308
302.2069923 -46.3203348
304.3258168 -45.4730796
303.6651568 -44.8199216
304.2112150 -47.7011366
304.7149540 -46.3091702
304.6740583 -47.5542854
304.3268526 -46.7589179
303.6033669 -47.3510400
303.4830000 -46.6727544
303.5397282 -48.1471332
303.9406057 -46.7568151
304.2713971 -46.9665378
302.9863555 -47.0045613
303.8740205 -47.5643221
303.9122854 -46.5586208
304.4995880 -47.2234092
305.1559266 -47.6437372
303.2143276 -47.2251062
303.8713487 -46.4975048
302.8031779 -47.2716846
304.6065946 -46.9166041
304.0068986 -47.9357673
303.5658723 -48.2780611
303.2685853 -46.8931177
305.2640891 -47.0153278
304.5972135 -47.9971258
303.4870492 -47.9054688
302.4149143 -46.9226747
302.5536408 -47.0943896
304.4873620 -47.8405903
304.0063069 -46.3779850
302.5833413 -46.8940979
304.2398846 -47.9308288
304.7072144 -47.6315480
303.1911582 -47.4538364
303.3844221 -48.3140434
303.3168038 -46.6814787
303.2734574 -46.7238099
304.8821413 -46.5893426
303.3958556 -46.8848954
303.4251107 -48.1607994
303.5546725 -46.7011613
304.4402627 -47.9602996
303.9560194 -47.3521385
304.2334096 -48.8961216
303.8194723 -48.8697139
306.1950689 -48.4413783
304.4997964 -49.5899199
304.6406232 -48.7894143
304.6713261 -49.2982990
303.9561567 -49.2598567
305.3017746 -48.5039875
305.0748944 -49.3923568
305.9471303 -49.1769017
306.1274410 -48.5859082
303.8872533 -49.1169721
304.2145342 -49.5459632
304.7082076 -49.7725283
305.4709270 -48.1743285
305.2849067 -49.4953134
303.7110544 -48.9001428
306.1144679 -48.4760987
305.6659741 -49.6247947
304.4567753 -49.4241914
304.0893188 -49.2790009
304.7245164 -48.2595493
305.1848984 -49.7437409
306.5800355 -49.8132391
305.8387579 -50.4342190
305.1158391 -50.2605322
304.9625417 -49.9548515
306.1890594 -50.5353038
304.8515741 -50.0035823
306.8752362 -51.0708503
306.4045205 -49.8308225
306.9795924 -51.2139958
305.3486154 -50.0487148
307.0448887 -49.6235031
308.0291872 -50.9063960
308.4540311 -52.4124646
308.4202159 -52.2682036
308.0718205 -51.3291052
307.7048427 -52.6111739
306.3227631 -52.2696850
307.5562383 -52.8893727
309.6187381 -54.0266379
309.2433650 -53.6869840
308.1892084 -54.2869301
310.6951317 -55.0526262
313.0016271 -56.0582414
