220.0175819 -29.3101552
225.1540940 -27.5438884
222.9957139 -26.9620669
225.7416324 -26.8279060
221.3428952 -27.0980874
224.9318309 -25.9356666
224.6222775 -27.4849167
224.1264955 -26.0673890
224.6032498 -25.7496525
222.1550802 -26.1252275
222.2205968 -27.3454380
225.7517271 -26.2446143
223.8044807 -27.1049605
223.2082825 -27.8135655
221.7424968 -26.4331011
222.1433018 -27.7401241
224.0304394 -27.5607744
222.9961650 -25.4396176
224.5117554 -26.3598138
225.2740241 -27.6720170
221.5453264 -27.4961137
225.6284200 -26.8673726
221.6893180 -26.3471011
225.4506052 -27.4287829
224.1824332 -28.5979619
225.5446053 -27.7937740
224.7666499 -26.0751618
223.5654329 -24.7823547
225.1098661 -27.7662969
224.4510126 -26.8958753
222.4708910 -28.2083102
221.7510337 -27.4677818
225.5623195 -26.3272369
223.7936455 -25.5839918
224.5938461 -28.5586711
224.1984185 -26.8779750
224.1058636 -27.4972697
223.5281180 -27.4825963
224.5588645 -26.7424666
223.6541429 -26.2092865
221.8754534 -26.2618876
224.6509301 -25.7209684
223.1781321 -24.8234598
221.1350438 -27.0252797
223.6617113 -27.4514611
221.8628504 -27.4198836
222.2655049 -28.0510752
223.8713244 -28.1464042
224.7559638 -27.5110525
223.0667713 -27.7244599
223.6871969 -27.0035396
224.2012535 -27.4774150
225.9234731 -26.5846126
224.8634879 -28.3102112
223.1579078 -27.1472502
223.0744655 -28.1196025
225.3345333 -27.8182430
224.9892593 -26.9607498
223.3428155 -27.3543872
225.4765241 -26.4509490
223.8746037 -26.7390428
223.6420780 -25.3061003
222.1225841 -26.3288824
224.4792860 -27.5561590
225.4205831 -26.4253491
221.3966825 -27.3823702
226.1748257 -26.5347574
223.7304407 -28.2720894
224.8889505 -25.7828601
224.4075908 -25.4367568
225.0659842 -26.6260741
223.5713859 -26.4302636
221.6560823 -26.8586416
224.7536159 -26.2844732
223.2026164 -25.2369437
224.9348906 -25.6807096
224.9343155 -28.3202609
223.0148011 -28.5868210
222.1073074 -28.0967496
223.9831777 -27.7111710
223.6235530 -25.2246303
223.7324348 -29.3481848
222.9123190 -28.3443821
222.9175422 -27.8509787
224.3207950 -26.0068060
222.2435144 -26.7240333
225.4967138 -27.7059768
224.5275971 -27.3225089
222.3126067 -26.7007230
223.5312133 -24.9073535
222.4676732 -28.3874566
223.8000995 -24.8910960
222.6355889 -28.2714534
224.6951104 -25.4796576
223.4404171 -26.6951551
223.7133239 -24.7638268
224.5069698 -28.8211658
224.8829546 -28.4749370
223.2003125 -25.9766968
222.7478186 -25.6007447
225.2885867 -26.2799324
223.4061720 -25.8159214
222.6220094 -28.1995770
222.6521722 -26.5255768
223.5172705 -25.2506144
222.9300385 -26.0424331
224.3568037 -26.1489736
222.6040366 -27.5438095
224.3156232 -27.3526730
224.1941052 -26.1813971
223.3996554 -24.7522658
224.1575200 -26.7259867
225.1991181 -27.3438256
224.2614432 -27.2526816
224.6345742 -26.0180170
223.5460666 -28.7708994
224.5762596 -26.6729203
222.9006782 -26.4844456
224.9029312 -27.9560101
223.6618185 -28.7619942
223.4103019 -26.9662994
222.0221767 -27.4386356
225.0872556 -28.2967946
223.6318656 -28.0216729
224.5600748 -27.3245983
223.3443963 -25.8632092
224.2805067 -26.8205059
224.3275626 -28.3507744
223.0901958 -25.4604914
224.7077550 -28.2373355
222.9439755 -27.3106670
224.3541424 -27.4575065
222.6301544 -27.6892094
224.1112381 -25.5938800
224.4832083 -28.1373139
222.8816447 -27.5034562
225.0320116 -26.6174168
224.7728151 -26.1063806
225.5170312 -26.8470498
224.2000713 -27.9333395
225.6729238 -27.2267749
221.7005534 -26.7792146
221.8676534 -27.2738382
223.3185488 -26.0318705
222.4493740 -27.5895093
225.8476351 -27.1628572
223.0111555 -28.1794493
223.3129145 -25.0071235
225.8737881 -27.2928686
225.8942576 -27.2311932
224.6926202 -27.6146784
225.0029552 -28.2718731
223.5676959 -28.0940566
224.5220211 -27.4351707
223.5494553 -25.4764818
224.4954474 -28.2144117
223.2618155 -27.2465183
222.3368191 -28.3167674
223.9727021 -26.5422982
223.9820241 -27.8853912
223.2053922 -24.7557825
222.4041445 -25.6384863
223.7320766 -25.8465492
224.2923206 -27.8659286
225.3496466 -27.8675567
223.7522197 -26.0384904
225.0573303 -27.6887561
222.2871858 -26.2197896
222.5177748 -28.4355240
221.4334208 -27.1077362
222.8518893 -27.0477010
222.7712578 -27.9154969
221.7051900 -26.8083343
224.9286391 -28.2625877
223.1826440 -28.9472207
223.1918441 -26.2681630
225.1755773 -27.5300449
222.1432805 -25.9973326
224.9397910 -26.1650964
222.8487885 -26.2944428
225.2175299 -27.7067623
223.0103237 -25.2735626
224.8338847 -27.4389063
223.3150751 -28.9462029
222.0286175 -27.0413094
225.0712093 -25.9367378
223.2335074 -28.6540416
223.5938776 -29.1769276
223.1842724 -28.3429547
222.8384276 -27.3015973
223.0023155 -27.9132986
224.1238121 -28.6365985
222.8513118 -25.6968738
223.8102883 -28.9166304
223.3171069 -28.5940360
224.1180271 -25.7438645
223.1229605 -28.0740659
223.9146994 -25.7737398
223.2564253 -28.9300200
222.4920660 -26.1883126
224.9844512 -28.3696834
224.3214033 -25.5646374
225.5486358 -27.8098621
222.1626347 -26.9668846
225.3981035 -26.8813993
223.2380389 -27.8997989
224.8206635 -26.6854325
221.9819978 -27.8606765
225.1571574 -27.2263951
224.4924606 -26.8282007
222.0186875 -27.8766939
223.7032933 -28.0975858
225.0528707 -27.9152846
224.8281072 -28.4374669
222.1989852 -26.7913459
227.4226290 -23.4101897
227.5356088 -24.6421123
225.6136921 -23.2478629
226.3377365 -23.5657552
227.3205813 -25.1058744
225.7688133 -26.0556351
226.0975159 -25.7364667
227.4955779 -25.1761407
225.2444564 -25.5591335
225.6799787 -22.3739093
226.6906186 -24.4350043
223.7600225 -24.7840140
226.7559059 -22.8564152
227.9726938 -23.4252607
225.5774972 -22.2104549
224.6816849 -24.7454554
224.1632890 -23.6001883
225.2415729 -24.8916598
225.9736104 -24.6064719
228.0705812 -23.8006913
226.9869929 -23.9625613
225.6320076 -24.7962267
226.8216910 -25.9996944
227.7546217 -24.9235108
224.7767598 -24.5890397
226.6297265 -24.3025105
224.6869164 -23.1000627
225.1620804 -25.2323522
226.7103164 -23.1418109
228.3051254 -23.7064272
227.5826897 -23.3835102
225.8159691 -22.8426888
226.8192335 -25.3417913
224.6494220 -24.7923933
227.3401133 -24.4433681
226.6882713 -22.5249290
225.6208981 -25.9940439
226.7468701 -24.8372134
226.2234209 -22.7771110
226.2689238 -25.4956738
226.9100924 -24.0473050
224.8830284 -23.9489654
225.7575793 -24.6188869
227.4490064 -25.1957488
227.4526918 -25.0767856
225.7809542 -24.3457362
224.3997365 -25.1100662
228.6061083 -23.5652612
225.4633241 -25.5729345
225.9680093 -23.3875727
226.8145685 -23.7926116
225.7785918 -21.8945392
225.4765315 -25.5779957
227.6804978 -23.7352063
225.9625349 -23.4925645
226.9318304 -23.1347818
225.8418263 -23.6196526
226.0000983 -25.5437248
225.9545991 -22.8997852
224.8757636 -24.4687993
226.4318396 -22.6743372
224.5910257 -25.3223202
225.6270180 -22.4400355
226.9753577 -24.4582551
225.7695323 -22.9809960
227.8621031 -24.2868598
224.2769067 -25.1139919
227.1755919 -23.1318862
225.9720310 -22.4477275
226.0488516 -24.4015432
225.7712891 -26.1302314
225.3792248 -23.8068452
226.9356612 -23.8777579
225.0498965 -24.1375003
225.2145370 -25.1506179
226.6727364 -26.2550522
224.0259987 -24.7874316
227.7324800 -25.1177367
225.2201941 -25.7291825
226.3167488 -26.4139429
225.2646398 -23.4167662
225.3586335 -23.7569898
225.9433446 -25.7661803
226.5632336 -26.1158997
227.7369303 -24.4719633
226.8381150 -24.9722268
226.2558326 -25.5011224
224.9456307 -22.7064521
225.2229721 -24.8047586
225.8220378 -24.0291823
227.6514295 -23.5852011
226.7663405 -23.5221205
227.2054247 -25.7612628
224.2868115 -23.5393431
227.4255732 -24.8322628
226.4960148 -25.1986891
226.9160062 -24.6729000
227.4331567 -23.5135351
227.6723933 -23.9759179
227.8032593 -24.4728549
227.2471361 -23.8839206
225.0243758 -23.1141710
226.5269963 -23.4325092
227.0736176 -24.3640459
224.0974399 -24.7675230
228.1483658 -24.1538801
226.3688278 -22.2300453
227.6704786 -24.2757535
226.5471758 -25.8458254
225.0390792 -24.2180510
226.7673002 -25.2137492
223.9936160 -25.0352056
226.9704045 -25.7968913
224.4336439 -24.3303357
226.7476830 -26.3565864
226.1158047 -24.1870811
224.7166414 -23.1829393
226.1524199 -22.2773696
226.0904025 -24.4979066
225.4460084 -22.5367191
224.0733338 -23.6874058
225.7497871 -25.1435535
226.7352910 -25.4323218
227.1662096 -23.2769760
223.8134203 -24.6762456
224.2927144 -24.8317031
226.8079580 -26.0470930
226.4994393 -25.3149109
227.6121338 -23.0772540
225.6352729 -22.0715702
226.2306515 -23.6119601
226.2064335 -23.3820521
224.3719523 -24.8646072
226.2820710 -24.4558457
226.3568037 -23.6208807
225.9897970 -26.1396046
225.5499401 -22.0214255
225.2785297 -24.2282341
226.0141510 -23.3508074
226.7936534 -23.5010938
224.9175003 -23.6516483
225.7603505 -25.4930980
225.7607267 -23.8141346
225.0041687 -25.0330311
226.3672400 -22.6431656
224.6345043 -24.4576567
224.7478604 -23.7992698
225.8331526 -22.5441430
227.7495294 -23.0963197
224.9823925 -25.2018580
226.9135111 -24.7220505
227.0219093 -24.3403013
225.4033348 -22.6892183
225.3979082 -23.4824091
224.9610715 -24.4445595
225.3109425 -22.6901189
228.2336497 -23.5583113
227.5630961 -25.3652190
225.6783351 -24.7418958
225.3271836 -24.1351658
225.8458496 -24.8721685
224.3528161 -25.2534176
227.0902735 -23.4178502
226.2413055 -24.0971480
225.2256103 -23.6347144
224.9605098 -24.5202691
225.9007299 -22.8539241
227.5114396 -23.5092334
226.2055527 -22.7274343
226.7933348 -25.9553797
225.1005391 -23.0773534
225.5405574 -22.0791424
224.5262707 -23.3968715
226.1360423 -22.2389386
224.0007230 -24.2437599
226.9495283 -25.0831938
226.0057999 -24.6012093
225.6316545 -22.7372398
226.0735887 -23.0016121
227.2592517 -24.8727325
226.5818786 -23.2875425
224.1364428 -25.1043392
225.4530115 -21.6864936
224.5063360 -23.3702697
226.0104092 -23.6168018
224.3766272 -24.2956015
226.5378665 -25.1357636
228.2927029 -23.6826749
228.2007706 -23.7016817
227.6337275 -24.3808625
227.1521521 -24.1958409
227.5579096 -23.5612504
226.6868876 -23.8470214
225.8652833 -23.2295918
225.4486368 -22.9989421
227.8378345 -23.8084068
226.1082012 -23.3980267
224.4615812 -24.4548838
224.1310720 -23.7106919
225.6643096 -21.8974496
227.9028702 -23.3311027
225.6601215 -25.7706135
227.5118667 -23.7575069
225.4597925 -23.8225263
226.1639497 -23.5182456
225.5619247 -23.8317116
225.8533008 -24.0230728
225.5924804 -23.0064630
224.6353965 -24.3780972
227.2071767 -23.8500216
227.1835465 -24.7708989
225.2868020 -23.5244119
226.6351386 -23.6186237
224.9760370 -25.0062920
225.9854750 -22.3994774
224.6641760 -24.9517217
225.5626361 -25.4126536
226.3463741 -24.9799070
224.1118059 -24.7209692
227.6793526 -23.0734821
225.5554938 -24.9088457
224.9987704 -25.6416222
227.3153923 -22.8143334
224.8741854 -22.8845722
226.9409356 -23.9224200
227.6310580 -23.7014746
225.4943334 -22.4044674
226.7398443 -22.6385529
224.2341224 -23.5597663
228.2514699 -23.3353432
224.9175113 -25.2218341
228.4439960 -23.9286589
226.2496405 -24.7990427
226.9271317 -26.0565469
227.3379009 -22.9178154
225.9664989 -25.7998221
225.6166946 -25.8624882
226.6700533 -25.9628630
224.3495967 -23.3209549
226.0672550 -25.8197386
225.5145648 -24.9253449
223.6486218 -24.4697591
225.4865191 -25.4350190
225.8040517 -23.8372221
227.6277603 -23.5372518
225.6265431 -25.3034579
226.7912335 -22.5313452
226.3385524 -25.1239325
226.6646283 -24.8899631
225.3248449 -23.2414715
227.9462880 -23.8313410
225.5440699 -25.1863976
225.8749707 -24.5275593
227.1997076 -24.0860998
225.4002445 -23.9286858
224.8909457 -23.6936913
227.3362082 -24.8778259
223.6149207 -24.2462448
224.6696802 -23.5402682
226.6749953 -23.7566608
226.6085320 -25.2603227
228.1375761 -23.8041493
225.5751864 -24.3174693
224.2501442 -23.8520530
225.1307098 -23.4178324
226.2069577 -22.4166316
226.2663837 -23.5742950
225.8120410 -25.7918028
224.3512301 -24.6252496
228.1405061 -23.8811629
227.9402713 -24.5809144
226.1954317 -22.4546317
225.7375745 -26.0528390
225.3103663 -23.1965067
226.8848866 -24.6168865
224.4131141 -24.2940695
226.8955939 -22.7378987
224.2082822 -23.4928175
227.2196129 -22.8980505
226.7752867 -25.8915046
225.2510297 -23.5207353
225.0720567 -22.9018452
225.0944728 -22.8118356
226.6364947 -23.2922791
224.4979793 -24.5696154
224.3294085 -23.3934521
225.1164435 -22.5989039
226.1295394 -25.7008417
227.3361270 -24.5328286
225.0965379 -24.2338957
224.7141873 -24.7310325
226.2031628 -24.5968332
227.6693129 -25.0686585
224.8451868 -25.2969147
227.4791284 -24.6247954
225.6946680 -24.3858124
226.8176361 -24.3460185
227.0105128 -26.0688451
225.8646236 -23.2915860
226.8861656 -23.6184395
224.4396522 -25.0837398
225.3706027 -22.4450627
225.9331670 -24.8973519
226.3713956 -23.0248615
224.5014608 -23.9157408
226.3117242 -24.5223896
226.5576564 -22.8024695
223.4206756 -24.4873076
224.3258248 -24.3657416
226.6588939 -25.1121548
225.4582077 -24.4880695
224.4297927 -25.2847890
226.0147286 -23.0518254
224.6387780 -23.0096435
223.6746823 -24.3962638
224.7083172 -24.3135678
226.1689454 -26.3242045
227.0354742 -23.0142689
224.9531653 -23.6252567
226.9569874 -24.7752248
224.9507377 -25.2285365
224.4506824 -23.8172924
225.6850615 -25.9813928
225.9710118 -22.7672897
225.8041438 -26.1555176
228.0705500 -23.6805914
224.3692729 -25.0930981
224.9836093 -24.5546761
227.4216054 -23.7342585
227.0898814 -24.3520419
227.1257042 -25.1181227
227.2091950 -24.5518609
225.0972983 -23.7324747
226.0688622 -26.3106827
226.6715833 -23.8109392
226.5207836 -22.8025779
226.7577945 -26.0621444
225.6229418 -22.7873459
225.2881034 -23.0358396
224.5865841 -23.2650143
225.3835086 -23.9808920
224.9723606 -23.5338919
226.0604855 -25.1227514
225.4961887 -25.0196279
226.4304069 -26.3709502
225.2008363 -24.2955527
225.2357091 -22.4316118
225.7623988 -22.2676090
225.4403876 -22.2284363
226.5249804 -25.4729194
226.3472029 -22.7634407
225.3839748 -25.0079313
225.9846433 -24.1928795
226.2939202 -24.9599778
226.9219011 -24.2916345
225.4849633 -24.4702473
225.7599885 -25.5700340
225.8213446 -23.5596916
224.5996820 -24.5219814
225.0573481 -23.9360912
225.0686617 -22.6671698
226.2610569 -25.3074415
225.3124552 -21.8773635
225.5227954 -25.5905572
226.7051560 -22.8793416
224.8222090 -23.1222768
225.2158944 -25.6985030
225.5843461 -22.5304869
224.8811872 -23.7260213
224.4653880 -25.0221588
224.8206507 -23.9954358
226.7775418 -23.6045953
226.2420277 -22.1543259
227.1273470 -23.4687421
228.3443756 -24.0720693
223.7769370 -24.7634918
227.2138657 -25.4745457
226.8591372 -25.2971262
227.6164920 -24.5468247
225.2574319 -25.3274452
226.6433959 -22.7385129
226.1529490 -22.4132412
226.4097674 -23.0531849
224.9972189 -25.3414481
224.6417320 -24.9873966
225.7829925 -22.7264224
226.1628600 -24.1168521
226.6874027 -25.4921179
227.4554331 -22.9851205
225.3682806 -24.2533416
226.9849940 -23.7330578
227.9235136 -23.3057045
224.8393519 -22.9021343
225.9894690 -22.9361250
228.0765157 -23.5510637
225.1868160 -24.9391943
225.4020508 -25.1005091
227.3661560 -24.3727065
228.5400712 -23.4992633
226.1707009 -25.4317746
224.4952091 -25.2622239
225.6637674 -22.4580292
227.1497779 -24.6059874
226.0961111 -22.4022075
226.1742666 -22.9505378
226.2435519 -25.8939916
227.9342592 -24.0038100
226.1904032 -23.4598882
225.2764339 -23.9694984
225.5310118 -22.4225702
225.3208469 -23.4721629
225.0369415 -24.9771168
227.7400778 -24.3467536
224.5528391 -23.8046126
225.2107658 -25.2827685
227.8061993 -23.5732292
226.7169174 -22.6222900
227.7053417 -24.6283248
225.8572821 -22.2730949
224.9416324 -22.5797905
227.3388835 -23.7032520
225.2210413 -22.1209844
224.8970833 -23.0774764
227.0575720 -24.1448304
224.5193428 -23.8859631
227.9976746 -23.2506117
226.7441334 -23.4526632
225.7460960 -25.4687572
226.6232768 -24.4560161
224.3706106 -23.4470009
225.9010447 -23.2272819
225.3639861 -22.0211732
224.7760899 -23.3108785
227.2949629 -23.6755651
227.1776942 -23.1142060
226.1023322 -25.7098807
227.1695377 -23.3924673
226.2705349 -22.4267013
226.2705271 -23.8771905
225.0510824 -22.7920821
224.1977264 -24.6380046
225.6572548 -24.4044327
227.6216291 -24.2005252
223.6439289 -24.6196100
227.8812440 -23.8717440
225.8701401 -23.7207354
225.1091377 -24.6401597
226.1618942 -24.2468123
226.6841837 -24.7268003
226.3007841 -25.8817277
226.7540233 -25.1497007
227.4619186 -23.5237113
227.0034277 -25.9852034
223.7879433 -24.5033414
225.3918885 -25.1643099
226.8640512 -26.0391804
227.1851701 -25.4235432
226.7232533 -24.5665115
226.3257173 -24.1227396
226.1303983 -22.4647974
225.4704887 -23.8293097
224.4029427 -24.5828693
225.4379512 -24.4305187
226.9530018 -24.5628221
224.5419728 -25.4088128
224.6839070 -25.0318332
225.3903561 -24.0562502
224.6057152 -23.4140352
225.7362686 -22.8314421
225.8129837 -23.9297414
225.9449706 -25.4050376
224.9029193 -23.8174396
225.9500405 -22.6761743
226.5536773 -22.6124918
226.9656257 -23.1269341
224.6101531 -23.7764128
226.2743277 -23.8525830
226.8187281 -26.2165634
224.9419224 -24.4030837
226.0587777 -24.1302517
225.8249228 -23.1614324
225.5265239 -25.5701260
226.8540123 -26.1914098
223.8382483 -24.2437427
224.4994398 -24.4722863
225.9144231 -24.9109541
224.9438425 -24.8064475
226.1449063 -24.5466669
226.7209198 -24.3680338
226.6878563 -23.5427554
227.2840515 -25.5913814
227.3824201 -23.7651073
225.1547448 -22.9258021
225.0987189 -22.3951845
224.5123405 -24.5787920
226.6800219 -25.9316512
225.9867803 -24.2034999
227.4769969 -24.6428789
227.2477356 -23.9048173
226.8775024 -25.5718159
224.1559002 -23.7920046
225.3650101 -24.3718117
226.5613052 -24.1111798
223.6036462 -24.5369406
226.3929345 -22.5072011
225.6975660 -24.9039129
224.6199919 -24.0737343
224.6306663 -24.6233224
224.6710437 -25.4469113
226.4929377 -23.7016856
223.9628528 -24.0329670
224.7280912 -23.5383139
226.4741081 -22.5250837
226.2010217 -25.5419846
227.6402907 -24.0486434
224.4823808 -25.2640789
224.7127489 -24.5355393
227.0512169 -24.4982023
226.4064019 -23.1518754
227.5289390 -24.1043684
224.9495815 -24.7388580
225.7950181 -23.5013788
224.9847127 -24.1712907
226.2074956 -22.7016344
225.4622877 -23.0853744
225.4285684 -22.5838507
227.0205415 -25.7715264
225.4264834 -23.2523257
226.4470118 -23.9750475
225.7798025 -23.8846432
225.0046939 -22.6944278
224.1517676 -24.7647510
226.1994048 -24.2039738
225.0321750 -24.7013958
226.0662045 -23.3106270
226.4167719 -25.5908101
226.1110344 -24.4088322
225.4311224 -23.0210970
227.3852134 -25.0648846
227.2234602 -24.8968029
224.8292170 -24.2260029
227.1264523 -25.4955608
225.1831311 -25.4325927
226.7748019 -23.4921270
224.2963074 -24.1028567
227.4849194 -24.1224836
225.5003065 -25.6449087
227.6881535 -24.8533543
225.0647153 -23.9259141
226.7379623 -26.1789673
225.9694904 -25.7763922
227.2149591 -23.7947820
224.6239097 -23.3638399
225.3380786 -23.5689035
224.3957017 -23.6910369
224.0511539 -24.3543066
227.2549857 -25.4946755
227.4118810 -23.1396246
227.5928943 -22.9931445
225.8504303 -25.5984035
225.1764601 -22.0643009
225.2143027 -22.7648530
224.9288413 -23.3346232
227.0802172 -23.7254809
228.6268481 -23.5662768
226.8064351 -26.2564701
227.2609587 -24.8817239
225.7274285 -23.0409755
227.5143490 -24.2397837
227.0231554 -25.7616097
225.3265365 -23.6310669
225.1158786 -24.3727625
225.2528181 -21.9463427
225.6749647 -22.1896484
226.0884659 -23.7416346
226.8227499 -26.2701154
224.4973103 -24.9559280
225.8670352 -23.3042628
225.7266336 -21.8879666
223.3898607 -24.6223183
224.1329784 -23.6405759
224.3454106 -24.2756948
225.6917304 -24.9125531
224.1033999 -24.0782865
225.0322829 -23.7320588
225.8806665 -26.0790883
225.4579677 -24.6735333
226.8483549 -24.3465939
227.0536727 -25.3671273
227.5032541 -23.1487190
225.1425804 -22.3728955
225.1036511 -22.9657867
226.7356898 -26.0441271
226.7113693 -23.5194817
226.2835017 -25.4093337
226.8132431 -25.7096641
227.6028074 -24.9594536
227.6068703 -24.7902160
225.9731682 -23.6759910
228.0343026 -23.6551581
226.7874321 -22.5114270
226.5564015 -25.0939593
226.1637886 -22.1484035
226.7154925 -23.4166470
225.2680052 -23.8159306
227.8606535 -23.3430291
223.9728116 -24.2092417
226.4339016 -24.0005663
225.1288666 -25.6165781
225.1288585 -25.5998197
226.1603388 -24.2218412
227.8914006 -24.8513579
227.6509956 -24.9017183
225.4780262 -23.8852665
225.2838914 -24.8187401
225.9888273 -22.9856390
227.5905491 -24.5506018
223.8297320 -24.6486385
224.1522068 -24.9091116
225.5038221 -24.1697367
224.6238672 -23.6243081
227.7207702 -24.8894269
226.7863974 -24.1129702
224.2031653 -23.9340691
226.7593346 -25.1706734
227.0196797 -24.4257175
226.1312390 -23.9167543
225.8238295 -23.0445732
226.0132777 -25.0964174
225.9227192 -22.1549010
226.5596503 -25.7079405
226.3012331 -23.8615497
225.7835183 -24.5622126
227.1607170 -24.8938031
225.8867626 -23.8635476
226.6768538 -22.6940900
226.1101991 -25.8441084
224.3710319 -24.9413894
225.1353290 -22.8385101
224.1256992 -25.0705812
225.2646937 -24.5299204
226.8081882 -26.3149850
226.1503977 -23.4917165
227.0012453 -26.0804690
227.8415413 -24.8110574
227.0005795 -23.2103267
226.2518393 -24.7657437
226.0341841 -22.8249910
226.8374290 -25.1974805
224.8338118 -23.5853867
227.0903171 -25.4386315
226.0089501 -23.8001735
225.2880469 -24.1651667
225.3952248 -24.0609933
226.0224267 -23.8024354
226.0652266 -22.1756486
225.7870559 -24.9887245
225.9855274 -22.5247480
227.2314226 -24.7695448
226.6598728 -24.4187003
226.3598738 -25.1768801
224.4856041 -24.7447025
226.1103895 -25.7576827
227.8673142 -24.6061602
224.6397868 -23.8815605
224.0444646 -24.2282226
226.7489349 -23.5420327
225.2083688 -22.1596025
225.8977378 -25.7308356
225.3302034 -22.4812453
225.6547447 -26.0345936
226.8766473 -22.8737846
226.2346224 -25.7457619
225.3117942 -25.7533812
227.4900341 -24.3118011
225.6021678 -24.9016194
224.8652179 -25.4411553
227.0435581 -24.1287233
226.0251410 -25.9995051
225.7322085 -23.9971929
227.4036105 -24.9122377
224.6936547 -23.7226425
225.8226361 -23.2107160
227.6980367 -24.3455389
226.8449738 -23.1885872
228.0753216 -23.8772112
226.2552017 -26.0761604
225.0944263 -22.9338816
227.7673855 -24.2813528
225.3840845 -24.7431147
224.9087196 -25.2022350
224.0683115 -24.4053964
226.8854716 -22.8921619
226.2355646 -25.4029744
225.3692791 -22.5708462
228.3158741 -23.6299285
227.3042456 -25.1377709
225.6757865 -23.4561192
226.7955958 -25.6708701
227.1037694 -24.5844252
227.0030064 -24.5203428
226.9373729 -25.1494952
225.6468613 -25.5721053
225.5671658 -25.6517470
226.3066406 -26.2038862
226.1729824 -25.6368567
224.1493610 -24.9636987
225.7825577 -25.2009134
227.1937662 -25.4750096
228.1259524 -23.6224090
225.3003309 -23.1411294
224.8044357 -23.5302659
223.5567005 -24.4145245
224.5612763 -24.4059516
224.0078381 -24.0030464
226.2778835 -26.1745400
225.3392914 -22.5191367
225.0221884 -22.7378074
227.2884133 -25.2987052
224.5687941 -23.1572281
227.0346580 -25.5231741
225.5160969 -24.7483557
227.2234285 -23.1312768
227.5785714 -23.8814308
223.9455257 -24.7160730
226.9505847 -23.2338984
228.8961287 -22.4368904
227.5823675 -21.2174113
228.2510075 -21.4828564
227.7440471 -20.2406119
227.7405032 -20.5970536
229.5310728 -20.1553397
228.3620520 -22.3224726
226.9523664 -20.9901439
226.8397745 -19.0605881
227.1868495 -20.1433288
226.9818133 -21.1829274
227.0982291 -19.0845097
229.4664954 -21.3260256
228.7819203 -17.8341192
230.9230017 -18.6332765
229.8234954 -19.2676581
227.9646899 -16.7479163
229.8419372 -18.2668650
231.3249447 -16.5356219
229.2675909 -16.2463896
228.9488550 -18.8752057
229.5461661 -19.1924707
229.2617200 -17.7060311
229.4382822 -19.4647455
228.2152812 -16.4069766
230.6265583 -15.1605722
230.7751520 -13.6474086
228.7330563 -14.9241366
231.7731862 -13.4807632
230.3019418 -14.1290605
228.5338010 -14.9955074
228.9558739 -13.6959209
231.0241794 -14.4805696
229.4699495 -13.1598708
230.1149690 -15.1628931
229.5910181 -13.7551618
229.5831622 -14.7705107
229.1214284 -13.5863469
229.1004326 -13.1081350
228.7466263 -12.2696490
230.5108077 -15.8023014
228.9065377 -12.3848217
229.6618950 -13.2809680
229.4270184 -13.0463252
231.4125186 -13.8268884
229.0027691 -15.7617908
230.4911060 -14.0909438
228.5594262 -15.2835112
228.2329358 -15.2861824
231.0279518 -15.0535179
231.9361559 -14.8598271
231.4334497 -13.8282869
230.9397532 -13.7716865
228.8459952 -14.4390200
230.0305344 -15.6422940
231.6429604 -13.4078320
230.6821717 -15.5025358
231.5148586 -14.1696557
229.7923190 -14.7349866
229.3930391 -12.8328727
229.1763410 -12.3878494
229.7147209 -12.5462950
231.6517007 -13.7037659
231.8964715 -15.0867643
231.0812208 -13.0976663
230.2409872 -12.9271796
230.7478268 -13.0913665
228.7792313 -13.3738005
230.4195904 -13.1357242
230.5961796 -14.9188545
230.4620133 -12.9626649
229.7814111 -13.2301879
228.7078049 -13.3724253
229.7985792 -13.8206463
230.6813426 -12.9202039
231.4422120 -12.9794973
229.6563299 -15.3155883
228.8942154 -12.3885294
228.7760804 -14.3112420
229.8529671 -15.2113478
230.5189895 -13.5848496
231.1778200 -15.9132941
229.6647105 -15.0537387
231.4578401 -13.7096107
229.6219802 -12.9483311
231.2265967 -15.9314590
229.7387261 -15.3065529
228.8058077 -14.4233847
231.7294407 -14.2153430
228.3435718 -14.5258054
229.2653599 -12.4240519
229.0915485 -12.8580540
231.6296689 -12.7590633
231.1444540 -13.8574955
229.0884294 -13.1918975
230.4523556 -15.5134878
231.6372615 -15.6093384
229.6488212 -13.0776862
228.4027000 -15.5992488
230.7860879 -15.5515589
228.5066495 -13.1067951
230.2180113 -14.7670021
228.3357031 -15.2239096
230.3577800 -14.5441042
229.3646291 -13.4772531
230.1940495 -15.1767587
229.3998455 -13.2576431
231.0562234 -15.1326790
229.6065335 -15.1514902
231.5886235 -13.3938594
228.4695956 -14.4481303
229.7084606 -15.2889814
228.7518038 -13.1416266
230.4210961 -14.5279681
231.6478631 -14.3193401
229.9482302 -14.5888675
231.2868658 -14.7254807
228.6867608 -13.4174151
229.1025220 -12.8357672
229.1080753 -15.5956251
230.1166550 -14.1384526
228.2381727 -15.3802318
230.9278647 -14.0519648
230.9946719 -14.1193846
230.7335618 -15.5634622
229.6897395 -12.4000198
231.7669809 -14.1366061
230.7176813 -15.3322711
228.3719658 -14.7529491
228.2411654 -15.3927811
229.0530582 -15.4957432
229.9072234 -13.7192166
230.9420815 -14.5296090
230.9332197 -13.0110574
229.1859778 -15.0091382
230.4848716 -14.7931234
231.2070924 -14.3815556
229.6470863 -12.4677188
230.6105959 -15.7735334
230.6353069 -15.2797222
229.6772047 -13.3086902
231.8492322 -15.1610687
230.0246553 -13.0168511
229.5600337 -12.9271063
231.8107389 -14.2511861
230.9999548 -14.9288087
228.9117833 -12.8285035
232.1092865 -13.1415665
228.6190336 -13.9061931
230.8011502 -14.0897073
228.2694466 -14.4878258
230.7088552 -13.7320542
230.5364855 -15.5209536
231.6452547 -15.2606446
231.0660741 -14.2118110
231.1486898 -14.5842662
229.0824564 -15.6309541
229.3122659 -15.9505542
229.0214129 -14.6903829
229.4067470 -14.5040603
230.8338586 -13.6980352
230.3991860 -15.2765043
229.8764249 -15.7984862
230.6955973 -16.2198128
231.0553348 -15.1749447
230.5043831 -14.8746550
229.7134142 -14.8957184
229.1512612 -13.8546609
229.0167978 -12.5902928
230.0131835 -14.2451365
231.2810338 -13.5029813
230.2050349 -14.7556842
228.8209418 -15.7356896
231.6567850 -13.4932290
229.3406666 -13.4910035
229.0260926 -12.5341681
231.0361879 -15.4706829
230.6736747 -14.4554855
231.5509621 -15.0333184
229.7704246 -14.6240390
231.4084381 -14.3529093
229.6074095 -13.2663214
229.0032049 -12.6452858
229.2459703 -14.0349062
228.4934725 -13.2631643
230.8919747 -14.5170147
229.9419634 -16.0875464
229.7291100 -14.5450126
228.9688267 -13.8158881
229.6591531 -15.7980337
230.5890656 -13.3314591
231.1980021 -14.8441678
229.8570105 -14.0571476
231.8785469 -13.0136907
230.9388048 -14.6191089
230.8161187 -14.2799175
228.6402783 -12.8577086
231.2723643 -14.8708626
231.1693442 -13.7540163
230.5554019 -14.0883487
230.3003552 -13.9147857
230.3180783 -13.2593593
229.9608907 -14.9298022
231.1305385 -13.8814959
231.8163321 -15.5493004
229.1359947 -13.3191055
231.1212512 -13.2276125
231.5611507 -15.5126619
228.2417538 -14.8483920
232.0853629 -13.6264714
231.7336804 -15.0504374
231.1447931 -12.8998303
228.2146443 -14.9056354
231.5856207 -13.9794912
228.8201547 -15.8441318
228.7191922 -14.2376989
231.2162009 -13.6622723
228.7429182 -15.7670482
231.1077204 -16.2556431
230.2673523 -13.3430825
229.1906931 -15.2368465
230.1523490 -15.6313125
228.7060011 -12.9712447
231.5914480 -15.6283957
229.9111623 -15.0418180
231.5121151 -14.1323713
228.5697336 -14.5066997
229.0262636 -15.7531908
228.6155270 -13.4499962
229.6380969 -13.5713568
230.3246386 -15.7784266
230.2789004 -15.7897984
228.7670423 -13.3422084
229.7673912 -13.3753006
231.6322006 -13.2669397
229.2761987 -12.7443889
228.3816279 -14.7425527
229.6730357 -13.0857338
230.3885852 -14.5985679
230.6794126 -13.5727113
229.8352915 -14.7658212
228.9273393 -12.7476799
229.2673944 -15.5982326
231.6951124 -13.0619001
231.9257169 -14.1507404
230.0589734 -12.6114194
231.5321935 -16.1520723
229.5675574 -13.9209585
230.7571432 -13.7619446
229.0392453 -12.3825051
229.5152750 -14.6504852
230.6067914 -14.1072495
229.1951384 -13.7305446
230.2780875 -15.0616774
230.1041552 -13.6356064
230.4912195 -14.4210857
229.2196721 -12.4342053
231.6584571 -13.6228370
229.6617237 -15.7060214
229.3711071 -12.5462365
229.2901802 -13.1377126
231.4907915 -12.7638300
228.9980240 -13.5031540
229.4024229 -12.9333202
230.9131836 -14.9974402
229.5092177 -12.8181691
230.9944347 -14.3759881
230.7265064 -14.7261570
229.5776295 -15.6443571
230.7153112 -13.3708724
228.9532286 -14.5142402
230.7037709 -14.6809699
231.5527285 -13.4691383
231.4233311 -15.7591012
230.7770196 -15.0322215
229.1116128 -14.8532348
231.0982375 -15.6691359
231.3918875 -14.9308271
228.8060396 -15.4379378
228.8316770 -13.9893085
231.7113861 -14.3196686
230.5132891 -15.8079627
229.3005071 -14.3286967
229.4422500 -15.2669238
230.7104944 -12.9982793
230.7933793 -14.2991487
229.5729067 -13.7700394
231.9106802 -14.8077070
228.6344021 -15.6876734
231.5013437 -13.1060178
232.0720228 -13.6471077
230.5555695 -14.2110520
229.0556713 -12.9938898
228.9407704 -14.6160575
229.3877219 -15.1925862
230.2114898 -15.5031455
229.4245980 -14.6371476
229.8920094 -13.7746124
231.5100309 -13.1576550
228.9057000 -15.5489307
229.4810242 -13.8327270
231.2205666 -14.3995706
230.0554254 -14.4266657
230.5983797 -15.6893451
231.2565593 -15.2596155
229.7541612 -12.8184218
231.4927577 -15.0216385
228.6727520 -14.1247450
229.1528915 -12.8363631
230.5143104 -14.2155847
229.7423779 -12.4534088
229.8767707 -15.2702898
230.0757932 -15.0179373
228.0410348 -15.5736087
231.3140098 -16.2282088
231.3098500 -15.3903750
228.3107529 -15.1035090
228.7651336 -14.3801453
229.8318755 -12.4445272
228.7824485 -14.1893300
230.0150900 -12.9720807
228.9510350 -15.0215276
232.1146655 -13.6907514
230.1106565 -13.4209362
231.2189184 -15.3847073
230.5581550 -12.6694630
230.8004175 -14.3326226
228.8317372 -13.6223045
230.2397676 -12.9570159
228.6181205 -13.3213388
229.3497142 -14.5853115
231.0438476 -15.7090050
228.7740861 -13.1516702
231.8825092 -14.7477644
231.5709757 -14.0345023
230.6838824 -15.7224343
231.9905441 -13.7835660
231.5812212 -13.1055580
232.1581154 -13.5705436
228.3871064 -14.0400960
230.7016755 -13.4330513
229.4271515 -13.4289376
230.6909076 -13.0690480
228.8201768 -14.6376747
229.1616637 -15.5265448
230.9514675 -15.5444982
230.6700651 -15.8486983
228.4547404 -15.3352755
230.6006654 -13.6445598
230.5554698 -13.5085143
229.6471120 -15.1995809
228.7176438 -13.9490417
228.7758539 -15.6228874
231.3836655 -14.0878349
228.9105978 -12.3032737
228.4625364 -15.6999851
230.1488597 -15.9604338
231.7016036 -15.6077576
228.4845227 -14.5528189
231.9206132 -13.9606137
231.1888307 -15.1250182
231.0556901 -15.5631498
231.6213749 -15.5322886
228.3811810 -13.9008366
231.3757067 -15.4911215
228.6033047 -14.7127902
231.9803421 -12.8656357
229.6901606 -15.2653548
228.7951575 -15.8876570
231.2786584 -16.0982105
230.5399883 -15.1823713
230.8700142 -14.7185760
231.5506384 -13.0219626
230.2574857 -15.2576679
231.5037618 -16.0676803
231.0603297 -14.7452979
230.9446748 -15.3100522
228.5888614 -14.2418554
230.9463469 -12.8459591
229.5984450 -15.2820965
229.2434523 -13.3133274
231.7814472 -15.5458846
230.6736538 -14.4921973
231.9757734 -14.2097805
228.7722533 -13.0289987
231.1798881 -13.1170899
229.4178216 -13.5801930
229.8698512 -14.7121748
230.5536016 -12.9271705
231.0349264 -13.9491310
230.5112660 -14.1544088
229.1764531 -15.5115530
231.8922159 -13.6458834
228.7865901 -15.6570212
231.1884884 -15.8909502
231.3091236 -15.7117768
229.0728665 -13.8850843
230.3388335 -16.1562950
230.5642580 -12.5560965
230.3972177 -13.1060892
231.1649804 -12.7150801
229.2829611 -13.0481713
231.5789955 -15.5484227
231.4419328 -15.1610272
230.9865697 -15.3547413
231.5739489 -15.7697788
228.8026299 -14.2525729
228.7481000 -13.3571295
229.8542601 -12.5067905
230.1523665 -15.7981755
231.1432206 -12.7307814
231.3163749 -12.6909841
229.9447936 -13.6023250
229.9643370 -13.0164172
232.1021535 -12.8857703
229.2476459 -13.8152257
230.2543140 -13.9814823
228.9298881 -13.6633782
228.5095805 -14.6895107
228.5670123 -14.3703941
228.9783117 -14.1767855
229.6600160 -15.4641601
228.8941900 -13.3132823
228.9787014 -12.9586460
231.9819320 -14.2302681
230.9173561 -16.0896669
229.7517308 -15.3287323
230.9595029 -15.0134899
231.4343369 -14.4729653
230.9399161 -16.2359720
231.5473488 -14.2016912
230.6354060 -12.5965706
231.4795962 -16.2211559
229.7045934 -14.6899349
228.9457078 -14.6272694
229.3088252 -14.0026751
229.2847129 -13.9013333
228.3758892 -14.0701388
228.7396827 -13.8192665
229.7554942 -13.6812942
228.2155309 -14.6782657
231.0300209 -14.6447463
229.0364431 -15.5781632
231.0559055 -14.9272899
229.7216920 -12.5633189
229.3909932 -14.0172398
231.0372629 -15.6092087
230.0648347 -15.3605263
229.0939740 -12.4982040
228.3715030 -15.3103239
231.1535139 -13.0309471
231.7999356 -13.1900792
229.6024431 -14.0121083
231.4583209 -15.7349982
230.8276658 -13.0121407
231.3922474 -12.8292168
232.0483739 -13.8477909
230.6305662 -15.3043746
230.9225012 -13.4043481
230.7028229 -15.5404975
229.8559784 -14.5068354
231.5834677 -14.1439961
230.6205687 -13.0509319
229.6811301 -12.9843115
228.5724126 -13.6151637
230.5717753 -14.1969742
231.4925061 -13.8185053
229.8847872 -14.2216960
228.4952003 -13.2204416
230.9445968 -14.4140634
229.6375853 -15.9219223
229.4471801 -15.9384817
229.8549926 -15.9820438
228.9441757 -12.4633328
231.8205441 -15.0552668
231.4149287 -13.9028084
232.0083435 -13.2102866
231.4226106 -14.0936694
229.7419946 -15.3155551
230.0878519 -14.1865661
230.0214468 -15.8046207
230.4646011 -14.2097499
230.2312286 -15.8050442
231.2900645 -14.4476883
229.3391498 -12.9821597
229.2944934 -15.8425885
230.5331106 -15.9928669
229.8347542 -15.1139325
229.2330993 -15.1352610
232.0162227 -13.2197962
231.7016645 -15.9470092
229.6610716 -12.6795581
230.4051901 -13.6491480
229.3883396 -14.9203588
229.1685015 -14.3854837
231.6169367 -15.5415078
229.1420776 -15.4792262
230.9043296 -14.1660855
230.8165683 -15.1973597
230.0751788 -13.9396412
229.0644098 -13.5965808
231.5097269 -13.3415326
229.0536937 -14.5521598
230.9029199 -16.1152556
231.6415266 -15.7883296
230.8770686 -13.6028202
229.4817599 -14.8196713
229.2418316 -12.8577869
230.2160657 -15.0764468
231.4258828 -14.3372970
231.1992419 -14.6447354
231.9790903 -14.1284545
228.1056171 -15.3142348
231.6334236 -14.8459180
228.5574443 -13.4635977
230.8319451 -14.8010937
229.5513847 -12.7622993
230.9834647 -15.4972911
230.5174370 -12.7892341
230.4602228 -13.7022869
230.5362706 -13.2082998
228.9932960 -13.3565443
231.6560606 -15.5055641
230.2917831 -12.9483079
229.6891421 -12.8435140
231.1493121 -12.9051596
229.4906866 -13.1155960
231.4216767 -14.6358994
229.0481389 -14.3635093
230.5176736 -14.4439328
231.1717903 -13.7431603
231.1746433 -16.2276928
231.1281724 -12.7120116
231.4257998 -13.2214154
231.5622998 -14.7961405
229.5241736 -14.6101745
229.9707989 -14.3590303
228.8683828 -13.7886366
229.0255865 -15.5120548
231.4770313 -15.3125972
231.3392111 -14.4712909
231.2947103 -15.2584823
231.2044953 -13.9752934
231.0256119 -16.0793855
231.4487472 -15.1981614
232.0431115 -14.0336090
231.4808602 -12.7627043
230.5323641 -13.9613672
231.7601804 -15.7119001
229.8188881 -12.5583949
229.2508357 -15.1132376
229.4248499 -15.1585663
231.2950459 -14.3969759
230.2259659 -12.7213149
231.0318196 -14.9929113
229.1977265 -12.8253446
230.8672323 -14.6543929
229.7080425 -13.8975491
229.5977291 -12.9679416
229.8754150 -15.7429257
229.8608816 -14.6007632
229.4348170 -15.1835084
230.4903152 -16.1725948
230.8569379 -14.9404161
228.6011393 -14.0544373
231.6109979 -14.6296068
231.3057682 -12.8131096
230.7034085 -15.3282377
229.7927976 -13.8795693
231.5021445 -15.4198754
230.9292675 -15.8941382
228.3299952 -15.3745358
231.9625728 -13.1132887
229.6607935 -13.5854643
230.1807809 -14.8840673
230.7420521 -13.7253245
230.8166547 -15.2621471
229.9606383 -15.9859055
230.2033680 -14.8092058
228.5581865 -14.8961908
228.6485239 -12.9791847
229.6461230 -13.8555273
230.7601356 -13.9430578
229.3775185 -14.9980178
230.0701906 -14.3205042
230.2220053 -15.0948890
228.4099960 -14.7820724
231.0461468 -13.0893989
230.1811521 -13.5942588
230.0014416 -12.7102930
230.8935962 -14.8203952
232.1348325 -13.5701378
230.1232060 -14.7676070
229.5327385 -14.0550655
230.9821598 -13.6051159
231.6996681 -14.5513764
229.5888072 -15.1980277
230.5386304 -14.4083973
229.9137398 -11.5226535
231.7452168  -9.1127426
229.2047790 -12.4866557
229.4274574  -9.2055165
230.6131551  -9.3291319
232.1925375 -11.6504226
232.3568210 -11.0860287
229.5640749 -10.6953412
231.6516658  -9.1252378
230.8241986 -12.4274780
230.8958509  -9.4196955
232.3359855  -9.4267110
230.6785728  -9.0658208
231.7520526 -10.8517172
231.0925490 -10.0217315
229.6423185  -9.2486874
231.3878183 -10.0072462
229.3939933 -11.5052620
228.7645702 -12.3631601
231.3444393 -11.1637653
230.0581256  -9.5503686
229.9045401  -9.9346726
229.7210129  -9.4230928
229.6152022 -10.4599559
229.3626213 -11.7173094
232.3492309 -10.2481353
230.2948973  -9.8708835
232.0283191 -11.8833515
229.9453239  -9.8276758
229.7945634  -9.7993132
231.8898645 -12.6206861
230.4730061 -10.6823281
229.6628969 -12.3385587
229.8182620  -9.9577700
231.1678106 -10.8842451
230.1183609 -10.6927837
231.5189600 -10.5905993
231.0843913 -11.2051157
228.9474737 -11.3969105
232.1742232 -10.3277300
229.1135731 -10.2162278
229.7910748 -11.8873006
231.3181940 -11.1475540
228.8949038  -8.9743300
228.9948511 -12.0544644
228.7338361 -11.6151331
228.8512216 -11.7629269
229.7283551 -11.1348661
230.5395492 -10.3956329
230.6276497 -12.0759796
229.6781508 -11.5105921
231.5536285 -12.3357810
231.5883404 -10.7190773
232.3356322 -12.0121047
230.9089151  -9.0263772
230.4468652 -11.4867121
231.7428880 -11.2289254
231.3996813 -10.2249939
231.3460895 -10.5766971
231.4984767 -11.8012525
231.0423374 -10.8503386
229.0246905  -9.9313699
232.3342694  -9.2674806
230.9298494 -10.3843006
229.4794667 -10.1062635
230.3267562 -11.1600581
228.9212963  -9.6866807
231.7619437 -11.7695449
229.4750657 -10.8734646
229.7196041 -10.0572291
231.5648366 -11.4965036
232.2530716  -9.4902994
231.8672499 -12.4075476
231.6092290  -9.2675985
232.2333652 -11.5268514
230.2998017 -12.3850857
228.8412511  -9.0641020
231.9170788 -10.5678519
231.4798951 -10.2800636
229.3635184  -9.4909610
229.0439438 -10.3157503
229.4799004  -9.7607636
231.3616445 -10.1599171
232.3115570 -10.0833352
229.5062112 -12.3775437
229.8985582 -12.3774031
231.0171812 -10.3593351
230.9263900 -11.9817813
229.4289483 -11.4230915
230.9253828  -9.0073896
229.6231324 -11.9797880
231.9293858 -10.4481615
230.4402735 -10.0877021
228.7102383 -12.0747412
231.4663329 -12.2549811
228.6724047 -11.9966965
232.3124962 -11.4305644
230.8602268 -11.3593833
230.1914375 -11.1941752
231.8876046 -12.4232682
232.4559170 -10.2965762
230.6702339 -12.2557386
232.1574923 -11.6982991
229.0567673  -8.9292885
229.0972555 -10.4966200
230.0031720  -9.9218278
232.3862241 -10.2647858
232.0886503  -9.2140063
230.7644246 -11.0568524
232.2217607  -9.3306821
230.8587191  -9.0677541
229.4623313 -11.4712242
230.3758656  -9.6465269
230.9108228 -10.7013819
231.8057517  -9.2591074
230.6901975 -12.0539552
231.3097954  -9.5959092
230.4671182 -10.9108818
231.9786338 -12.3798115
231.4608515 -10.0816701
230.4887396  -9.5792403
229.5220863  -9.8205312
229.1191287 -12.4830211
231.2690719 -11.4023788
232.1104242 -10.6528338
230.6209040  -9.7661067
232.1391530 -11.8994134
229.8238791 -10.3934892
232.3949219 -11.3180277
229.8704941  -9.0221233
232.3845789 -10.5061404
229.2531051 -10.3012106
231.9375233 -11.1351090
230.2986476 -12.0033114
231.1230713 -12.5641322
231.2990459  -9.4323808
230.9285350 -12.4022621
231.6210784 -11.8531772
230.9982586 -10.6974889
231.5327705 -11.0495174
230.8279930 -10.5434684
228.8062676 -12.3139851
230.9455073  -9.6737991
230.7381434 -11.2653304
230.5739136 -10.2521796
231.1173560 -10.9030472
229.9721934 -11.9626140
232.3078588 -12.0922709
231.6612053 -12.5789684
229.4742445 -10.1803727
229.2750310 -10.5033082
231.0117726  -9.1140446
232.4131553 -11.0350902
231.1585964 -10.8355497
231.4791700  -9.7487833
229.4391891 -10.2430724
231.1642053  -9.9461814
230.2308341 -11.4290487
230.8772371 -11.3597013
229.1006191 -12.1251486
230.6054976 -11.7684714
231.9856849 -10.9165664
230.8610009  -9.6997624
230.8407177 -12.1432643
229.6966517  -9.1611606
229.8416085 -10.3452369
230.6456510  -9.5922989
229.9841412 -11.5160887
232.4182407 -10.7788732
232.4544010  -9.8386014
230.3115472 -11.9647906
229.0153966  -9.5970604
229.0035584  -9.4708857
230.4869749 -10.0478502
229.9779897 -10.5032086
231.0417221 -12.2014706
230.5999780 -11.2287397
231.6171688 -11.3986915
229.7120184 -12.1289527
231.2363351 -12.0944116
232.1519450 -12.3543583
230.3432422  -9.7981420
229.0385001 -11.0252304
230.3765703 -10.1463731
229.2068513 -12.3375863
229.8058329 -11.6978945
229.8202444  -9.8373772
232.2559240 -11.7851891
231.8335844 -10.5418417
229.2226195 -11.2454294
232.1610279 -12.2042235
229.0882195 -10.2676543
229.4488679 -10.6110142
230.5919737 -10.8299851
230.4851157 -11.0848886
231.0418850 -11.9181895
231.4188558 -10.5244354
229.6392404 -11.2838602
229.5288472 -11.3506390
230.1828029 -12.0192732
231.2877157 -10.6842626
230.2915817 -10.4344513
231.8215094  -9.1331546
232.2249779 -10.8391590
232.1103870 -10.9867138
231.2258215  -9.9014223
228.7439264 -11.7796132
228.8095509 -11.8848220
231.1532222  -9.9909394
231.7246421 -10.7313917
229.5141105 -12.1482683
229.6058184  -9.9307586
231.9968795  -9.7394372
231.4145323 -10.8604303
231.7968178 -10.8727811
228.6766439 -12.4054094
232.3735965 -11.3020876
231.6481511  -9.2910979
229.7817477 -11.9281626
232.3101617 -11.3813833
230.7245310 -11.1202267
231.2860387 -11.5048540
231.5182457 -10.0882029
231.4339187 -10.7227480
229.7514701 -12.3563832
229.4818394  -7.1788370
