157.6091584 -25.5170586
158.3096914 -26.4691218
156.3151069 -25.7407809
156.9612275 -27.3473867
158.2439981 -26.3868413
156.4741001 -26.3855334
158.4737298 -26.6384559
156.4398187 -25.9626971
157.9214560 -25.2693347
158.1332055 -26.2133239
158.1964349 -26.9558353
157.8913395 -25.4390717
157.8976059 -26.7109533
158.3324715 -26.3012129
157.4652194 -25.5625516
157.4763930 -25.4377643
156.8308157 -27.0816836
156.3103946 -26.0077738
157.9318801 -25.3033974
157.1140958 -26.5313113
157.7598697 -25.6824010
157.9630582 -25.1229157
157.1259847 -25.5122944
156.9037294 -26.4628128
157.1831777 -26.2359130
156.9138893 -25.7008775
157.8444655 -26.1135915
157.5886215 -25.4944976
156.6431721 -26.2034244
158.0134614 -25.9997932
156.8721842 -26.3828810
157.0323123 -25.6668722
158.3798595 -26.6942766
157.1532286 -26.5208883
157.2566808 -27.0953159
157.7463846 -25.9173227
157.6801573 -26.6043024
158.3593052 -26.4368002
157.6822961 -26.0051851
156.3883915 -26.1602909
156.5753538 -25.6677998
156.9825338 -26.6657955
158.5293936 -26.4704141
157.3808940 -25.7215977
158.2477767 -25.7163740
157.0471421 -26.8160339
156.9955180 -26.2137587
157.4835634 -26.0818596
156.8558032 -26.9601844
157.8079784 -26.5861562
158.2218447 -25.7989492
157.8072496 -26.9102697
157.1587701 -27.2891635
157.8050598 -25.8843659
156.9866448 -26.1805968
158.2460134 -25.9610935
157.1532955 -26.7077123
157.8994487 -26.0530911
156.8985254 -25.7517922
156.4662866 -25.7332631
156.8800573 -27.1800011
157.4868371 -27.1488071
158.0703832 -26.9523443
157.1263510 -26.7768284
157.0116158 -26.3828303
157.3475885 -25.6114370
158.4954737 -26.4861672
157.4967785 -25.8417956
157.0554942 -25.9454062
157.1421303 -26.5581891
158.2350643 -26.1867066
157.6158507 -26.9723662
158.1298954 -25.8226812
156.3437265 -25.8908074
157.3054253 -25.9402107
156.9130329 -26.1357824
157.0773341 -25.6132506
156.9078064 -26.9006863
156.7957379 -25.7499444
157.2090220 -26.3808540
156.6435047 -26.6047082
156.9028609 -27.2638163
157.5661866 -26.9845180
156.8151872 -26.4654190
157.5558185 -25.4194666
157.3771667 -25.3837076
157.8102294 -25.1762141
157.8093182 -25.8517985
156.5202371 -26.4583502
156.9437154 -26.7337345
157.0453913 -26.5490205
158.4182992 -25.9825727
157.5675761 -26.7181942
157.3994031 -25.7223880
157.4589145 -26.1726555
157.5382028 -27.1338642
158.0547496 -25.6875915
157.9894712 -26.9261563
157.6985760 -26.7480467
157.4852102 -25.7714990
156.5376686 -26.4274336
157.3907324 -25.5998138
156.6877332 -26.2180642
156.9339123 -27.3426300
157.4221436 -26.6640171
157.2025968 -26.0939962
157.2746000 -25.4510809
157.7914533 -25.8895275
157.3999815 -26.9665042
157.8743892 -25.4557983
158.3155061 -26.7255244
157.9959482 -25.8676660
158.4379666 -26.6671125
156.5651658 -26.2777764
156.9192519 -26.5782459
156.9886903 -26.0720541
157.0100655 -26.2691313
156.4915558 -26.4278656
157.1379344 -25.8513179
157.0406459 -27.3140128
158.0172473 -27.0221224
158.0459550 -26.2620529
156.4108890 -25.9272630
157.4794714 -27.0048873
157.7285186 -25.7331787
157.2593128 -26.2758169
157.8555263 -25.4826438
158.2965829 -26.7039169
158.2654816 -26.4136111
157.5872924 -25.9862831
156.7170096 -25.7216269
156.7949966 -26.0380875
157.9685540 -26.6580041
156.9474336 -27.0191501
156.7414861 -26.6649229
158.2011266 -26.7390200
157.1843029 -25.4453914
157.2119300 -25.4043245
157.1777820 -27.1225045
157.9455647 -25.5862444
157.0409128 -26.2862029
157.9315643 -26.7493573
156.7841108 -25.9157068
157.1718975 -25.5945258
157.7859935 -26.0694472
156.8372633 -26.5606883
158.3607531 -26.7355138
157.9259335 -26.4353738
157.6506870 -25.4251881
157.5569912 -25.8928523
158.0553540 -26.6458732
157.0694185 -25.9103721
158.3789089 -26.7837023
158.0454038 -27.0051188
157.2588738 -27.2736270
157.1609638 -26.3458563
157.3934431 -25.6267564
156.3942449 -26.2446062
157.9899015 -26.5800179
157.9063557 -25.6703830
158.5405910 -26.5023973
157.1857578 -25.9525462
157.2554255 -25.9680355
157.5838298 -26.5023758
157.5339365 -25.4602783
156.3701263 -25.8558806
158.1810502 -26.1838749
158.1625128 -26.2222103
156.4593141 -26.1516570
156.5562676 -26.2085659
156.8577873 -26.2071789
156.5583548 -25.7921107
157.6614887 -25.3890661
157.7600954 -25.4980932
158.2939274 -26.5677166
158.0028044 -25.1626235
157.0067057 -25.4821660
156.8372594 -26.8975010
156.8990443 -26.1268542
156.4579496 -25.8826785
157.9471676 -27.0413731
157.0443958 -26.4034146
156.9102964 -27.2334515
157.7618169 -26.4516350
157.1683915 -25.7128896
156.7752180 -27.0396223
157.7229503 -25.3709933
157.9984209 -25.6212450
157.8653427 -25.7502976
158.0170724 -26.3736620
158.6442325 -26.7079459
158.3895176 -26.0105010
157.6409927 -26.8942962
157.2540127 -26.2132685
158.4312128 -26.7991874
158.1345295 -25.9900215
156.9411092 -26.8808355
156.9987314 -25.6682276
158.0107832 -25.3867117
156.8976132 -26.3077145
156.6466659 -25.7910074
157.5833318 -27.1479588
157.0247647 -26.4768904
157.7855000 -25.9967945
157.8311151 -26.0473366
157.9026348 -27.0021138
157.8406119 -26.8750910
157.8907278 -26.0716443
157.9075122 -25.5191922
157.9575805 -26.6204264
157.6195577 -25.8458576
157.0288880 -25.8712817
157.7669586 -25.4199185
157.1893523 -25.5811307
156.5623667 -25.6759789
157.0054735 -26.4139207
156.9207606 -25.7533900
157.6423429 -25.8098453
157.6542248 -25.8516815
157.0096269 -27.2654633
158.0569987 -25.3871979
156.4375118 -26.3330885
157.3482610 -25.9571874
158.2376786 -26.1718438
158.0397557 -26.7840600
157.9669448 -25.2455548
158.0134130 -26.1904148
157.5551999 -26.3308287
156.9843953 -25.9491514
157.1528834 -26.1882634
156.8234448 -26.3858487
157.8381309 -25.4326630
157.8072735 -27.0493347
157.6712007 -26.5840940
158.0568469 -25.5742878
157.7975977 -25.9916074
158.3804780 -26.3924944
157.9892510 -26.2676391
156.6171299 -25.9567285
156.9182426 -26.6561456
156.5690793 -26.5334801
157.5522210 -26.0387725
157.2558401 -26.4480847
158.0889821 -25.9147195
158.2256850 -26.6546451
156.7152109 -25.6600803
156.9676844 -25.6865336
157.4558239 -26.4283429
156.9539489 -27.2128759
158.4138701 -26.0472445
157.2699624 -26.0827023
156.7015664 -25.7931959
158.2536749 -26.2450319
158.2174508 -25.7515265
158.4832427 -26.6243431
157.1318998 -26.9129197
158.2617470 -26.1959973
157.2774097 -27.1306579
158.5348479 -26.2662085
157.2808363 -25.3718715
156.7258545 -26.1531755
157.3559328 -26.6281129
157.1566933 -26.6308001
158.3735469 -26.8883535
158.2035678 -26.2283728
157.9879647 -26.1973209
157.7378146 -26.3431749
158.0481404 -26.7850431
157.0594881 -25.8227828
157.8723868 -26.7783320
156.6187596 -26.6006870
157.9101099 -26.5811392
158.1482107 -25.4186986
157.1929448 -27.0419751
157.2555441 -25.4174739
157.9962629 -25.9716599
156.8344906 -26.5023899
157.1196744 -26.4571888
156.9436496 -27.2379988
157.4739282 -26.9975095
157.1694202 -25.8522520
157.8375864 -26.3964759
157.4470568 -25.5490567
158.4011515 -26.1678483
157.8913646 -26.1431148
157.1370965 -26.8223125
157.6895432 -25.8470429
157.6740353 -26.2138858
156.6685535 -25.9812442
156.8906923 -27.2413852
158.0476638 -25.7043767
157.4321115 -26.0754912
157.7220690 -26.0631639
157.5442027 -25.9336420
157.1759093 -26.7450587
157.7403780 -25.2328590
157.2714747 -27.0442631
156.9734918 -27.3072418
156.7006903 -26.5841843
156.6009117 -25.6604224
157.7801335 -25.5267762
157.6505398 -25.7603958
157.7579431 -27.0210682
158.3159025 -26.4234353
158.4543712 -26.4114471
157.7461225 -25.7001714
157.7052214 -25.5595042
158.2666000 -26.0043974
156.9545635 -25.6826402
158.0560067 -26.6740952
158.6516324 -26.6213026
156.6000456 -26.5549000
157.3326799 -25.5032572
158.1777121 -26.3301778
156.4960838 -26.2232838
157.1922353 -25.7986713
157.7732769 -25.9830152
156.9064673 -26.8174912
156.7531748 -26.3214960
157.8408799 -26.9411972
157.2471042 -27.2709807
156.8331312 -25.8611658
157.6465529 -25.2868179
157.4690489 -26.7379977
157.8936855 -26.5250185
157.5031885 -26.2650250
157.4309687 -25.5770702
157.7826164 -25.7289380
158.5341805 -26.5630705
158.0048010 -25.6011868
156.3170816 -25.8820911
156.7637941 -26.9490284
157.8339577 -25.2235004
157.5041858 -26.8091556
157.4535535 -27.1580594
157.5847603 -25.5107109
157.0898467 -26.3059278
156.7068288 -26.3067201
158.2184793 -25.5448092
156.4623668 -25.9968542
157.3077837 -25.7969199
157.3413819 -25.7637683
158.6062135 -26.4560589
156.6599069 -26.4319469
156.8686724 -26.3259490
156.2847138 -26.0072924
157.2495863 -26.9457490
157.3893723 -27.2782367
157.9632807 -26.9305133
158.5538088 -26.6331036
158.3526146 -26.6573115
157.4730017 -25.3507456
158.0290835 -26.6374439
158.3638819 -26.6928246
158.0171928 -26.1087985
158.2451949 -26.5420818
157.0586682 -25.5772120
157.2625673 -26.4189501
157.7518443 -26.1501117
157.4718286 -26.8381674
157.8221526 -25.6795782
157.1047521 -26.1090469
157.5870747 -25.8388902
156.8526211 -26.0130017
158.4317376 -26.2188010
158.1316681 -25.4984641
158.1615513 -25.7747503
157.6000179 -26.4481562
157.4095851 -26.7749398
157.1999784 -25.9013643
158.1555597 -25.4514788
157.7027991 -26.7902535
158.2549613 -26.5588323
156.8905851 -25.9808964
157.7806437 -25.8948774
158.3853313 -26.3676101
157.3835306 -26.0355848
157.7581752 -26.1588131
158.1632723 -26.8863810
156.5333409 -26.1499387
157.0850288 -26.8881856
156.3944432 -26.1026097
157.2632674 -26.3797249
158.5937686 -26.8046458
157.5481012 -25.4056013
157.4332353 -27.0281871
156.9457028 -27.0132485
158.0483988 -26.4176867
156.8051672 -25.9601477
158.4440880 -26.7467085
158.4214246 -26.0410480
157.9552246 -26.7467704
157.9208840 -26.9593649
157.3145993 -27.2593818
157.1038378 -26.9445298
158.3671720 -26.2383531
157.4705802 -25.6283118
156.9152811 -25.9545517
158.1700372 -26.5164590
157.0206665 -25.6083539
157.6455090 -27.1689469
156.9347642 -25.8411135
158.0823206 -26.5602519
158.3513329 -26.8472239
157.8455051 -25.6782242
157.3609123 -27.1101732
157.6165242 -25.3617090
156.8169235 -25.6591001
158.0393460 -26.1490178
157.7175166 -25.3679263
157.9536550 -25.8834540
156.8209649 -25.6982791
157.8749167 -25.2762886
157.9234391 -26.8177274
158.2535713 -25.6147887
158.5095029 -26.3193959
156.9776725 -26.6772532
156.6129320 -25.9999715
156.6389972 -25.7517205
156.8977143 -25.6630531
158.1249376 -25.7488410
156.5991585 -26.4101169
156.7751533 -26.7484665
158.0083142 -25.6058708
156.6002357 -26.2070876
157.7377575 -27.0310598
156.5990967 -26.6605689
158.3900066 -26.8118453
157.0964183 -25.5899579
156.7325972 -26.6129312
157.9632750 -25.2309262
157.2265862 -26.3120911
157.4374363 -26.1152472
157.2186619 -26.2010919
158.0718690 -25.8316057
157.3276607 -26.2904359
158.2256024 -26.7701476
157.6392275 -26.3897041
157.2978014 -26.1643531
157.2564935 -25.4298267
156.6799473 -26.4737204
157.4430821 -26.8560944
157.0059318 -27.3037722
158.4056195 -26.1569120
157.6269055 -25.9088866
157.6668895 -26.8400646
158.0569745 -26.7630202
157.5367086 -26.1314033
157.9002115 -26.4953715
157.9526108 -25.5310775
157.4079221 -26.6288994
156.9497495 -27.2739127
158.0520870 -25.9974946
157.3939385 -27.1030412
158.3290054 -26.4276465
157.2707613 -27.1333942
158.0804207 -26.6722794
158.1342699 -26.2367733
158.0195317 -25.9979881
157.5233736 -25.7197319
158.1448556 -26.3869832
157.1371144 -25.5871287
157.8708981 -25.4863633
158.2562641 -26.3623435
156.6006546 -25.6937359
156.9183396 -25.8552522
157.4336305 -26.0752788
157.9570654 -26.3933034
157.4910799 -25.8176826
157.4797536 -27.0560739
157.1506374 -26.2139402
156.7223107 -26.0669696
158.0588919 -25.6014629
157.1911803 -25.6121775
158.1838841 -26.2426298
156.7096762 -25.9254539
157.5440528 -26.6590380
156.6624087 -26.4805738
157.6191361 -26.0413110
157.7367994 -26.3880197
158.4310310 -26.0719487
158.3453210 -25.8717441
158.2938280 -26.5786506
157.7720118 -25.6025517
156.4327537 -25.6900371
156.7375479 -26.1245263
158.2623954 -26.6158468
157.0215704 -27.0828894
156.8885138 -25.9351596
157.0200558 -27.1298678
158.4033962 -26.7741902
157.5881390 -26.1929120
156.9125056 -26.3428105
157.1412836 -26.5799974
157.5504781 -25.7981533
156.7504233 -26.0196257
157.2904045 -25.8503119
157.7694934 -26.2545305
157.2591602 -25.5920889
157.2814423 -26.9258290
157.4949520 -26.6373310
157.6914105 -25.2727017
158.3483707 -26.3425884
157.1717985 -27.1445795
157.2964771 -26.1188055
156.9551639 -27.3005164
157.9651582 -25.6060919
157.9486818 -26.2562403
157.7513313 -26.8491512
156.7582187 -26.4921982
158.3056911 -26.7845830
158.3165473 -26.1459612
158.4785504 -26.7349952
157.7550288 -25.7012735
156.9484343 -26.0948472
156.8316175 -26.0579290
156.6909057 -25.8860494
157.8332122 -26.2736012
157.5016915 -25.9069634
157.6586119 -25.9062802
157.6271992 -26.2751933
157.6657778 -26.9180750
158.3203098 -26.3428529
158.1584984 -26.4392621
157.0349269 -27.3363535
157.8137444 -25.6757643
157.0921280 -25.7190234
158.6229991 -26.5310258
157.1351379 -26.2627817
157.8131444 -25.8825690
157.6610760 -27.0477643
157.5661667 -26.8806260
157.4260395 -25.6975406
158.0039065 -25.5912454
158.0550657 -26.6085881
157.2663318 -25.4315373
158.0762375 -26.0948357
157.3671306 -25.6294682
157.0453364 -25.7809365
158.0892190 -25.8587232
157.6031860 -26.0441528
156.9190008 -25.7978886
156.9733841 -26.1001172
157.1825907 -27.1280755
157.8257896 -26.5665140
158.3265449 -26.2033329
157.5552062 -26.9123399
157.8113981 -25.5640944
157.2312047 -26.4097443
157.2059208 -26.5894213
157.4180795 -27.1741850
157.0540813 -25.7180877
157.1649397 -25.4414310
156.8054733 -26.4069982
156.7149791 -25.9204841
156.4114528 -26.1806024
158.0138034 -26.4000820
158.1850742 -26.0402309
157.8448573 -25.7648204
157.8830335 -27.0813756
156.8112566 -27.0573297
157.2380465 -26.9570481
157.4994633 -25.7448910
158.1069519 -26.8020737
157.9952207 -26.5282805
157.7509202 -26.5591950
157.3655278 -25.3834126
157.9220359 -26.5865737
157.3859986 -26.9854335
156.3891095 -26.2186334
157.6124515 -25.7051114
156.9666567 -25.5249087
157.7141400 -25.3292543
156.9495387 -27.2013247
158.0423513 -26.7582656
158.2542405 -25.7278139
157.1213976 -26.0573061
157.1723479 -26.0465562
158.2016487 -25.5761781
156.2805239 -25.9094639
156.5506224 -26.4118744
158.1718035 -25.7888668
158.4878261 -26.5587464
156.6949938 -26.2327436
158.3379531 -26.1523717
158.4783416 -26.7849641
157.0803330 -26.6635020
157.7719825 -25.9736706
156.9469190 -25.9249801
157.9263046 -26.3022888
157.1712107 -25.8114609
157.3759650 -25.8932401
157.2178613 -26.8772098
157.5659567 -25.9452400
156.5252000 -25.9775547
157.1597983 -27.3554007
156.5814378 -26.2061404
156.4821441 -25.9533770
157.4273865 -26.4139843
157.8858029 -25.9191014
158.3449027 -26.6306371
158.4473040 -26.3521775
157.1197247 -26.5111824
157.4830447 -25.9042903
158.0246429 -25.6378767
157.5910524 -26.3661461
157.3302865 -26.7874885
157.9742472 -25.7228553
158.6402990 -26.5582889
157.1314685 -25.8797623
158.0983285 -25.7145933
158.5200400 -26.3404320
158.1867237 -25.5681495
157.8960532 -26.9990451
157.8930128 -25.2697280
157.2127353 -26.0603111
157.3872352 -26.6221832
158.4466296 -26.8015441
156.8386385 -26.2769385
157.9367401 -26.9921038
157.4369831 -26.3390370
158.0170131 -26.3386152
157.1983957 -25.9276600
156.8133953 -26.2262661
157.2784732 -26.7369535
157.3531969 -26.6562474
158.5542300 -26.3004878
157.3820040 -25.3866143
157.7694938 -26.2603640
157.1418523 -26.6157369
157.6762205 -25.5728704
156.5403444 -26.4582059
157.8064859 -26.2365798
157.4148829 -25.7526666
156.7420220 -25.9012032
157.6809209 -25.8229063
156.9475512 -27.0107485
157.0145811 -25.9285366
157.7827386 -25.3030241
156.8374961 -26.7820741
156.9486351 -26.6507547
157.4825208 -26.9727951
156.9567928 -26.7507170
157.2693612 -27.0188986
157.6759644 -26.8605045
158.1428088 -26.8461134
156.6988018 -26.8873885
156.5742508 -25.6435351
158.4117763 -26.6524489
157.7636503 -27.0617637
157.0035460 -26.0562591
157.4740564 -26.2501363
157.4078835 -27.0080032
157.5701872 -26.3578206
156.9375498 -27.1543100
157.4427462 -26.3813773
157.2261228 -25.8310601
157.6760917 -25.2787215
158.4281926 -25.9783246
158.0469854 -25.8086136
156.9290385 -27.1621728
158.2429533 -25.6442969
157.1003827 -26.2499052
157.8279281 -26.3053363
156.8677157 -25.8388678
157.5692653 -26.4029753
156.6458258 -26.2684390
158.6358796 -26.4621816
157.7300113 -25.9124818
157.2994248 -26.1967124
157.2763083 -26.5953074
156.6341234 -25.6272506
158.2536707 -26.2979198
157.0870173 -25.8190719
157.2867831 -26.1442405
158.2358480 -26.4234928
158.5841863 -26.7339625
157.9440538 -25.7785574
158.2510373 -25.8185542
157.9994532 -25.9676503
157.2996592 -25.6319279
157.8491470 -26.8438428
157.5716947 -26.8541018
156.5617081 -26.0689050
157.9012986 -27.0073757
156.9588424 -25.9635897
156.9305578 -26.0230697
157.1070273 -25.9589072
158.2918694 -25.9066280
157.3463699 -25.7459948
157.1333528 -26.2506543
156.3251428 -26.0511403
156.7825088 -27.0013000
156.9408686 -26.3436474
158.2325842 -26.0914306
157.9793762 -26.4184608
157.1658517 -27.1920379
156.3170762 -25.8738798
158.2000330 -26.3146200
157.2417286 -25.6061603
157.7064700 -25.7634206
157.9570661 -25.4533201
158.1016367 -25.4919909
157.5953724 -25.8369496
158.5273326 -26.4774290
156.4715468 -25.9031873
156.8827104 -26.4697564
157.6998481 -25.2391836
157.0694218 -25.8989683
158.0811121 -26.1867812
157.8623554 -25.7689506
156.6585432 -25.6996848
156.4436976 -26.2909798
158.1839096 -25.9709229
157.1138192 -26.7672769
157.6247376 -26.4946817
156.7668196 -26.5786882
157.8148374 -26.1014549
157.8712207 -26.7411988
156.8664479 -25.8189290
156.9095534 -26.5734729
156.8582973 -25.6533617
157.5527191 -25.4043712
156.5374425 -26.2062737
157.6358708 -25.5801838
157.7110429 -25.3123520
158.1400646 -26.8435714
157.9083601 -26.4565655
157.8548266 -26.6471306
158.3567604 -26.8200014
157.1889723 -25.5437917
156.7245172 -26.8397938
157.8683173 -26.6802047
156.6158070 -26.1745704
157.3821885 -26.3559282
157.2242995 -26.0631881
156.8714104 -26.5248796
158.0147428 -25.7511814
157.9486043 -26.8783125
157.4112444 -25.9086727
158.3659276 -26.6212899
157.9948244 -26.9898117
156.8546180 -25.5832726
157.9960863 -26.4141307
156.4314788 -25.7577525
157.9999238 -25.6795776
157.3047383 -25.8373869
157.8990861 -26.2171999
157.7520767 -26.3170383
156.5371632 -26.2233295
157.7796608 -26.6531856
157.1079115 -26.5634308
156.9365858 -26.7916968
157.1377845 -25.4902307
157.2379037 -27.2761964
156.7795833 -26.5596994
158.2215177 -26.0492303
156.9586645 -26.6046633
157.5600461 -26.0859215
158.0147338 -25.2446518
157.3434356 -25.4438433
156.7896193 -25.6527613
157.5053562 -27.0299983
157.4638697 -27.0285241
156.8282243 -26.6327270
157.3084639 -27.0045931
157.8753605 -26.7767851
157.6102085 -25.3692816
156.8759445 -26.0811640
158.4649354 -26.5562126
156.6313763 -25.7327697
157.7107632 -26.7228472
157.1430285 -25.6574815
157.9219140 -25.8467183
157.4122568 -26.2970554
156.7645396 -26.0648539
157.1729836 -26.4488009
157.5207366 -25.5773281
157.2095007 -25.4278028
157.1791605 -25.4672903
156.9519352 -25.7736980
157.4765303 -25.8568097
157.2697963 -25.8780947
157.9711115 -26.0027118
157.0920036 -26.7635782
157.9737398 -25.4294826
156.7799942 -26.8059942
156.9023342 -26.9613136
156.8378417 -26.5340022
156.6864432 -25.7246701
158.6157625 -26.4712442
157.3445883 -25.7870439
156.1812747 -25.7782797
158.2013821 -26.1936047
158.5122411 -26.8130979
157.4777568 -25.6490475
157.4865153 -25.6931419
157.8417823 -25.7797638
158.0214563 -26.2268782
156.4700047 -25.7845776
157.7405899 -26.4893674
157.8644261 -25.2924687
157.4663752 -25.4128872
156.7193088 -25.8475684
157.6842503 -26.3798103
156.8712854 -26.2785868
157.0908227 -27.2996539
157.0856261 -25.7326764
157.3280990 -26.0602008
156.5755001 -26.4062500
156.7086289 -25.8785320
157.3124116 -25.9380205
156.7168396 -26.6948675
157.8974185 -25.1700783
156.8108033 -26.4835294
156.3924727 -26.2502716
156.7882782 -26.9475477
158.1773975 -25.4519590
157.3305648 -25.7108674
157.5464789 -27.2190853
157.8350749 -25.7210200
157.8386734 -26.4610015
158.2900136 -25.8436058
157.1627707 -25.8675426
156.8176349 -25.5959955
157.9522062 -26.0458312
157.9760497 -26.0666564
156.4294922 -25.8604229
157.3141295 -26.2031801
157.8248024 -25.4573949
157.2129094 -26.9716580
157.5276041 -26.8921782
156.9804640 -27.0889376
158.1458313 -26.7462941
157.1774947 -26.2383141
156.9642669 -26.5342054
157.5782018 -25.8736420
157.5427474 -26.5011334
157.3650359 -25.8518771
157.2047067 -26.2019534
157.2343663 -25.9355517
157.6178619 -25.9013178
157.5996714 -26.4936110
156.8223132 -25.5691220
158.1501933 -25.4959280
158.3201065 -26.1863279
157.7978291 -26.1422099
158.1839927 -26.2238347
157.2998237 -25.8795526
156.6770635 -26.6601933
157.8313225 -25.5400023
157.4434903 -26.8884260
157.1565355 -26.8297259
157.1995971 -26.0286483
159.4966769 -24.6340471
158.8885158 -26.0533685
160.1637097 -25.0878829
158.6023923 -25.6239124
158.7303587 -24.9074263
158.6823834 -26.4134959
158.5482655 -25.9960266
159.8766571 -24.7425540
158.3636825 -25.0299863
159.3209518 -25.2445094
159.5277423 -24.6767128
159.0928833 -25.5302511
159.7964274 -24.9911745
159.6144600 -25.9900169
159.0141583 -25.0919566
159.8997871 -24.6523242
158.4514769 -25.1072731
159.1998316 -25.5713520
159.8090640 -24.4166582
158.9412598 -26.6438449
158.3830782 -25.3166991
159.3796697 -25.1278688
159.9222763 -26.1231541
158.7328613 -25.6055906
158.9450401 -25.2853602
159.9155927 -25.6513451
159.5705952 -26.2032365
159.0612415 -25.7072583
159.4482483 -25.7343457
158.8185610 -26.3501391
158.3403589 -25.7978451
160.0077430 -25.1546334
159.4775806 -26.2275258
158.7595203 -25.9399148
158.4725499 -25.6267714
158.4689460 -24.9962007
160.2121297 -25.4165629
158.3807828 -25.1332709
159.4808026 -25.7500844
160.2619240 -26.0304564
158.9462885 -24.9585074
160.1025455 -25.7243891
158.1370779 -25.1249146
159.7842615 -25.8451951
160.0719362 -25.2294459
159.4456024 -24.6820855
159.9499039 -26.1266758
158.7319581 -25.5048580
158.7415339 -26.5056835
159.2122146 -25.9088698
159.2218203 -26.1635254
158.6942509 -25.9840914
159.6001785 -25.5741098
158.7206658 -26.0112923
159.4211112 -26.4050964
158.3754661 -25.2084270
159.3478234 -26.2299310
160.3261772 -25.9860402
160.0221672 -24.9672768
158.8506632 -25.0902782
159.4149310 -25.6186532
159.4461753 -26.2881783
159.8928455 -26.0182435
159.5941354 -25.9344650
159.9511843 -25.4172843
158.7539992 -24.9805562
159.4418560 -24.4898165
159.7463309 -25.5717803
159.5531938 -25.1976031
159.7988962 -25.0784641
159.3874730 -25.4693257
158.7196919 -26.1297625
159.2408651 -24.8391910
159.3848765 -25.2643816
160.0080549 -25.7351301
158.2051788 -25.3988432
159.2105043 -26.4348975
158.8966022 -26.2863783
159.3204791 -25.2452363
160.5391945 -25.8937135
159.8944111 -26.0918571
159.2759929 -25.4507312
159.3906031 -24.8533571
159.2449111 -24.7476359
158.3313181 -25.5798023
159.6388419 -25.8313351
159.4428781 -26.4088388
159.9412531 -25.5646079
159.8026886 -25.6188553
158.0200090 -25.1415869
158.3307832 -25.4633339
158.9521038 -26.2300770
158.9338618 -25.3540255
159.2682713 -26.2550833
158.6586750 -26.2648422
159.2685219 -25.3250878
158.7838041 -26.5621424
159.6867830 -26.1462049
159.6897530 -24.9058471
158.8990226 -25.1597547
158.9455782 -25.6199454
158.5598542 -25.4658696
159.1326951 -24.6352853
160.1172517 -25.1954188
159.2516979 -24.8409538
158.6555873 -26.2793539
159.5120706 -24.4513220
158.9624035 -25.0454960
159.5636796 -25.5638037
159.1696141 -24.7633847
159.7316183 -24.7228151
159.4397281 -24.8170899
159.0541832 -25.3190197
158.6442145 -26.1812986
158.6811055 -26.1180906
160.0644479 -26.0768844
158.3240690 -25.3943859
160.2285461 -26.0230073
159.4233885 -25.8448537
158.8848780 -26.6113290
159.7826666 -26.0403030
158.2364513 -25.5788951
160.0021873 -25.6187695
159.1234563 -25.6927709
158.9979375 -26.2917977
159.0658094 -24.6878473
158.9173189 -26.1115393
158.8049435 -25.5302505
158.9200227 -26.5586514
159.1775907 -25.7881420
159.7998732 -25.4348646
160.0644419 -24.9068874
158.9370745 -25.1696748
159.7807650 -25.0932427
160.3898314 -25.5459855
160.3178754 -25.8838037
160.0005786 -25.6093908
158.4039553 -24.9512664
159.0660863 -26.0998251
160.3490313 -25.6733508
158.6588241 -25.7179364
158.3726034 -25.5727606
158.8854847 -26.4382411
159.7858057 -25.3461998
159.8064219 -24.9453384
160.1873329 -25.1765551
159.4750922 -24.5757227
159.4988896 -25.8726420
158.9655564 -25.9290614
159.7643968 -24.5774667
160.4552087 -26.0322743
160.1602332 -25.3276645
158.7794506 -26.1792904
158.8710329 -26.4907264
158.9456822 -26.4989589
159.4199755 -26.1519053
158.6162500 -25.7943415
158.6899753 -24.9717570
158.7231610 -25.9534904
158.6480756 -26.2517649
158.9711093 -25.7731311
159.3440494 -25.3892921
158.1885486 -25.1614035
159.1078284 -24.7566856
159.7133132 -25.9166155
158.7723924 -24.9234971
160.2474231 -25.7309766
159.3100179 -25.3792164
159.0244993 -26.2911725
159.2056330 -25.7918743
159.0458378 -25.9594321
160.3931162 -25.6673811
159.7646141 -24.9899920
158.5512399 -25.4813352
159.4620340 -25.7395279
159.6735257 -26.3272697
159.4476974 -26.0623583
160.5038704 -25.8520303
160.3334910 -25.6735135
159.9963797 -25.4236096
159.3502171 -26.2188462
158.9238077 -24.8159184
159.3691367 -25.3625131
158.3370213 -25.3962448
160.0604144 -25.1612327
158.4068012 -25.5924792
159.5222168 -25.2371696
159.8508086 -26.1474916
159.3701039 -25.6404992
159.4427546 -25.5760662
158.5517910 -24.9318824
158.8248043 -25.9132272
158.4506619 -25.9914926
159.4179469 -25.1146609
159.8743032 -24.9089674
158.7782336 -25.7105294
158.2877665 -25.4573996
159.8772791 -25.0584433
159.4778707 -25.4832958
159.7962427 -24.5746421
159.4762240 -25.1815961
158.7385675 -25.2861297
158.5409062 -25.3639105
159.7311084 -26.0987987
158.8070570 -26.3611162
159.7185068 -25.5686981
159.2406018 -25.2033273
159.9149223 -25.2796399
159.7216628 -25.7181569
159.2819064 -26.3162013
160.1071251 -26.1212204
160.0536541 -25.1998255
159.7150574 -25.9872439
158.7008140 -24.8630784
159.4094878 -25.7946640
158.3882948 -25.8796843
160.0713938 -24.9463568
158.6430803 -26.0888572
159.9228337 -26.1315996
158.2475561 -25.5859396
159.4723719 -24.4715793
158.8432569 -25.2576614
158.3504598 -25.7501650
158.6892727 -25.1143110
158.8685794 -24.8468726
158.8536821 -26.1313325
159.3216433 -25.5028059
159.7458568 -25.7156381
159.3648750 -24.6732755
158.3835449 -25.2190325
159.4680976 -25.0117870
159.8925623 -25.4656583
159.0540292 -25.7392743
159.5474206 -25.9653899
158.5948742 -25.2417702
159.8555128 -25.4805004
159.8212107 -24.7270666
158.5804956 -24.8854193
160.0175291 -25.2575783
159.0288283 -26.4538789
158.9155040 -25.3180117
159.2972524 -24.7694683
159.4669713 -26.4381393
158.9978386 -26.4710445
158.2201452 -25.0053635
158.4097823 -25.3614407
158.5667163 -25.0096058
158.9031193 -25.4943068
159.3424924 -25.2601486
160.0375257 -25.2020024
158.6420243 -25.6644409
160.3554706 -25.7477279
159.6801955 -25.0329739
159.1612639 -25.1348553
158.9385762 -24.9350994
159.2312224 -26.0062587
158.8850024 -24.8607049
159.9533249 -26.1172309
158.5307126 -25.0962949
159.7133629 -24.5136537
158.6353535 -26.2925534
159.9786565 -24.9359456
158.4487501 -25.8384845
158.8859348 -26.4681655
160.3568259 -25.6694683
159.0228325 -25.7676348
159.3402494 -24.9483275
160.0641123 -25.3620182
159.4833865 -26.1630670
159.2869309 -25.3332043
159.9756214 -25.5491624
158.5505617 -24.8937817
159.6282206 -25.7611048
158.7213540 -26.0789690
160.3299907 -25.7122178
159.6783534 -25.3744541
158.9818565 -25.6457414
160.3607401 -25.6287680
158.6268696 -25.3696715
159.7383942 -24.7880203
158.9938708 -24.9649935
159.9587205 -25.2262894
158.1532102 -25.1748633
158.6861080 -26.3295281
158.4042012 -25.5205787
159.6657798 -25.7817084
160.5510172 -25.8671748
159.7321914 -25.1441954
159.3458412 -24.9574035
159.7752919 -25.1457653
158.2407100 -25.0628068
159.8232508 -24.7055206
159.5238572 -25.2340891
158.9097763 -25.4275099
159.3035600 -25.8789398
159.4485992 -26.2626017
158.3091188 -25.0192514
158.4560644 -25.0851391
159.8183039 -25.0653976
159.6792847 -25.8452890
159.3825005 -25.6121442
158.8044093 -25.0859997
159.8154450 -24.8596256
158.9470136 -26.1308121
159.2108601 -24.8878005
159.4017576 -26.0451815
159.7978922 -24.9060585
160.1716480 -25.4780646
159.4525532 -25.7584507
158.2629059 -25.1765818
159.8818918 -26.2506237
158.7319741 -26.2007689
159.7459575 -25.2458116
160.1029117 -25.6920042
159.4818820 -25.5384538
160.1893725 -26.1134924
159.9506488 -24.7246527
159.8949039 -25.8079857
159.9629624 -26.0542298
159.9321738 -25.5083471
159.6677263 -24.8970972
159.0602299 -24.7759465
159.2654950 -24.9996642
158.4436249 -25.9816598
158.6804486 -25.7980606
158.4176024 -25.5271754
159.5208644 -25.0910396
159.2238025 -25.1280877
158.6138076 -25.5221537
160.4151203 -25.7915466
159.1964727 -25.3300116
159.0548730 -25.2422614
159.3043335 -26.1366006
159.6326925 -26.0351759
158.9226262 -26.5454446
160.2636624 -25.9487907
159.4905777 -25.2158859
159.4370311 -25.4297352
159.4233746 -25.3380559
158.5111155 -25.9573737
159.7000276 -25.9766567
158.6967286 -25.8483987
158.5601754 -25.3095560
159.8959123 -26.0858844
159.3046030 -26.0811142
159.7035376 -25.2255601
158.4492011 -25.8898100
159.7320459 -25.0769344
158.6124911 -25.1117909
159.3113842 -25.8919925
159.0094081 -24.7393126
158.6056100 -25.8164292
158.8099583 -25.3106629
159.7546922 -25.0149323
159.1208620 -25.1300513
158.8029553 -26.2281221
159.4213915 -25.9804975
158.9848928 -26.3106025
159.6921190 -26.1621905
160.4612947 -25.9305553
158.6455352 -25.6889910
159.0894719 -25.0315080
159.4613375 -26.1944936
158.8342344 -25.6998841
158.5751288 -24.8771042
159.2352091 -26.2310862
159.1714001 -24.6874433
159.4630218 -24.7893746
158.7036508 -24.8246031
158.9691950 -25.2797622
160.2429615 -25.2840489
158.7228614 -25.3986420
158.4259283 -25.2127263
158.9759693 -26.4390852
159.1121461 -25.6531806
159.2709530 -25.4566311
158.5959552 -25.6198053
159.1354724 -25.3336118
159.9794902 -25.6015581
158.6307271 -25.6350013
158.8368977 -26.5163585
160.0522076 -25.6612234
160.1671423 -25.8605804
159.0738519 -24.7293133
158.2133893 -25.2512943
159.8550946 -26.2462752
159.5717008 -26.2043969
160.1009086 -25.6732109
159.2959633 -25.6867894
158.7538444 -25.6649581
159.3048378 -24.5746040
158.7272236 -25.7938609
158.3938110 -25.2400974
158.6118159 -26.1142317
159.1397672 -25.9464405
159.1545734 -25.9771657
159.8884583 -25.1033107
158.6907203 -26.3797679
158.9013339 -24.8886076
159.1810892 -25.7605470
159.2642290 -24.7056294
160.0152124 -25.9057641
159.4026864 -26.2071237
158.7231288 -26.5298340
159.2265892 -25.1861538
158.5678225 -25.6948853
158.6269549 -26.0115473
158.8176398 -26.2848967
159.7942051 -25.9906822
159.9648440 -25.2167099
159.6904623 -26.1569427
158.4528734 -25.8732021
159.6621448 -26.2810075
159.3418078 -24.8265721
159.6763546 -26.3350599
159.8485915 -25.7057638
158.7265880 -25.1376910
159.9607776 -24.9757536
158.6460912 -26.2266205
158.1482605 -25.1490982
160.4040479 -25.6845061
159.1266568 -26.2999472
160.0355657 -24.9516330
158.8345347 -26.5297107
160.0563873 -25.4484913
160.2028009 -25.5214462
159.3988888 -25.0882706
159.2061725 -26.5405751
158.2969490 -25.2014258
159.9313400 -25.6593488
158.4629600 -25.4392136
159.9042004 -25.2753319
159.8311053 -25.0003484
158.9733431 -25.7005824
159.1604933 -25.2704002
159.3926395 -26.2980071
160.1834495 -25.9460196
158.3944235 -25.1940925
159.6934690 -25.5205393
159.6118244 -24.4960408
159.7147256 -25.9448681
159.5429905 -26.3285195
160.0414785 -25.2104496
159.4272872 -25.3060701
158.8535178 -25.7738804
159.0147621 -25.1387717
158.4687515 -25.6383012
158.2648006 -25.5358570
159.6022759 -24.5187086
158.0411175 -25.1250848
158.8501789 -26.7135077
159.0966617 -24.7358448
158.7299859 -26.4529281
158.6757559 -25.6914015
159.1738136 -25.2870784
159.7431162 -25.9464669
159.4288888 -25.4198452
158.4745608 -25.4039897
159.9263757 -24.9702783
159.7505601 -25.4367323
159.4935016 -25.2992695
159.5080370 -26.3191816
159.3552565 -25.1688478
158.9650884 -25.5155360
159.4557017 -25.0486245
158.4429805 -25.3695190
159.0346118 -24.9923652
158.6762427 -25.4255931
159.4323057 -24.6447524
158.5920414 -26.1254634
159.4150752 -26.0809755
159.6047748 -25.7017345
159.7042244 -25.3157813
159.7300653 -25.2424980
158.4767537 -25.0808839
159.9027732 -25.2746673
158.2965166 -25.6567680
159.3781892 -25.7520482
159.1512963 -25.8711222
159.1500225 -25.0774335
160.0126812 -25.6166882
159.5984105 -24.8699235
158.8678819 -26.2834711
159.0873952 -26.0388950
158.6285451 -25.2014015
158.8892773 -25.3729618
158.7266759 -24.7925580
158.8746642 -25.5934509
159.2075122 -25.1901592
159.6766744 -26.1694302
159.8500331 -24.6963485
159.3236131 -24.7904291
159.0332517 -26.1215677
160.3197789 -25.6874157
159.4504903 -25.2879063
158.8195693 -25.3428286
158.1936565 -25.0676876
158.9802094 -25.8527753
159.6169162 -24.9275813
159.8899556 -25.0834911
158.2499280 -25.0623351
159.0304552 -26.4594454
158.4058657 -25.4106101
159.1689720 -25.6752717
159.8656330 -26.0780785
158.8441981 -26.1857837
159.1711030 -26.0958098
159.7001291 -24.8591922
160.1673026 -25.3933597
158.8248488 -25.3108249
159.2818422 -25.3440144
159.2980503 -25.4919282
158.7305608 -26.5209335
159.9020734 -24.7950989
159.5473131 -25.5283499
158.1847776 -25.3101824
158.3805159 -25.7165181
159.2449166 -26.4416539
158.6380382 -25.7837050
159.6908445 -24.5132291
159.6288741 -24.6372083
159.5105623 -26.0761383
160.3176320 -25.8771959
159.8444599 -25.5254325
159.6066394 -24.9424313
159.7143119 -24.7507089
158.6967038 -24.9260945
159.8228420 -25.8221097
159.2760170 -26.2447714
159.8281509 -26.0874746
158.3860415 -25.7086000
159.9926608 -25.9764620
158.9716777 -26.1235863
160.5985623 -25.9467276
159.3944552 -25.4081032
159.8096967 -24.6434154
159.2459145 -25.9339817
158.7699969 -26.2962725
158.6098713 -25.9907460
159.2083878 -24.7163486
158.2311189 -25.1965486
159.3684640 -25.1167935
159.2378484 -25.2183714
159.5251054 -25.1501875
159.3573127 -25.7784538
160.4531614 -25.7823473
158.6567386 -25.9566484
159.2098499 -25.8650437
159.4367209 -25.3302860
159.6158387 -25.3945702
159.8705574 -25.2827618
159.4928344 -25.2848204
159.6513324 -26.0631139
158.6679566 -24.8496525
158.7899544 -25.7327290
159.5455611 -25.6489648
158.9050334 -26.1762267
159.2187162 -26.5491840
158.9339199 -25.5368353
159.0796991 -25.0046331
158.8444320 -25.1479097
158.9280470 -24.9432475
159.4053583 -24.5765123
159.8434580 -25.3133788
159.8479216 -25.5109314
159.1873895 -25.0657384
159.1612351 -25.5807312
160.0307043 -25.7722896
158.9179700 -25.9007952
158.4438045 -25.0729427
159.0714269 -26.3593248
159.5055043 -25.9373925
158.9219912 -26.2358934
159.3509821 -24.6654202
158.5608131 -25.6978432
158.7685178 -26.1772421
159.2998616 -25.8278100
159.7741740 -24.6761083
158.7638897 -26.4025752
159.1256368 -24.9893927
158.5788964 -25.0456357
159.0117144 -26.1595405
159.3784484 -26.3804173
158.1366580 -25.1160071
158.5262784 -25.9125644
160.2304520 -26.0312098
159.3824138 -26.2572784
159.3469818 -24.6524672
159.4199858 -26.0007123
158.9287473 -26.0330360
160.0436709 -25.2092557
159.1111536 -24.8112389
159.0946517 -26.5693716
159.9622998 -25.2731113
159.8651249 -24.5210234
160.3803527 -25.6573013
159.7035959 -26.2594102
158.9222253 -24.7678582
159.4755811 -26.1751999
159.6209441 -25.5338583
159.6879962 -26.0224397
158.2472661 -25.1444403
159.1828201 -25.1492237
160.0581338 -25.2285868
159.5294100 -26.1589128
158.2259671 -25.3170597
160.4450574 -25.9202123
159.7025130 -25.3089254
158.8455700 -26.4192352
159.7792741 -24.7251418
158.8735922 -24.7905298
158.6265451 -25.2135326
158.2597623 -25.2842327
159.2820684 -26.1900227
159.8376798 -25.2781459
158.3495609 -25.1333087
159.9254054 -24.6784611
159.1640205 -25.9462524
160.3189301 -25.6662397
160.2983253 -25.7387053
159.7162878 -24.8688152
158.5517136 -25.0333411
159.0345694 -25.0411810
159.3512466 -25.7322938
159.6055754 -25.8568249
158.7224059 -25.3399441
159.8706688 -24.6645481
158.9394363 -26.5447998
158.9686094 -24.9576285
158.7479082 -25.8246230
158.2609351 -25.1628561
159.5191545 -25.8485982
158.5882904 -25.5255523
159.4834983 -24.7344010
158.8531391 -26.0161856
158.2617117 -25.3417819
159.3794418 -25.7880956
159.3628909 -25.3091656
160.3397136 -25.4710102
159.4939448 -25.4578535
159.1507944 -26.0007742
159.3077249 -24.8696796
160.0740387 -25.5916362
159.6185874 -24.6150433
159.2342482 -26.4548554
158.3123782 -25.1548385
158.8423227 -25.9763664
158.9147260 -25.2326917
158.9880300 -25.2059854
158.1703198 -25.0550135
159.4471846 -25.3932338
159.5281325 -24.6667616
160.3147585 -26.0818726
160.3199442 -25.8029633
158.5877154 -24.8702493
159.1646246 -24.7520151
159.6983957 -26.1463867
159.3186075 -25.1372489
159.2658646 -25.9980980
160.4167330 -25.8618060
159.6432192 -25.7939136
159.1060301 -26.2941115
159.8970548 -24.6443614
159.6750356 -24.6924355
159.0280556 -26.0596447
158.4809369 -24.9533530
158.5374288 -25.3411827
158.5737559 -25.1927904
159.9768349 -25.5453945
160.3054407 -25.5186112
158.2436170 -25.1921681
159.7317245 -24.5058677
159.9334477 -26.2340852
158.9747109 -25.2527416
160.1027825 -26.0066437
159.9324836 -24.7657684
159.9641838 -25.1322255
160.3442770 -25.7791868
159.6899187 -25.0241423
158.2211783 -25.1920293
160.4823158 -26.0013934
159.7735989 -25.3075995
159.5691872 -26.1513044
159.6348710 -26.0098693
159.2659862 -24.9513372
159.2424968 -25.5430697
158.8459496 -26.0534049
159.6497783 -25.5365738
159.0402546 -24.8354747
159.1948201 -25.7810833
159.5483974 -25.0906950
158.2829111 -25.6632698
158.5984443 -25.5200260
159.2970265 -25.7229559
159.3421935 -26.2608461
158.6856727 -24.9558138
158.9094515 -24.7963149
159.8752140 -24.8341081
160.1368887 -25.6951320
159.2589227 -25.4982537
159.0702743 -25.2485938
158.6314340 -25.0309923
159.0016231 -25.6133857
158.9293390 -24.9288125
159.1769922 -26.1537767
159.5982182 -24.9598873
159.7850746 -24.7358959
160.3549184 -25.7741947
159.2849157 -25.9061419
159.2860098 -26.0411055
160.0246411 -25.1364802
159.0497133 -26.2344254
158.6365341 -25.7130592
159.0994469 -26.0444418
158.7600679 -25.6864560
158.2699839 -25.2533341
159.7167584 -24.5289672
159.1171355 -25.5882039
160.2317174 -25.3554806
158.9976518 -25.8480851
159.3895429 -26.0215277
158.9901694 -25.3242521
159.6193242 -26.1727929
160.3264752 -25.5607010
160.0072524 -26.1529983
159.7411499 -25.1137757
159.8060500 -26.2587008
159.7223725 -25.4859308
158.7811042 -26.4444861
159.5855327 -26.0661106
159.4427671 -24.6129111
159.5249798 -24.4469583
159.4104099 -26.3986401
159.0429231 -25.6874869
159.5471430 -24.8363624
158.3202722 -25.6691410
159.9353197 -25.5096058
158.1394072 -25.2445238
159.5375594 -25.8860727
159.8145175 -26.2736617
159.8607523 -25.0934100
158.8283409 -25.4939969
158.7060550 -26.4644802
159.8631642 -25.2725478
159.9966106 -25.0760494
159.6751345 -25.5934069
158.0258201 -25.1446820
158.6257166 -25.1889133
159.1216358 -25.0884496
158.5012419 -25.7081297
160.0909323 -26.1552398
159.6721984 -25.7268921
158.4562486 -25.2723521
159.7815117 -25.4405363
158.4247288 -25.7736132
158.9571187 -25.8241698
158.8297145 -25.5357821
159.5215570 -25.8236126
158.8170119 -25.0840746
160.5073432 -25.9922914
159.6265750 -25.1143152
158.7758107 -25.9655702
159.0898778 -26.2923449
158.5301107 -25.9743432
159.9737007 -24.9257327
159.9386050 -26.0351530
158.7892998 -25.2191725
159.6181164 -25.9605814
159.5026135 -26.3128284
160.0231510 -25.2056090
160.4870597 -25.6852560
160.0366540 -24.8953056
160.0104678 -25.5301659
159.4157982 -26.0925931
159.6741648 -24.5272977
159.4516908 -24.7822284
158.8836277 -26.2058768
158.6806134 -25.7239361
159.5893221 -24.4641790
158.9833487 -26.3111959
158.7689660 -25.8211019
159.7405451 -25.2583396
159.5410900 -25.3523835
159.2386363 -26.5294069
158.4736369 -25.2087299
158.9367095 -25.3876456
159.0474520 -25.2463639
159.7670606 -26.0863372
159.9655266 -24.7756663
158.9300961 -24.9614581
160.3209036 -25.8322700
158.9200048 -25.2691747
159.5961058 -25.9603474
159.9214786 -25.5953607
159.0976086 -25.4691816
158.6641638 -25.8067909
158.0781434 -25.2156320
158.7548624 -24.8752679
158.7660928 -25.9663350
159.4720357 -24.9976942
159.1296230 -25.7590854
159.8893314 -26.1867676
159.9205483 -25.1363320
159.3441185 -26.4190503
159.5727098 -25.9993490
160.0046473 -25.9453076
159.6162052 -24.8628845
158.6418927 -24.8920903
159.5464829 -26.3444149
158.7828921 -25.4413201
160.3254010 -25.8140317
159.4327478 -26.0281708
158.5983237 -25.0325186
160.4129592 -25.7708313
159.5974502 -26.2947801
160.3525133 -25.5164439
159.1952537 -26.3207576
159.2181494 -25.0069560
158.8829020 -25.0161298
158.9086792 -25.8153676
159.5987036 -26.2298401
159.4540327 -25.1404160
160.2302287 -25.7969965
160.3673369 -25.8965871
159.8479377 -25.2148822
158.9452500 -25.4650155
159.9875187 -25.8057890
159.4597600 -26.4322127
158.4726486 -25.2933788
158.8547873 -26.3528531
159.5455633 -24.7203067
158.8604807 -26.6259943
158.6549377 -25.5169428
159.1975009 -25.3406365
159.9608208 -25.4857357
159.6500923 -24.5400042
159.7602421 -25.0308891
159.4955317 -25.4815331
159.7108611 -24.9956329
159.0948860 -25.0760577
158.8744769 -26.5703018
159.3064293 -25.6847914
159.4666500 -24.6014346
159.9741071 -26.1271990
159.0836842 -26.5208008
158.5133680 -25.0436546
159.9745278 -25.6552823
159.8089858 -24.9924341
159.4151874 -25.3281741
158.8791987 -24.8995298
158.5152827 -24.9344656
158.3851615 -25.8095215
160.3151826 -25.9148095
160.1763876 -25.8784885
159.9151105 -24.9396439
159.0072357 -26.2013238
159.4608581 -25.3968627
159.4580422 -26.3430941
159.0648826 -25.6687221
158.4446250 -25.8445393
159.0514542 -25.8114140
158.9447755 -24.7633123
159.7368668 -26.2465352
159.0545578 -26.3963080
160.0464411 -24.9318738
158.6281978 -25.4409009
159.7124703 -24.5070250
159.1256514 -25.1499712
160.0333155 -25.9451645
159.4050012 -25.4512583
158.6803625 -26.1699727
160.1846455 -25.2273776
160.4657786 -26.0293716
160.0788479 -25.0848734
159.2416173 -24.9605727
159.4136970 -25.8000768
159.0165560 -25.7943632
159.3274530 -25.6574078
158.7603717 -25.7924451
159.3996415 -24.5894821
159.3815702 -25.3679086
159.0553077 -24.7722846
160.0977553 -25.4667115
159.8194390 -25.7786782
159.2311402 -26.4541531
159.0090690 -26.4044445
159.0579804 -25.8031057
158.6209684 -25.0141886
158.7499862 -24.7926300
160.0062400 -24.7845617
158.7785714 -25.2512839
159.5760082 -25.1362955
159.2623299 -25.7871156
159.2861650 -24.8538992
158.9880826 -25.6302872
160.5839783 -25.8984442
159.6404815 -24.6457127
159.7878905 -26.0463114
159.7284616 -24.8593504
160.3779596 -25.8077416
158.4577656 -25.1207209
159.5061022 -25.1199805
158.9770763 -26.3294783
160.2686963 -25.6057467
159.9818936 -25.6252267
159.0485587 -25.3426087
158.5691476 -26.1530109
160.2858085 -25.3419826
158.9731792 -25.8605060
159.8134120 -26.1042937
159.3401074 -25.0834917
159.4596981 -25.2929982
158.1037599 -25.1222858
158.9160859 -25.8050311
159.3206719 -25.1097833
159.8636020 -25.6546403
158.5369845 -24.9439386
160.3940817 -25.7624802
159.8777020 -25.3209945
159.4182376 -24.8034517
159.1390441 -25.2927081
158.8705825 -25.0604438
160.2681317 -25.5674025
159.4920944 -25.6089983
159.1037228 -25.8761771
159.7925192 -24.9157006
160.1064515 -24.9718921
160.2112938 -26.1284430
160.2230435 -26.0772554
160.3351146 -25.5155217
159.2574756 -25.0064835
158.5398498 -25.8793940
160.1109620 -25.8401434
159.3411249 -24.7292969
159.9002013 -24.8626769
159.9751818 -25.3906964
160.1023961 -26.0270815
159.8070315 -25.5156320
158.6810567 -25.7225335
158.9608756 -25.4306074
159.9601808 -25.6711214
158.6421577 -26.0703157
159.9348391 -26.0648762
158.8679456 -25.6459532
159.4449442 -25.7979827
159.8664579 -25.1377887
159.5085021 -24.5788381
160.1014695 -25.6498185
159.3344435 -26.3547639
160.0610307 -25.0167384
160.2517248 -25.7008507
159.7190152 -25.6228247
159.4802553 -26.0931382
159.7782959 -25.6378980
159.0057786 -24.7879477
158.6118732 -25.4813245
159.2768537 -25.7184085
159.9465327 -25.2275000
158.4023257 -25.6276779
159.6289655 -25.7131323
159.1895906 -25.0160860
159.0231830 -26.3498511
159.8649562 -25.1456772
159.0675554 -25.6916000
159.4912895 -26.0424721
159.5373052 -24.8537683
159.2421354 -26.5258942
158.6385670 -25.8209913
160.3499258 -25.8130299
160.0039767 -24.8999725
159.5243526 -24.6621226
159.3832997 -25.1138969
159.2981633 -25.5519710
158.7560947 -26.5688858
159.6478490 -25.5228197
158.5861745 -25.0302725
158.9160493 -24.9034465
159.0386541 -26.4156935
158.4830684 -25.8043431
158.8705639 -24.9598250
160.5589732 -25.8359556
160.0252646 -25.3430323
158.7900176 -26.1812392
158.1435964 -25.2707348
159.4141466 -25.2181454
159.7429429 -25.1787886
159.9188410 -25.2680951
158.6249684 -26.1706245
158.6460316 -26.3788123
159.9031784 -25.7318739
159.7635334 -25.4908779
158.8620796 -25.3424271
159.6630586 -24.7300639
159.4519232 -26.2657190
158.7286523 -26.1273566
159.3869070 -26.0150976
160.2578948 -25.8291940
158.1932482 -25.3905101
159.0217617 -25.3505996
159.6386679 -24.5133154
158.4451486 -24.9382102
160.5342520 -25.9655869
159.1371465 -25.7498672
158.5268314 -25.5236123
158.3542389 -25.5390151
160.0930191 -25.5413749
158.9870439 -24.9498806
159.6836129 -24.9480574
160.4364267 -25.7182409
159.3872527 -26.4567843
160.0285428 -24.9209383
159.4925920 -26.4186149
159.2138245 -26.2951398
159.5247957 -25.0691668
159.5039187 -25.3708652
160.0429120 -25.1705791
159.2826439 -24.8267179
159.6754716 -25.5791117
159.7343126 -25.8814563
159.1941390 -25.7039739
159.9643877 -25.7867027
158.6583194 -26.0228295
159.4577036 -25.6832579
158.6399791 -25.0682318
160.4033879 -25.6784310
159.6208451 -24.9551804
158.6672989 -26.0514519
159.7117113 -24.7384312
158.8709515 -26.0560808
158.6667297 -25.6052432
159.0049226 -25.4896868
159.9524916 -25.1646055
159.1890460 -26.3654174
160.1159299 -25.5211081
159.0582911 -25.5515082
159.2925123 -24.9099651
159.2127935 -26.2412480
158.5947668 -25.8912791
158.5910609 -26.2235061
158.3079115 -25.4101997
158.5790629 -25.2847644
159.9603998 -26.2236007
158.7527008 -26.0697103
159.7631129 -25.3582367
159.3930458 -25.0951090
158.9259369 -25.0323181
159.3027433 -26.4220805
159.2547880 -25.5967042
159.6253207 -24.7997296
158.1789979 -25.4726827
159.9433539 -25.6364675
159.0059758 -25.0435817
159.1438173 -26.3827577
159.4827451 -25.9779396
158.2460937 -25.0771715
159.1241897 -25.3991286
159.7576441 -25.8769336
158.3463604 -25.5801889
159.6414337 -24.7981448
159.5504685 -25.5324782
158.8140109 -25.9977773
158.8799727 -26.1250385
159.5352757 -24.5453004
158.3471114 -25.5563653
159.9295231 -26.2510267
159.1555300 -25.0179687
158.8281123 -25.3542048
159.2560613 -26.5464427
159.1152675 -26.5937100
159.0863783 -26.5926184
159.0425597 -25.9543883
159.3422117 -24.8098291
159.3033125 -25.2547235
159.0700013 -25.1240200
158.8613421 -25.8716382
159.0250814 -26.6414530
158.1322568 -25.3539187
159.5445082 -24.7489673
159.3336902 -26.3213469
160.0332153 -24.9488870
158.8578099 -25.6106461
158.9387270 -25.8828603
158.6388001 -26.2937396
159.0939435 -26.3720357
158.5232057 -25.2616587
159.9111906 -25.3895659
159.3928759 -26.2226529
159.3633584 -24.7667052
158.8309664 -25.7557180
158.8926745 -26.5340691
158.2960553 -25.2424405
159.7219955 -25.9918503
159.7724811 -24.5701702
158.6304167 -25.1659629
159.8574776 -24.9996030
158.8735124 -26.4641504
158.3793833 -25.4019891
160.0363588 -25.2742333
159.6907265 -26.1345441
160.2515352 -25.6804365
158.8884254 -24.8301873
158.9676467 -25.7950233
159.4793694 -26.4575284
159.2346758 -25.8218582
158.7820544 -26.3005017
160.2960168 -25.4593861
158.3195202 -25.2734566
160.0542426 -25.3084960
159.2741504 -25.3156081
159.5627760 -26.3925972
159.2336235 -25.7641348
159.7459199 -24.5175997
158.6405385 -25.2622911
160.2705021 -25.8671475
159.5324287 -24.6851221
158.8746481 -25.2099122
159.2470934 -25.1880337
158.7059654 -26.1208587
159.0415752 -24.7954511
159.9956531 -25.4538588
158.2499188 -25.0869669
159.1890407 -25.2707093
158.8691201 -26.0138269
159.0888848 -25.1643571
158.9877818 -25.7293274
159.3011993 -24.7408974
160.1106304 -25.5676944
159.9270994 -25.0234820
160.0726848 -25.2422127
158.5998755 -26.2582598
160.0308022 -25.7632957
158.6619631 -24.8992207
159.2632453 -24.6926986
159.9541965 -25.8684265
159.6204641 -25.9130185
158.6292216 -24.8590487
160.0831716 -25.2187702
159.6923852 -25.4624724
159.3136531 -25.8459260
158.2187186 -25.1419018
158.9383099 -24.9804240
158.8825110 -25.0304174
160.2003638 -26.0507391
159.4706444 -25.6069836
159.4081414 -26.3732293
158.8202605 -26.7075048
160.1533500 -26.0573201
159.4875287 -24.9756536
159.2612348 -24.8081573
159.4528497 -25.0817435
159.4199501 -25.0494498
159.0642669 -25.8031248
159.7705218 -24.5115103
159.2595616 -25.5307977
159.0501427 -26.0147856
158.4666529 -25.0810835
159.0669308 -26.4116292
159.3206432 -25.0544524
160.4204578 -25.9741524
159.6836881 -24.9235401
159.5109499 -24.5398225
158.9514776 -26.6207748
159.3130468 -24.7295415
159.1726924 -25.3987592
159.8788120 -25.2977641
159.6477657 -25.7596144
159.3098089 -25.4172966
158.8488666 -25.3545630
160.2562630 -25.2916400
159.2989866 -24.7596256
160.0990063 -25.6468115
159.5705304 -24.9666577
159.2523665 -25.4409670
159.3228221 -26.1485812
158.9507177 -26.6581635
159.6372701 -24.4300009
159.4439787 -25.8403225
159.2080568 -24.7127888
159.4580190 -26.4250701
160.2918150 -25.4486631
159.5872637 -24.5265782
159.5662564 -25.6565408
158.8219968 -25.4965733
158.4998011 -25.4221500
158.8595039 -26.6898249
158.7775166 -24.8487563
159.2327062 -26.3318586
158.6989348 -25.4669209
158.5173041 -25.2771342
159.5301478 -26.3276931
159.1648068 -25.2150862
159.6891925 -24.4659441
158.9999261 -25.1988056
158.7872692 -26.2287165
159.6710706 -25.3520947
159.6135137 -24.4172633
159.6331973 -24.7262212
159.9773505 -25.7984497
158.8552696 -25.7065927
158.8492863 -25.1695654
158.9462772 -26.5808553
160.0620647 -25.5980433
159.1410942 -24.6314008
159.0293347 -26.0496080
159.0871100 -25.5471514
158.6741820 -25.6153751
159.9177676 -25.9615830
159.6152546 -26.3391155
159.7453360 -25.0950580
158.9579328 -26.2366047
159.0707022 -25.7473160
160.3826995 -25.7071872
159.0008677 -25.2359886
158.9276385 -25.5454856
160.0930006 -24.9619517
158.7970075 -25.9586839
159.8315558 -24.7491857
159.4000987 -24.5643391
159.1152133 -24.6563077
159.0130334 -24.9088964
158.7356148 -26.0414129
159.1663395 -25.1724065
159.1949538 -25.6875697
159.7647521 -26.0513846
159.3427015 -25.9362798
159.1346609 -25.0374747
159.7656044 -25.4380353
159.3642239 -26.4875724
159.6853907 -25.4825064
159.7809260 -25.8502665
159.5370637 -26.4038166
160.3494080 -25.7223648
159.9407571 -25.5026849
159.6514398 -26.2176494
159.0076310 -25.8054038
158.8417331 -25.8967332
159.1812967 -25.5185097
160.0673172 -26.0082848
159.0121660 -25.2839151
159.8887470 -24.8238552
159.0119539 -25.6971551
158.9586321 -25.8004253
159.7587758 -26.2765851
159.0227812 -25.1114620
159.7082805 -24.6537684
158.8298877 -26.3132191
159.7381018 -24.7686076
159.6229015 -24.7107844
159.5299953 -24.9529593
158.1387776 -25.0734246
158.8006981 -26.5396152
159.9822667 -25.7458727
158.8843089 -25.8865325
159.6316991 -25.1739828
159.4239264 -26.3026089
159.3155959 -25.9404198
159.9398861 -25.2966617
159.5031290 -25.2411315
159.3016243 -25.7989437
159.6167401 -24.7235748
158.5389913 -25.4896192
160.0587387 -25.3210792
159.7397598 -24.4327736
159.8120025 -25.2962283
159.4588257 -25.8423173
158.3217163 -25.6622461
159.2893331 -24.8545036
158.8397594 -26.3208054
159.0688104 -25.6432377
160.3700584 -25.8495112
160.3562793 -25.6362917
158.9709063 -26.1252946
160.1608119 -25.9407886
159.9680851 -25.0093105
159.2424875 -25.7615492
160.1691346 -25.9131678
159.9559403 -26.1195368
158.7136204 -24.9564200
159.2670781 -25.5522936
159.2600375 -24.8433768
158.9994127 -25.9782720
158.7829809 -26.2716730
160.1224393 -25.3390521
159.9126103 -24.7398716
158.8647197 -25.4128159
159.4570101 -24.5800546
158.2527986 -25.0037171
158.9783194 -25.0655780
159.8965287 -25.2696162
159.3032966 -25.3270033
159.3478428 -26.4905670
159.2976370 -25.9446191
160.0640129 -25.7739304
159.6565303 -25.7961753
160.2724526 -26.0391638
159.5560554 -24.9860176
158.2730834 -24.9940069
158.0467133 -25.2118887
159.7266452 -25.0255051
160.3950375 -25.6667985
159.4852141 -25.6124002
160.1616537 -26.0788260
159.1833192 -24.9863059
158.9208853 -25.3428732
158.7530684 -25.8301090
159.4707527 -25.7571134
158.6947639 -26.0747061
159.6952915 -24.8400364
159.9308117 -24.9204125
159.3445722 -25.7306844
158.9816361 -26.1490160
160.1962407 -25.6787425
158.9968347 -26.3539402
158.5826634 -26.0196973
159.7067600 -25.4282461
158.5740824 -26.0015633
159.7845524 -25.5576609
159.2401313 -25.1461278
159.9010177 -26.0290366
159.3448887 -25.8931019
159.8244524 -25.1372255
159.4970446 -24.7636734
158.3723574 -25.4895366
160.0438023 -25.4188848
158.8349440 -26.4757506
159.1700843 -26.0406314
158.3670643 -25.7734491
158.3112944 -25.2214959
158.9317240 -25.8966948
158.8474277 -26.6231197
159.9245613 -25.4431330
159.7477812 -24.5553726
159.3456328 -26.2345211
160.1669075 -25.8360569
159.1021213 -24.9320709
159.4605690 -24.8205718
160.1971594 -25.9650904
158.4953543 -25.2220883
160.0007935 -25.6601635
159.0521416 -25.7123534
159.0108248 -24.8996293
159.8146710 -24.6243864
160.1479679 -25.8098951
158.7029475 -24.9825959
159.1016951 -26.0132486
159.7964101 -25.6215497
160.5026236 -25.9857420
160.2707418 -25.5406846
159.9112437 -25.5504070
159.3455940 -25.1687991
159.1147275 -26.1029669
159.2135241 -26.4664357
158.8221987 -24.7692644
159.1751948 -25.1762292
160.2088933 -25.2490443
158.5048869 -25.6752668
158.9547410 -26.0011700
159.5797371 -25.1685825
159.5940965 -25.5674020
158.8196955 -26.0692533
160.1032889 -25.7975985
160.3634047 -25.9518483
159.5172743 -24.9355613
160.1371210 -25.8929340
159.8139376 -24.6008493
158.5579186 -25.7370543
159.3827142 -25.0109249
159.9745244 -26.2198307
159.3585181 -25.6993925
160.2945614 -25.9104005
159.5326657 -26.1972836
159.6839597 -26.0283033
158.7654811 -26.2423706
158.6691474 -26.0059736
160.0143770 -25.6925632
159.2509546 -25.1505309
158.6550152 -25.3079704
158.8342487 -25.2310766
159.4517776 -24.5914231
159.6984257 -26.1798225
159.6592510 -24.5341712
159.9007293 -24.9564495
159.9545423 -25.8055321
159.8026687 -25.1453591
160.4000982 -25.7160602
159.5096006 -24.4953398
158.5934307 -26.0993156
158.5129894 -25.5081953
158.6486589 -25.2629531
159.4545485 -26.3037932
159.6511574 -25.1118037
159.5653420 -25.9665441
159.1326216 -25.3926845
158.9174330 -26.2099927
159.7176964 -24.9050733
159.6811664 -25.7625579
159.4144692 -26.3392816
158.4641852 -25.0918161
158.9822404 -25.7739244
159.0825026 -26.3325133
159.9600743 -24.9086723
158.8577767 -25.6570142
159.9212727 -25.1098143
159.8374398 -26.1304254
160.1641664 -25.9993703
159.5278119 -25.8752866
160.0802405 -25.9322301
160.0222385 -24.8224900
159.4635966 -25.4208674
158.4186688 -25.1845213
159.8463363 -26.1480998
158.7118659 -25.3842092
159.0448881 -25.9445395
159.3445277 -24.7544825
159.0362833 -25.9136357
160.3447863 -26.0725914
159.3856072 -24.5106526
158.9856638 -25.2051353
160.2286874 -25.9846463
159.7289312 -25.2639320
158.8198850 -25.9845296
160.5646440 -25.9335293
159.2091362 -24.7813498
160.0193790 -25.2069013
159.4286339 -26.2679720
159.4985805 -26.2186806
158.4458809 -25.6734268
159.7460556 -24.8567056
159.6595542 -25.9781495
159.6376279 -25.1491779
160.2556054 -25.7423974
160.0215131 -24.8288238
159.5241997 -25.5908051
159.5996766 -25.6591861
159.5879371 -25.1127729
160.1730975 -25.2706495
159.4424906 -24.7480869
159.6447099 -25.5952604
160.0305382 -24.8901986
159.2675076 -25.4701885
159.9475633 -24.8663869
158.3928589 -24.9816947
158.7741152 -25.3009742
159.6819096 -25.8815917
158.7856918 -25.4951218
160.0370883 -25.6878089
158.5653896 -25.3641166
159.1645182 -24.9960948
159.1852506 -25.1301313
158.6867024 -25.2568588
160.3483365 -25.7601364
158.7913660 -25.1057752
160.4829402 -25.8521834
159.9707631 -25.4760788
159.9796460 -25.7305834
159.8713219 -26.2658349
159.6314839 -26.1107929
159.4469689 -25.4950699
158.5588686 -25.3036593
158.0902227 -25.1124762
159.2337415 -26.2342197
159.4364575 -24.8774034
160.1832968 -26.0386100
158.5402505 -25.8130014
158.3165469 -25.6148302
159.3464336 -25.8142935
159.8451442 -26.2860109
160.0223700 -25.6839732
159.5639036 -25.2469604
159.5988274 -25.1050408
159.3259771 -26.4684479
159.6169824 -26.3166605
159.7241115 -24.9932671
159.2536806 -25.6241272
159.1617693 -24.8113974
159.8015302 -26.2464358
158.7378280 -26.0123177
159.7837180 -25.7877922
159.9173928 -25.1384749
159.1371862 -25.0450308
159.5623304 -25.1189866
158.9923787 -26.5589698
159.9144487 -24.6490263
158.5049600 -25.0706243
158.7223891 -25.8081605
159.4194283 -26.0766755
159.3154934 -26.4037227
158.3097588 -25.7075463
158.7659030 -26.0233993
159.0042842 -25.6756881
159.9662602 -25.9249380
158.7959359 -26.1491469
158.6533465 -26.0967156
159.5392317 -25.9671954
159.2800756 -25.8045681
158.4917526 -25.6502418
160.4749582 -25.8102508
159.1857525 -26.5711532
159.2720177 -26.2750866
159.5954051 -24.6604803
158.8574384 -26.2681772
159.0177056 -25.5099761
158.6579885 -26.3211652
160.0061517 -24.7973592
159.2795242 -25.7555423
159.5871049 -25.7278184
159.6315301 -25.1137887
160.2822170 -25.7905648
159.4553111 -24.9575844
159.2278416 -25.2989598
159.6841774 -24.9339834
159.1731620 -25.9817491
159.8164170 -24.7056212
158.3003976 -25.1970672
158.3302499 -25.0153373
158.9995481 -26.0963267
158.4201670 -25.5495024
158.7538594 -25.1884547
159.7248294 -26.1831510
159.3856324 -24.7801079
158.8540147 -25.4372429
158.4922769 -25.8716899
159.5708452 -25.8328257
159.4632374 -25.4651966
159.8357581 -25.0316036
159.8523064 -25.7177069
159.0462716 -26.3611275
158.1261025 -25.3427872
160.2344091 -25.7305595
159.0942952 -25.4634654
159.6086013 -24.6713469
159.9903468 -25.3689836
158.3438528 -25.7875715
160.3913637 -25.9331731
159.0949111 -25.1774826
159.3612083 -24.7946225
158.7973189 -25.8676889
159.4502148 -26.4224674
158.8107884 -26.5524967
160.2478729 -25.7313437
158.1880663 -25.1588702
159.2611642 -24.9875426
159.9846985 -26.1030714
158.7634533 -25.3864369
159.2020679 -25.7852036
159.0735115 -25.3889839
159.5772710 -24.6096277
160.1966611 -25.9829034
159.6139985 -25.6140785
159.7590471 -26.2024879
159.8705157 -26.2775458
159.5295781 -25.8464183
159.4240959 -24.5253212
159.4643879 -24.5133090
158.9005425 -25.4347428
160.3936435 -25.5284513
158.6346193 -25.9812175
159.9012077 -26.2699995
159.5020164 -26.4438862
159.5958749 -26.1511320
159.6298637 -25.5167571
159.0772304 -25.3108282
158.9404741 -26.2565033
159.5125987 -26.0339824
159.7700305 -24.5646424
159.5139578 -26.3607182
159.8212753 -25.1354523
159.9505848 -26.2124653
159.0584455 -25.2825175
159.9312485 -25.3594314
160.0582490 -25.2855096
159.1206413 -24.7581048
158.7662723 -26.4435663
158.5640831 -25.7326902
160.2812296 -25.9896746
159.9470240 -26.0160406
159.0635536 -26.5371787
160.3446439 -25.5871647
158.3028992 -25.5046062
160.0833789 -25.6166196
158.5215648 -25.8767781
159.6004218 -26.1667043
158.9155075 -25.3962021
159.5584809 -24.5868246
159.5519746 -25.0919389
159.0816511 -25.0176379
160.0172648 -25.6472489
159.8147798 -25.2444597
159.9728954 -25.8460543
158.3648391 -25.6263364
158.6720620 -25.7696399
158.8946034 -25.4437940
159.9316566 -25.9248925
159.4281873 -25.6945467
158.4388719 -25.5288534
159.6448161 -24.4159940
158.1749059 -25.0289534
159.6528021 -25.6749566
160.2793572 -25.9310678
158.9653539 -26.6632080
160.1277208 -26.1315616
158.2957958 -25.4796643
159.5771978 -24.9378288
159.7108454 -26.2351271
158.9105973 -25.7630274
159.0745473 -25.5251711
159.7222344 -26.2712884
159.7775603 -24.8337593
159.3838868 -24.8680854
159.4752154 -24.5256993
159.5146958 -25.7065242
159.8025884 -24.9805552
158.2844586 -25.3089214
159.3272321 -25.1815544
159.2916360 -26.1474103
159.1908101 -26.1842532
158.5927888 -26.1626540
160.3258905 -25.7785623
160.2702059 -26.0364075
158.8472216 -26.2602453
158.6493563 -26.2485276
158.5204950 -25.3948035
159.6930728 -24.3920988
158.6689768 -24.8590324
159.1082358 -25.3282539
159.3545496 -25.4441355
160.0856285 -25.8222772
158.9655568 -25.6162726
158.4235969 -25.9071220
159.9694207 -25.5095534
159.6957175 -25.0542289
159.7859515 -24.9395934
160.2640296 -25.8589415
160.0155491 -25.2143207
160.1519847 -25.4234409
160.4396339 -25.6575564
159.2598769 -25.2045670
159.8502330 -25.8741952
159.5220437 -26.1992614
158.4197210 -25.8201132
159.0748912 -26.2759057
158.4731935 -25.0176736
159.4906146 -24.7902797
158.7452447 -25.1856072
158.1434522 -25.2214957
158.6537309 -25.9303121
159.3775935 -24.5231614
159.9162567 -24.8152258
159.4430983 -26.3155937
158.6980483 -25.7502817
159.1734157 -26.5707403
159.2987967 -25.9206291
159.2697347 -26.0439691
160.0167116 -25.1985744
158.7687433 -25.3620137
159.3977703 -25.2708489
160.1578705 -25.7415218
158.7768612 -25.3686002
160.1138509 -25.3870613
159.8276676 -24.6267708
160.0398130 -25.3111610
159.1648339 -25.6004307
159.0230770 -25.5959291
159.2310315 -25.2868911
159.7700334 -24.9765928
158.9801697 -26.3452758
159.6901816 -24.6020279
159.9593386 -25.3682466
158.7162853 -25.9131615
158.4501511 -25.7175646
159.1425080 -25.5040483
159.6689156 -24.8995916
159.2239462 -25.4774983
158.9400243 -25.0959097
159.3271595 -25.8515164
159.1799344 -24.8181785
158.9181162 -26.2624334
159.2364924 -26.2128358
159.6054093 -25.1190400
159.2496432 -25.7823694
159.2145113 -25.5705679
159.6792619 -24.8698632
159.9716473 -25.9152159
160.3111217 -25.6766241
159.5835869 -26.3264563
158.1487493 -25.2756352
159.0720717 -25.9781538
160.1999839 -25.3210708
159.3797851 -25.4259411
158.8252308 -26.5355537
159.7301596 -26.0135153
159.4942418 -25.6657184
158.6747804 -24.9628565
160.0332916 -25.1408175
159.2939668 -26.0402583
159.2222184 -25.7835466
158.7892016 -26.0308802
160.2687781 -25.5230055
159.1610479 -26.4080935
160.0578097 -24.8764350
160.0883128 -26.1839363
159.0730044 -24.7655286
159.1299712 -25.3660006
159.0123316 -26.1361561
158.9313169 -24.9503094
160.1541321 -25.8871464
159.1540264 -25.5844483
159.8973101 -25.7743273
160.0346952 -25.7729988
158.8509528 -26.0020116
159.3010412 -25.8240975
159.7422108 -26.1579091
159.4583678 -24.9668576
159.0248190 -26.0380733
159.7945357 -25.3170815
160.4356200 -25.8640014
159.2238295 -25.4928651
160.0055575 -26.2066234
159.0616575 -26.5097450
159.5507596 -25.1872467
159.1953031 -24.6448263
159.6560260 -26.1185758
160.5075310 -25.7426275
159.3155343 -25.2112103
159.3591893 -26.0769637
160.0593708 -25.1498205
158.5199077 -25.2897895
160.0317937 -25.4273676
160.0293418 -25.0195815
159.2554333 -26.0259378
159.6050472 -24.7756664
159.8051559 -25.7443341
159.8945847 -26.2474614
160.1481613 -25.7515514
158.4677201 -25.7375648
159.0293747 -25.9505551
159.0647066 -25.5533832
159.2212673 -25.7175571
159.0406319 -25.8396535
159.5122333 -25.9886181
158.6538082 -25.0738398
158.4217446 -25.0222428
159.6828049 -25.1580761
158.7186855 -26.0727158
159.9208814 -26.2618339
159.3987419 -24.5045933
159.3598040 -25.4047950
159.9113290 -25.2403134
158.6144415 -25.4001352
159.8702081 -24.5488094
160.1562781 -25.0588532
158.4656073 -26.0165324
159.7092586 -26.2667289
159.3953970 -25.5280570
158.7818206 -26.0602991
158.4346974 -24.9175340
158.4057615 -25.6652364
159.2134475 -25.6085539
160.0470789 -24.9326532
158.5925203 -25.7406645
159.2098294 -24.8648023
159.7035508 -24.8419203
159.7962918 -24.7802445
158.6405211 -26.1138348
158.8478624 -26.0067667
158.5011143 -25.3833489
159.1755978 -25.2749718
160.0992822 -25.6790391
159.6793687 -25.5121525
160.1324047 -25.9242793
159.9268394 -25.7999163
159.4833527 -24.7995177
158.9140815 -25.6758011
159.4418091 -25.3944423
159.0538458 -25.0075551
159.3195121 -24.6105872
159.5691561 -25.6966403
158.3213741 -25.0978003
159.4664305 -24.8913511
159.0654831 -25.2497109
158.4007516 -25.8039321
159.2322255 -25.0359495
159.7088958 -26.2857265
159.9502955 -24.8375725
160.3737390 -26.0361126
160.0508469 -24.8620038
159.7126455 -24.5363931
159.3531769 -26.3792114
159.3780991 -24.9063029
160.1545873 -25.4660520
159.8653661 -24.7314659
159.4393599 -24.8595132
159.0022063 -25.1066922
159.7792622 -24.7234762
158.7653330 -25.0996255
160.0499344 -25.0468599
158.7403023 -25.6374196
158.9826855 -26.5393957
159.4693561 -25.3853425
159.7814767 -24.6709105
159.6107525 -25.5696336
159.7077205 -24.3957260
158.9580894 -26.2235675
159.8021452 -25.5769375
160.4776588 -25.8850403
159.5657401 -25.2860543
159.5113996 -25.3576538
159.7437551 -24.4536846
159.1778575 -25.0242552
158.7697847 -24.8387070
160.1574903 -25.2126741
158.5131896 -25.5235114
159.2773801 -25.3086056
158.2165847 -25.4916111
159.7827725 -24.9912235
159.5812092 -25.2723806
160.0047623 -24.9386320
158.8236163 -25.5781907
159.0120216 -26.4916187
159.3281095 -25.4458237
159.4703293 -25.3437585
159.1913324 -25.5947196
159.9933285 -25.2872406
159.8208518 -25.5870944
160.0046219 -25.5591636
158.8497841 -25.0587792
159.8694996 -26.1557691
158.9326658 -26.1690258
160.2922173 -26.0163511
158.6815777 -25.0965603
159.3184119 -25.5708547
159.2148634 -26.3534343
159.2537871 -26.4973482
160.2498590 -25.7518200
159.0519335 -24.6687460
159.6873208 -26.1005843
158.8642703 -25.0351111
159.7161182 -24.7383660
159.9569595 -25.7840533
159.9555837 -25.6244962
158.8696531 -25.3586204
160.2579264 -25.3797914
159.5053412 -26.2613530
160.1637030 -25.8391390
158.4111597 -25.8255792
158.4797637 -25.1867165
158.8308510 -25.2689892
159.8979448 -25.8474370
159.3483776 -26.2238655
158.8434692 -25.0016617
159.8143046 -26.2397293
159.6045105 -26.3593447
159.1595077 -25.1389063
158.8841553 -24.8444058
159.6270600 -25.2774310
159.3094800 -25.2281963
158.6781267 -26.4358756
158.3944328 -25.0159197
159.7759887 -25.1294972
158.6681514 -25.8226387
158.6441286 -26.1504537
158.9453319 -25.2159965
159.2129384 -24.6969832
159.0126404 -26.0042119
159.7303940 -24.8819365
159.8289147 -24.9582488
159.3912624 -24.8314626
159.8448371 -25.5993401
158.6951310 -24.9871204
160.2125501 -25.6880297
159.3455177 -25.2292539
158.8543635 -25.6612147
158.7826964 -26.2357487
159.7216557 -26.2486688
158.1699643 -25.2171271
159.7657437 -25.1907260
159.4631178 -26.3938554
160.2162472 -26.0951675
159.9875611 -25.7697781
159.4411585 -24.4906090
158.2511079 -25.1769689
159.6654892 -25.4462934
159.6066909 -24.7403355
158.7278101 -24.9425961
159.2777698 -26.4374448
158.9849058 -26.2560512
159.5035440 -26.1473025
159.5663905 -25.7054964
158.2844117 -25.3802673
160.0153223 -24.9162316
159.2129407 -25.1822127
159.5552921 -26.3182268
158.8559549 -25.3653904
159.7818666 -26.2251575
159.7124877 -24.4604131
159.7934589 -26.2701627
159.2178548 -26.1818308
159.5429239 -24.7378762
159.6165023 -26.0192825
160.5612740 -25.8895858
158.5645789 -26.0919096
158.6501179 -25.0273096
158.9555538 -26.6728726
158.5998527 -25.6487426
158.2782646 -25.4753627
158.9342753 -24.9433769
158.7824009 -25.5618225
159.0416389 -25.6887360
159.1719740 -25.3990124
159.0740171 -26.1191851
159.8076563 -25.6154540
158.8974144 -25.5638640
160.3035008 -25.4255592
159.0758568 -24.7143634
158.9264381 -25.0990964
159.0036067 -25.3981362
159.6053240 -26.1174768
158.3870783 -25.3953762
159.4365010 -25.6511252
158.8565893 -25.8431598
159.9423992 -25.6051024
158.4205711 -25.0410902
159.0377690 -25.3222440
158.8345241 -26.2156551
158.7012467 -25.8177933
159.1353223 -25.3336644
159.3862863 -24.7778503
159.3743002 -25.0979833
158.1487402 -25.3868894
159.2625962 -25.5022636
158.3147177 -25.7442639
159.8047226 -24.7716191
159.7123356 -25.4132688
158.1961839 -25.5065507
159.4607518 -25.0550959
160.0430974 -25.1776007
158.7444384 -26.1247372
159.2312012 -24.7030871
160.1341543 -25.1483922
159.9523498 -25.6134916
159.1831264 -25.9726248
159.1847868 -25.0955723
160.0226767 -25.9626106
159.2886595 -25.8117390
159.2064606 -25.4043274
159.1202111 -26.1183118
159.2527763 -26.5142252
158.5667337 -25.4085955
158.5606933 -25.0518502
158.9087716 -24.8326201
158.9612599 -25.6752722
159.4989364 -24.5670733
158.9133863 -24.9702895
159.2415723 -26.0244401
160.2986071 -25.3944077
159.2293524 -25.4100680
159.1248728 -26.0298210
159.8732737 -25.2991017
159.0407732 -26.0606404
159.5493738 -24.9380989
158.8690969 -25.2830612
158.7566854 -25.1145435
158.9573535 -25.5071454
158.7444289 -25.0085306
159.2218536 -26.1505909
158.6748382 -25.3393412
159.8373815 -25.9067022
159.5984420 -25.6997916
160.1878078 -25.5805837
159.9181458 -25.6606321
159.4499009 -24.9075886
160.0910200 -26.0433464
159.2520718 -25.0750469
158.6585978 -25.0453254
159.9698493 -24.7334722
158.6170830 -25.2807982
160.5372834 -25.9635190
158.7830831 -26.4304343
158.1996834 -25.1685009
160.2610522 -25.9204357
159.7354566 -25.2116583
160.1173418 -25.0463746
158.5059892 -25.9656103
159.1185461 -24.6968205
158.5295780 -25.6068320
158.0209903 -25.1169978
159.8561148 -25.4656023
159.8957524 -25.3473367
159.7677687 -24.8469961
158.5652717 -26.1389614
159.7982778 -25.6418855
159.6737577 -25.5651936
158.7859012 -26.3491960
158.6927975 -25.7066012
158.8838509 -25.7065057
158.3772097 -25.3409800
161.6110850 -24.9093053
